{"learner":{"attributes":{"best_iteration":"36","best_score":"0.24583313373082238","scikit_learn":"{\"_estimator_type\": \"classifier\"}"},"feature_names":["ATR_pct","Hour","EMA100_ratio","CCI","EMA200_ratio","STDEV_pct","Vol_Ratio","Spread_KC_BB"],"feature_types":["float","int","float","float","float","float","float","float"],"gradient_booster":{"model":{"cats":{"enc":[],"feature_segments":[],"sorted_idx":[]},"gbtree_model_param":{"num_parallel_tree":"1","num_trees":"67"},"iteration_indptr":[0,1,2,3,4,5,6,7,8,9,10,11,12,13,14,15,16,17,18,19,20,21,22,23,24,25,26,27,28,29,30,31,32,33,34,35,36,37,38,39,40,41,42,43,44,45,46,47,48,49,50,51,52,53,54,55,56,57,58,59,60,61,62,63,64,65,66,67],"tree_info":[0,0,0,0,0,0,0,0,0,0,0,0,0,0,0,0,0,0,0,0,0,0,0,0,0,0,0,0,0,0,0,0,0,0,0,0,0,0,0,0,0,0,0,0,0,0,0,0,0,0,0,0,0,0,0,0,0,0,0,0,0,0,0,0,0,0,0],"trees":[{"base_weights":[1.1607207E-2,-3.4139323E-1,1.106516E0,-1.1025387E0,-1.5092099E-1,7.7711076E-1,1.5655422E0,-1.3032093E0,3.9204636E-1,1.0806524E-1,-6.128356E-1,2.2919808E-1,8.695422E-1,1.8030657E0,1.3212724E0,-4.4685495E-1,-1.3908788E0,1.6968497E0,1.5526125E-1,-1.0076411E0,2.137428E-1,-7.704106E-1,-1.1211514E-1,-9.839528E-2,1.0519499E0,1.4075207E0,6.3724476E-1,1.8282912E0,1.651175E0,1.0615097E0,1.5119374E0,-2.9565057E-2,3.710809E-3,-3.1102723E-2,-2.449446E-2,1.8917289E-2,3.6837544E-2,-3.8E-2,4.8543983E-3,-2.7698366E-2,-1.2786041E-2,-4.876047E-3,6.002161E-3,-1.1603672E-2,-2.6870301E-2,5.688121E-3,-7.642229E-3,-1.7299417E-2,4.335549E-3,-1.43796485E-2,2.3688827E-2,2.3053905E-2,3.1342924E-2,8.785243E-3,2.0666715E-2,3.667181E-2,2.6885109E-2,2.241897E-2,3.4923792E-2,2.5858447E-2,1.4924889E-2,-1.8190652E-2,3.1057462E-2],"categories":[],"categories_nodes":[],"categories_segments":[],"categories_sizes":[],"default_left":[0,0,0,0,0,0,0,0,0,0,0,0,0,0,0,0,0,0,0,0,0,0,0,0,0,0,0,0,0,0,0,0,0,0,0,0,0,0,0,0,0,0,0,0,0,0,0,0,0,0,0,0,0,0,0,0,0,0,0,0,0,0,0],"id":0,"left_children":[1,3,5,7,9,11,13,15,17,19,21,23,25,27,29,31,33,35,37,39,41,43,45,47,49,51,53,55,57,59,61,-1,-1,-1,-1,-1,-1,-1,-1,-1,-1,-1,-1,-1,-1,-1,-1,-1,-1,-1,-1,-1,-1,-1,-1,-1,-1,-1,-1,-1,-1,-1,-1],"loss_changes":[1.3027221E4,3.6948513E3,1.2410625E3,1.5305723E3,2.4390635E3,2.4208936E2,1.9643555E2,3.368662E2,1.863341E2,1.54044E3,5.777417E2,1.8681958E2,5.106411E2,3.2885742E0,8.213501E1,2.7387485E2,1.0915527E2,8.0746155E0,9.248294E1,1.560022E2,4.7168298E2,6.0637573E2,1.8796376E2,1.2009883E2,4.7203598E1,4.8115234E1,2.2382825E2,1.0136719E0,1.0768616E1,5.146765E1,9.817163E1,0E0,0E0,0E0,0E0,0E0,0E0,0E0,0E0,0E0,0E0,0E0,0E0,0E0,0E0,0E0,0E0,0E0,0E0,0E0,0E0,0E0,0E0,0E0,0E0,0E0,0E0,0E0,0E0,0E0,0E0,0E0,0E0],"parents":[2147483647,0,0,1,1,2,2,3,3,4,4,5,5,6,6,7,7,8,8,9,9,10,10,11,11,12,12,13,13,14,14,15,15,16,16,17,17,18,18,19,19,20,20,21,21,22,22,23,23,24,24,25,25,26,26,27,27,28,28,29,29,30,30],"right_children":[2,4,6,8,10,12,14,16,18,20,22,24,26,28,30,32,34,36,38,40,42,44,46,48,50,52,54,56,58,60,62,-1,-1,-1,-1,-1,-1,-1,-1,-1,-1,-1,-1,-1,-1,-1,-1,-1,-1,-1,-1,-1,-1,-1,-1,-1,-1,-1,-1,-1,-1,-1,-1],"split_conditions":[5.255864E-3,6E0,7.730889E-3,4.4348743E-3,1.6E1,7E0,8E0,1.7382847E-3,7.971148E-1,1.9784453E-3,4.0732273E-3,6.8143927E-3,1.4E1,2.2978E0,9.229276E-3,4E0,2.8664584E-3,-3.9141242E4,3.1705317E-1,1.8213494E-3,8E0,2.2E1,-2.18407E4,6.835471E-1,-1.6864328E4,8.238266E-1,-9.047277E3,3.096978E0,6.47255E-1,1.6E1,3.2268414E-1,-2.9565057E-2,3.710809E-3,-3.1102723E-2,-2.449446E-2,1.8917289E-2,3.6837544E-2,-3.8E-2,4.8543983E-3,-2.7698366E-2,-1.2786041E-2,-4.876047E-3,6.002161E-3,-1.1603672E-2,-2.6870301E-2,5.688121E-3,-7.642229E-3,-1.7299417E-2,4.335549E-3,-1.43796485E-2,2.3688827E-2,2.3053905E-2,3.1342924E-2,8.785243E-3,2.0666715E-2,3.667181E-2,2.6885109E-2,2.241897E-2,3.4923792E-2,2.5858447E-2,1.4924889E-2,-1.8190652E-2,3.1057462E-2],"split_indices":[0,1,0,0,1,1,1,0,7,0,0,0,1,7,0,1,5,3,6,5,1,1,3,6,3,6,3,6,6,1,6,0,0,0,0,0,0,0,0,0,0,0,0,0,0,0,0,0,0,0,0,0,0,0,0,0,0,0,0,0,0,0,0],"split_type":[0,0,0,0,0,0,0,0,0,0,0,0,0,0,0,0,0,0,0,0,0,0,0,0,0,0,0,0,0,0,0,0,0,0,0,0,0,0,0,0,0,0,0,0,0,0,0,0,0,0,0,0,0,0,0,0,0,0,0,0,0,0,0],"sum_hessian":[3.3703156E4,2.5486773E4,8.216382E3,5.100274E3,2.03865E4,4.785288E3,3.4310945E3,4.496717E3,6.0355725E2,1.3062929E4,7.3235713E3,6.913982E2,4.0938896E3,1.7361268E3,1.6949675E3,4.1827292E2,4.0784438E3,9.1693275E1,5.1186395E2,1.1294208E3,1.1933508E4,5.569979E3,1.7535918E3,4.9504572E2,1.9635245E2,1.232967E3,2.8609226E3,1.4788312E3,2.5729572E2,7.204779E2,9.744896E2,1.5853412E2,2.597388E2,2.0464321E3,2.0320118E3,1.6170467E1,7.552281E1,2E1,4.9186395E2,5.564433E2,5.729775E2,1.8943987E3,1.0039108E4,4.1835474E3,1.3864321E3,7.1018225E2,1.0434095E3,1.4381822E2,3.5122748E2,1.3306823E1,1.8304562E2,4.7828452E2,7.5468256E2,1.9090581E3,9.5186444E2,1.4598539E3,1.8977291E1,4.1204582E1,2.1609114E2,4.135231E2,3.0695477E2,1.5806823E1,9.586828E2],"tree_param":{"num_deleted":"0","num_feature":"8","num_nodes":"63","size_leaf_vector":"1"}},{"base_weights":[-4.098793E-3,-2.0678715E-1,1.1344881E0,-8.8551843E-1,-3.8828533E-2,8.561213E-1,1.4699192E0,2.0855717E-1,-1.0456822E0,2.5478524E-1,-4.5867997E-1,1.674116E0,7.114287E-1,1.6294769E0,1.0692698E0,1.2370844E0,-1.7267177E-2,-1.1836653E0,1.3595557E-1,1.1323817E-1,8.7658775E-1,-5.712451E-1,1.1739545E-1,1.8553495E0,1.4020764E0,1.149984E0,4.8280725E-1,1.462727E0,1.6895884E0,1.1493944E0,-3.7605353E-2,-6.562215E-3,3.8208913E-2,-3.3453174E-2,7.1132937E-3,-3.1278733E-2,-1.8149577E-2,3.0720085E-2,-2.2752501E-2,2.1861283E-2,6.1246153E-4,1.4401172E-2,3.0996682E-2,-7.878712E-3,-1.6531385E-2,4.7374056E-3,-2.4312088E-2,3.8355E-2,1.1809574E-2,-6.3437526E-3,3.5036627E-2,3.0356266E-2,1.43815465E-2,-1.8442699E-3,1.3303605E-2,3.3649553E-2,2.6273873E-2,3.4763176E-2,3.0822808E-2,-6.423288E-3,2.542369E-2],"categories":[],"categories_nodes":[],"categories_segments":[],"categories_sizes":[],"default_left":[0,0,0,0,0,0,0,0,0,0,0,0,0,0,0,0,0,0,0,0,0,0,0,0,0,0,0,0,0,0,0,0,0,0,0,0,0,0,0,0,0,0,0,0,0,0,0,0,0,0,0,0,0,0,0,0,0,0,0,0,0],"id":1,"left_children":[1,3,5,7,9,11,13,15,17,19,21,23,25,27,29,31,33,35,37,39,41,43,45,47,49,51,53,55,57,59,-1,-1,-1,-1,-1,-1,-1,-1,-1,-1,-1,-1,-1,-1,-1,-1,-1,-1,-1,-1,-1,-1,-1,-1,-1,-1,-1,-1,-1,-1,-1],"loss_changes":[7.748375E3,3.249026E3,4.7225586E2,9.910127E2,2.8168184E3,3.2704395E2,1.449834E2,1.68008E2,8.0440967E2,1.1832739E3,6.098954E2,1.759668E1,2.3590051E2,1.367627E1,1.5759692E2,1.380162E2,3.6713315E2,4.621787E2,9.2278973E2,8.86587E2,2.613827E2,3.5569165E2,2.4509811E2,1.8074646E1,1.0337869E2,1.2672461E2,1.6299576E2,1.200116E1,5.6484375E0,1.1535358E2,0E0,0E0,0E0,0E0,0E0,0E0,0E0,0E0,0E0,0E0,0E0,0E0,0E0,0E0,0E0,0E0,0E0,0E0,0E0,0E0,0E0,0E0,0E0,0E0,0E0,0E0,0E0,0E0,0E0,0E0,0E0],"parents":[2147483647,0,0,1,1,2,2,3,3,4,4,5,5,6,6,7,7,8,8,9,9,10,10,11,11,12,12,13,13,14,14,15,15,16,16,17,17,18,18,19,19,20,20,21,21,22,22,23,23,24,24,25,25,26,26,27,27,28,28,29,29],"right_children":[2,4,6,8,10,12,14,16,18,20,22,24,26,28,30,32,34,36,38,40,42,44,46,48,50,52,54,56,58,60,-1,-1,-1,-1,-1,-1,-1,-1,-1,-1,-1,-1,-1,-1,-1,-1,-1,-1,-1,-1,-1,-1,-1,-1,-1,-1,-1,-1,-1,-1,-1],"split_conditions":[8.015862E-3,6E0,1.7594336E-2,-1.9404683E-2,1.5E1,-6.826341E-2,2.3659353E0,-4.2554785E-2,5.930811E-3,9.308491E-3,1.5528361E-2,6E0,1.824686E0,9.802241E-3,2.2E1,-2.4527265E-2,-1.825529E-2,-3.914421E-4,1.5840961E0,-2.7533248E-2,2.0400641E-2,1.3447537E0,2.6056634E-2,2.4971342E0,2E1,1.3E1,9.225274E-3,1.4597955E0,2.0220263E0,9.225274E-3,-3.7605353E-2,-6.562215E-3,3.8208913E-2,-3.3453174E-2,7.1132937E-3,-3.1278733E-2,-1.8149577E-2,3.0720085E-2,-2.2752501E-2,2.1861283E-2,6.1246153E-4,1.4401172E-2,3.0996682E-2,-7.878712E-3,-1.6531385E-2,4.7374056E-3,-2.4312088E-2,3.8355E-2,1.1809574E-2,-6.3437526E-3,3.5036627E-2,3.0356266E-2,1.43815465E-2,-1.8442699E-3,1.3303605E-2,3.3649553E-2,2.6273873E-2,3.4763176E-2,3.0822808E-2,-6.423288E-3,2.542369E-2],"split_indices":[5,1,4,4,1,4,7,4,5,2,4,1,7,5,1,2,2,4,7,4,2,7,2,7,1,1,5,7,7,5,0,0,0,0,0,0,0,0,0,0,0,0,0,0,0,0,0,0,0,0,0,0,0,0,0,0,0,0,0,0,0],"split_type":[0,0,0,0,0,0,0,0,0,0,0,0,0,0,0,0,0,0,0,0,0,0,0,0,0,0,0,0,0,0,0,0,0,0,0,0,0,0,0,0,0,0,0,0,0,0,0,0,0,0,0,0,0,0,0,0,0,0,0,0,0],"sum_hessian":[3.3573355E4,2.8500648E4,5.072707E3,5.652733E3,2.2847916E4,2.77426E3,2.2984468E3,7.217243E2,4.931009E3,1.3445358E4,9.402558E3,4.1528067E2,2.3589795E3,1.641433E3,6.5701385E2,1.2920752E2,5.925168E2,4.415484E3,5.1552484E2,1.0953294E4,2.492064E3,7.865769E3,1.5367883E3,2.4552414E2,1.6975655E2,8.068206E2,1.5521588E3,4.4208392E2,1.1993491E3,6.402652E2,1.6748686E1,3.897538E1,9.023215E1,1.0834992E2,4.8416684E2,1.8555779E3,2.559906E3,2.45509E2,2.7001587E2,8.5067957E2,1.0102614E4,2.0237599E3,4.6830414E2,4.6438154E3,3.2219539E3,1.4112018E3,1.2558662E2,2.3341377E2,1.2110357E1,2.8663721E1,1.4109282E2,4.337822E2,3.730384E2,3.737317E2,1.1784271E3,1.742261E2,2.6785782E2,8.9510065E2,3.042484E2,4.8782413E1,5.914828E2],"tree_param":{"num_deleted":"0","num_feature":"8","num_nodes":"61","size_leaf_vector":"1"}},{"base_weights":[7.5699417E-3,-3.6566567E-1,9.99195E-1,-1.1462785E0,-1.7125002E-1,6.3148236E-1,1.4680048E0,-1.271471E0,2.2550751E-1,7.726214E-2,-6.2118214E-1,4.3781647E-1,1.1278213E0,1.6799572E0,1.2502768E0,-3.6912224E-1,-1.356434E0,1.5995668E0,-4.7023118E-2,-5.399935E-1,2.600537E-1,-1.4383833E0,-4.4986472E-1,2.0267019E-1,6.7958516E-1,1.398942E0,8.696411E-1,1.7544158E0,1.5162754E0,8.157255E-1,1.6071686E0,-3.8794287E-2,7.088046E-3,-4.5621237E-3,-2.883843E-2,1.231384E-2,3.601128E-2,1.3947338E-2,-1.2574158E-2,-1.7212374E-2,5.6860666E-3,3.3977346E-3,1.4863678E-2,-3.2933578E-2,-1.4360949E-2,-1.3118716E-2,4.707453E-3,1.1650321E-2,-2.2444588E-3,-3.987377E-3,1.6161913E-2,2.1763261E-2,3.259566E-2,1.0673784E-2,2.8684217E-2,3.5466682E-2,2.1824816E-2,3.1497452E-2,-3.7248E-2,1.8063104E-2,-2.9620146E-2,2.1661505E-2,3.4050006E-2],"categories":[],"categories_nodes":[],"categories_segments":[],"categories_sizes":[],"default_left":[0,0,0,0,0,0,0,0,0,0,0,0,0,0,0,0,0,0,0,0,0,0,0,0,0,0,0,0,0,0,0,0,0,0,0,0,0,0,0,0,0,0,0,0,0,0,0,0,0,0,0,0,0,0,0,0,0,0,0,0,0,0,0],"id":2,"left_children":[1,3,5,7,9,11,13,15,17,19,21,23,25,27,29,31,33,35,37,39,41,43,45,47,49,51,53,55,57,59,61,-1,-1,-1,-1,-1,-1,-1,-1,-1,-1,-1,-1,-1,-1,-1,-1,-1,-1,-1,-1,-1,-1,-1,-1,-1,-1,-1,-1,-1,-1,-1,-1],"loss_changes":[1.2483071E4,3.7185652E3,1.5888447E3,8.394658E2,2.1938577E3,4.963938E2,1.8466504E2,3.4259424E2,1.535334E2,1.4262307E3,9.765266E2,2.1133496E2,1.000918E2,2.2007324E1,3.091836E2,4.4036685E2,3.941753E2,1.2066956E1,1.4874966E2,7.635867E2,4.2462805E2,1.8003125E2,8.1535925E2,2.2595361E2,2.0740247E2,4.858264E1,1.404992E2,1.5378906E1,1.3139685E2,1.831399E2,5.2784424E1,0E0,0E0,0E0,0E0,0E0,0E0,0E0,0E0,0E0,0E0,0E0,0E0,0E0,0E0,0E0,0E0,0E0,0E0,0E0,0E0,0E0,0E0,0E0,0E0,0E0,0E0,0E0,0E0,0E0,0E0,0E0,0E0],"parents":[2147483647,0,0,1,1,2,2,3,3,4,4,5,5,6,6,7,7,8,8,9,9,10,10,11,11,12,12,13,13,14,14,15,15,16,16,17,17,18,18,19,19,20,20,21,21,22,22,23,23,24,24,25,25,26,26,27,27,28,28,29,29,30,30],"right_children":[2,4,6,8,10,12,14,16,18,20,22,24,26,28,30,32,34,36,38,40,42,44,46,48,50,52,54,56,58,60,62,-1,-1,-1,-1,-1,-1,-1,-1,-1,-1,-1,-1,-1,-1,-1,-1,-1,-1,-1,-1,-1,-1,-1,-1,-1,-1,-1,-1,-1,-1,-1,-1],"split_conditions":[4.971197E-3,6E0,7.2875977E-3,4.4348743E-3,1.6E1,1.21474955E-2,9E0,1.7207045E-3,7.894091E-1,2.311007E-3,-1.1393564E-2,5.8861165E-3,1.5E1,1.6714844E0,1.4602864E-2,-2.739264E-4,-2.0575926E-2,-3.9141242E4,-2.0177122E-2,5.0858166E-3,1.0896701E-2,1.805557E0,3.8676236E-3,1.4E1,7E0,1.1E1,2E1,7.255921E-2,8E0,4.605896E-3,8.3564315E-3,-3.8794287E-2,7.088046E-3,-4.5621237E-3,-2.883843E-2,1.231384E-2,3.601128E-2,1.3947338E-2,-1.2574158E-2,-1.7212374E-2,5.6860666E-3,3.3977346E-3,1.4863678E-2,-3.2933578E-2,-1.4360949E-2,-1.3118716E-2,4.707453E-3,1.1650321E-2,-2.2444588E-3,-3.987377E-3,1.6161913E-2,2.1763261E-2,3.259566E-2,1.0673784E-2,2.8684217E-2,3.5466682E-2,2.1824816E-2,3.1497452E-2,-3.7248E-2,1.8063104E-2,-2.9620146E-2,2.1661505E-2,3.4050006E-2],"split_indices":[0,1,0,0,1,2,1,0,7,0,4,0,1,7,4,4,4,3,4,2,2,7,0,1,1,1,1,4,1,2,0,0,0,0,0,0,0,0,0,0,0,0,0,0,0,0,0,0,0,0,0,0,0,0,0,0,0,0,0,0,0,0,0],"split_type":[0,0,0,0,0,0,0,0,0,0,0,0,0,0,0,0,0,0,0,0,0,0,0,0,0,0,0,0,0,0,0,0,0,0,0,0,0,0,0,0,0,0,0,0,0,0,0,0,0,0,0,0,0,0,0,0,0,0,0,0,0,0,0],"sum_hessian":[3.3725863E4,2.4503553E4,9.22231E3,4.8848037E3,1.961875E4,5.169867E3,4.0524424E3,4.476421E3,4.0838287E2,1.263863E4,6.98012E3,3.7203225E3,1.4495448E3,2.049822E3,2.0026204E3,3.8577893E2,4.0906418E3,6.684713E1,3.4153577E2,2.8870518E3,9.751578E3,1.2083225E3,5.7717974E3,1.8871329E3,1.8331895E3,7.04709E2,7.4483575E2,1.4018104E3,6.480116E2,9.046655E2,1.0979548E3,1.2118143E2,2.645975E2,2.884394E2,3.8022024E3,1.2113348E1,5.473378E1,1.4965254E2,1.9188321E2,2.0786143E3,8.0843744E2,8.219184E3,1.532394E3,9.36186E2,2.7213657E2,4.4374995E3,1.3342982E3,8.55109E2,1.0320239E3,2.3366896E2,1.5995205E3,3.029705E2,4.017385E2,4.6829526E2,2.7654053E2,1.3611559E3,4.0654438E1,6.375184E2,1.0493208E1,8.7211694E2,3.254857E1,1.7104312E2,9.2691174E2],"tree_param":{"num_deleted":"0","num_feature":"8","num_nodes":"63","size_leaf_vector":"1"}},{"base_weights":[-5.275748E-3,-3.3040786E-1,1.0467731E0,-9.825195E-1,-1.6371725E-1,6.685371E-1,1.4266707E0,-1.1840237E0,4.1597557E-1,8.840409E-2,-6.124146E-1,-1.4936124E-1,7.8611606E-1,1.6408083E0,1.2061708E0,-2.6223198E-1,-1.2824674E0,1.6078949E0,1.9411707E-1,-9.545735E-1,2.0178156E-1,-1.4081166E0,-4.5274457E-1,2.2643179E-1,-9.122335E-1,1.336186E0,5.5682355E-1,1.7160666E0,1.4908266E0,7.980108E-1,1.5771466E0,-3.811961E-2,9.025881E-3,-3.4613924E-3,-2.7673287E-2,9.586687E-3,3.5185426E-2,1.6280172E-2,-6.027882E-3,-2.326888E-2,2.663302E-3,-8.327128E-3,5.037185E-3,-1.3450844E-2,-3.1716708E-2,-1.3588361E-2,4.384775E-3,-3.2812331E-3,1.6639411E-2,1.2159102E-2,-2.9139731E-2,-2.0053785E-2,2.7506294E-2,-3.7136031E-3,1.4496143E-2,3.470501E-2,1.8230781E-2,3.1029629E-2,-3.6813587E-2,7.589667E-3,2.351113E-2,2.3786051E-2,3.3168137E-2],"categories":[],"categories_nodes":[],"categories_segments":[],"categories_sizes":[],"default_left":[0,0,0,0,0,0,0,0,0,0,0,0,0,0,0,0,0,0,0,0,0,0,0,0,0,0,0,0,0,0,0,0,0,0,0,0,0,0,0,0,0,0,0,0,0,0,0,0,0,0,0,0,0,0,0,0,0,0,0,0,0,0,0],"id":3,"left_children":[1,3,5,7,9,11,13,15,17,19,21,23,25,27,29,31,33,35,37,39,41,43,45,47,49,51,53,55,57,59,61,-1,-1,-1,-1,-1,-1,-1,-1,-1,-1,-1,-1,-1,-1,-1,-1,-1,-1,-1,-1,-1,-1,-1,-1,-1,-1,-1,-1,-1,-1,-1,-1],"loss_changes":[1.1447655E4,2.7788137E3,1.1341553E3,1.4671963E3,2.303688E3,3.811233E2,1.8381445E2,4.1233496E2,1.7301208E2,1.5418691E3,9.299287E2,1.432192E2,4.3592163E2,1.965332E1,2.9310254E2,5.1744275E2,4.610249E2,1.6487305E1,1.7057904E2,2.907135E2,3.641373E2,1.5868774E2,9.298246E2,7.936286E1,1.3748286E2,9.459619E1,3.0532947E2,1.8560303E1,1.3923962E2,1.4611804E2,2.9828857E1,0E0,0E0,0E0,0E0,0E0,0E0,0E0,0E0,0E0,0E0,0E0,0E0,0E0,0E0,0E0,0E0,0E0,0E0,0E0,0E0,0E0,0E0,0E0,0E0,0E0,0E0,0E0,0E0,0E0,0E0,0E0,0E0],"parents":[2147483647,0,0,1,1,2,2,3,3,4,4,5,5,6,6,7,7,8,8,9,9,10,10,11,11,12,12,13,13,14,14,15,15,16,16,17,17,18,18,19,19,20,20,21,21,22,22,23,23,24,24,25,25,26,26,27,27,28,28,29,29,30,30],"right_children":[2,4,6,8,10,12,14,16,18,20,22,24,26,28,30,32,34,36,38,40,42,44,46,48,50,52,54,56,58,60,62,-1,-1,-1,-1,-1,-1,-1,-1,-1,-1,-1,-1,-1,-1,-1,-1,-1,-1,-1,-1,-1,-1,-1,-1,-1,-1,-1,-1,-1,-1,-1,-1],"split_conditions":[5.3061265E-3,6E0,7.2875977E-3,4.4348743E-3,1.6E1,7E0,9E0,1.7382847E-3,7.971148E-1,2.0155732E-3,-1.221362E-2,3E0,1.4E1,1.6714844E0,1.7594336E-2,-2.739264E-4,-1.9404683E-2,4.1262113E-4,-1.9404683E-2,9.370805E-3,7E0,-2.9234197E-2,3.912069E-3,7.3885634E-3,5.475118E-3,-4.5553807E-2,-2.5940977E-2,7.255921E-2,8E0,1.8E1,8.3564315E-3,-3.811961E-2,9.025881E-3,-3.4613924E-3,-2.7673287E-2,9.586687E-3,3.5185426E-2,1.6280172E-2,-6.027882E-3,-2.326888E-2,2.663302E-3,-8.327128E-3,5.037185E-3,-1.3450844E-2,-3.1716708E-2,-1.3588361E-2,4.384775E-3,-3.2812331E-3,1.6639411E-2,1.2159102E-2,-2.9139731E-2,-2.0053785E-2,2.7506294E-2,-3.7136031E-3,1.4496143E-2,3.470501E-2,1.8230781E-2,3.1029629E-2,-3.6813587E-2,7.589667E-3,2.351113E-2,2.3786051E-2,3.3168137E-2],"split_indices":[0,1,0,0,1,1,1,0,7,0,4,1,1,7,4,4,4,4,4,4,1,4,0,4,0,4,4,4,1,1,0,0,0,0,0,0,0,0,0,0,0,0,0,0,0,0,0,0,0,0,0,0,0,0,0,0,0,0,0,0,0,0,0],"split_type":[0,0,0,0,0,0,0,0,0,0,0,0,0,0,0,0,0,0,0,0,0,0,0,0,0,0,0,0,0,0,0,0,0,0,0,0,0,0,0,0,0,0,0,0,0,0,0,0,0,0,0,0,0,0,0,0,0,0,0,0,0,0,0],"sum_hessian":[3.3465504E4,2.5565389E4,7.900115E3,5.203447E3,2.0361941E4,3.9602292E3,3.939886E3,4.5483203E3,6.551265E2,1.3037051E4,7.32489E3,4.9761533E2,3.4626138E3,1.9952811E3,1.9446047E3,4.3932382E2,4.1089966E3,1.0175529E2,5.533713E2,1.2774335E3,1.1759617E4,1.2227872E3,6.102103E3,3.337709E2,1.638444E2,1.0171704E3,2.4454434E3,1.3212112E3,6.7407E2,9.275282E2,1.01707654E3,1.3251598E2,3.0680786E2,3.4379178E2,3.7652048E3,1.2605365E1,8.9149925E1,2.4563606E2,3.0773517E2,1.0716708E3,2.0576279E2,8.805959E2,1.0879021E4,2.3898409E2,9.838032E2,4.5630366E3,1.5390665E3,2.032592E2,1.3051172E2,4.3144825E1,1.2069958E2,1.6289705E1,1.0008807E3,4.5105142E2,1.9943921E3,1.2891895E3,3.202168E1,6.625713E2,1.1498744E1,4.4096613E2,4.865621E2,1.7910416E2,8.379724E2],"tree_param":{"num_deleted":"0","num_feature":"8","num_nodes":"63","size_leaf_vector":"1"}},{"base_weights":[-4.3572173E-3,-3.3155465E-1,1.0217382E0,-9.7553617E-1,-1.2778623E-1,7.045685E-1,1.4565485E0,-1.1326315E0,3.2685193E-1,1.6932699E-1,-5.258464E-1,1.20050035E-1,8.013405E-1,1.6648631E0,1.2649493E0,3.884744E-2,-1.2261584E0,1.297019E0,7.407413E-2,-9.884641E-1,2.6933083E-1,-1.3080369E0,-3.796351E-1,-1.6960621E-1,1.060619E0,1.3101684E0,5.8861274E-1,1.68619E0,1.4827522E0,6.993391E-1,1.5471951E0,-1.0069561E-2,1.2639418E-2,-6.2394594E-3,-2.63262E-2,2.961329E-2,-1.1536506E-2,1.3005791E-2,-7.1109408E-3,-2.3033332E-2,2.44149E-2,1.7767346E-3,1.3279953E-2,-1.1102417E-2,-2.982699E-2,-1.1016961E-2,5.270773E-3,-1.5235344E-2,1.2140272E-2,-3.669424E-2,2.5615493E-2,4.94375E-3,2.7105639E-2,-1.466442E-3,1.5380622E-2,3.2363612E-2,3.5013E-2,3.190044E-2,1.8394968E-2,1.5636344E-2,-3.8270034E-2,2.4206933E-2,3.3582125E-2],"categories":[],"categories_nodes":[],"categories_segments":[],"categories_sizes":[],"default_left":[0,0,0,0,0,0,0,0,0,0,0,0,0,0,0,0,0,0,0,0,0,0,0,0,0,0,0,0,0,0,0,0,0,0,0,0,0,0,0,0,0,0,0,0,0,0,0,0,0,0,0,0,0,0,0,0,0,0,0,0,0,0,0],"id":4,"left_children":[1,3,5,7,9,11,13,15,17,19,21,23,25,27,29,31,33,35,37,39,41,43,45,47,49,51,53,55,57,59,61,-1,-1,-1,-1,-1,-1,-1,-1,-1,-1,-1,-1,-1,-1,-1,-1,-1,-1,-1,-1,-1,-1,-1,-1,-1,-1,-1,-1,-1,-1,-1,-1],"loss_changes":[1.1254806E4,3.3351838E3,1.1165186E3,1.2504043E3,2.2838557E3,2.6502246E2,1.3400244E2,5.975112E2,1.612052E2,1.2804618E3,9.432151E2,1.8206963E2,4.3441895E2,3.5288086E0,2.835852E2,1.3027658E2,4.1554248E2,4.7719315E1,1.2982353E2,3.1842212E2,7.249772E2,1.7829004E2,7.6605206E2,2.3546301E2,1.0258348E2,5.632605E1,3.391026E2,3.208496E0,9.663239E0,1.2982574E2,5.0535645E1,0E0,0E0,0E0,0E0,0E0,0E0,0E0,0E0,0E0,0E0,0E0,0E0,0E0,0E0,0E0,0E0,0E0,0E0,0E0,0E0,0E0,0E0,0E0,0E0,0E0,0E0,0E0,0E0,0E0,0E0,0E0,0E0],"parents":[2147483647,0,0,1,1,2,2,3,3,4,4,5,5,6,6,7,7,8,8,9,9,10,10,11,11,12,12,13,13,14,14,15,15,16,16,17,17,18,18,19,19,20,20,21,21,22,22,23,23,24,24,25,25,26,26,27,27,28,28,29,29,30,30],"right_children":[2,4,6,8,10,12,14,16,18,20,22,24,26,28,30,32,34,36,38,40,42,44,46,48,50,52,54,56,58,60,62,-1,-1,-1,-1,-1,-1,-1,-1,-1,-1,-1,-1,-1,-1,-1,-1,-1,-1,-1,-1,-1,-1,-1,-1,-1,-1,-1,-1,-1,-1,-1,-1],"split_conditions":[5.255864E-3,7E0,7.730889E-3,4.4348743E-3,1.5E1,7E0,8E0,-2.0575926E-2,-2.872063E4,1.953406E-3,-1.28721045E-2,2.1202797E-2,1.4E1,4.125056E-2,4.4338917E-3,-1.4023564E-2,1.7016304E-3,4E0,-1.976224E-2,9.126997E-3,5.5427924E-3,-2.9234197E-2,4.145654E-3,6.4476603E-3,1.0678526E-2,-4.2554785E-2,-2.3370152E-2,5.3766933E-3,4E0,1.6104442E-3,3.1870853E-2,-1.0069561E-2,1.2639418E-2,-6.2394594E-3,-2.63262E-2,2.961329E-2,-1.1536506E-2,1.3005791E-2,-7.1109408E-3,-2.3033332E-2,2.44149E-2,1.7767346E-3,1.3279953E-2,-1.1102417E-2,-2.982699E-2,-1.1016961E-2,5.270773E-3,-1.5235344E-2,1.2140272E-2,-3.669424E-2,2.5615493E-2,4.94375E-3,2.7105639E-2,-1.466442E-3,1.5380622E-2,3.2363612E-2,3.5013E-2,3.190044E-2,1.8394968E-2,1.5636344E-2,-3.8270034E-2,2.4206933E-2,3.3582125E-2],"split_indices":[0,1,0,0,1,1,1,4,3,0,4,4,1,2,4,2,0,1,4,2,2,4,0,0,2,4,4,4,1,2,4,0,0,0,0,0,0,0,0,0,0,0,0,0,0,0,0,0,0,0,0,0,0,0,0,0,0,0,0,0,0,0,0],"split_type":[0,0,0,0,0,0,0,0,0,0,0,0,0,0,0,0,0,0,0,0,0,0,0,0,0,0,0,0,0,0,0,0,0,0,0,0,0,0,0,0,0,0,0,0,0,0,0,0,0,0,0,0,0,0,0,0,0,0,0,0,0,0,0],"sum_hessian":[3.3521004E4,2.5416924E4,8.1040786E3,6.108281E3,1.9308643E4,4.6875933E3,3.4164854E3,5.450985E3,6.5729614E2,1.1056422E4,8.252221E3,6.663011E2,4.021292E3,1.6329086E3,1.7835769E3,4.0297662E2,5.0480083E3,1.3492484E2,5.223713E2,8.7827985E2,1.0178142E4,1.2982593E3,6.9539614E3,5.0996606E2,1.5633504E2,1.1838909E3,2.8374011E3,1.4538414E3,1.7906705E2,5.950169E2,1.18856E3,2.1049344E2,1.924832E2,4.536211E2,4.594387E3,1.23121544E2,1.1803293E1,2.2299953E2,2.9937177E2,8.183493E2,5.9930565E1,6.9851035E3,3.1930383E3,2.5509341E2,1.0431659E3,5.4922285E3,1.4617332E3,2.894288E2,2.2053726E2,1.0497069E1,1.4583797E2,4.8553444E1,1.1353374E3,6.077336E2,2.2296675E3,7.209016E2,7.329398E2,1.476193E2,3.1447762E1,5.775255E2,1.7491371E1,3.3754303E2,8.5101697E2],"tree_param":{"num_deleted":"0","num_feature":"8","num_nodes":"63","size_leaf_vector":"1"}},{"base_weights":[2.5290817E-3,-3.2472554E-1,9.7914875E-1,-6.551129E-1,-2.0165613E-1,6.359196E-1,1.3787504E0,-7.685761E-1,-2.6368818E-1,-2.9687336E-1,9.620702E-2,4.3036017E-1,1.1327634E0,1.084598E0,1.4581496E0,-1.7951763E0,-7.400069E-1,9.1218346E-1,-3.7771174E-1,-1.381812E-1,-4.545481E-1,9.800281E-3,6.8481463E-1,1.8545325E-1,6.258825E-1,1.1464297E0,-1.0321258E-2,1.1096917E0,-1.2706111E-2,1.3586007E0,1.6053677E0,-3.8178295E-2,-2.0858368E-2,-1.0015829E-2,-1.6668903E-2,-9.577526E-4,2.2741573E-2,-2.9831564E-2,-5.647094E-3,-5.2312706E-3,1.8566481E-3,-1.3400632E-2,-3.9332095E-3,-3.8090575E-2,5.0022115E-4,3.257811E-2,9.759537E-3,-3.3184302E-3,7.172337E-3,-3.8658854E-2,1.3128402E-2,1.9439265E-2,2.6197625E-2,1.9242248E-2,2.6137011E-2,-2.0627229E-2,2.7605612E-2,3.1338565E-2,3.5267733E-2],"categories":[],"categories_nodes":[],"categories_segments":[],"categories_sizes":[],"default_left":[0,0,0,0,0,0,0,0,0,0,0,0,0,0,0,0,0,0,0,0,0,0,0,0,0,0,0,0,0,0,0,0,0,0,0,0,0,0,0,0,0,0,0,0,0,0,0,0,0,0,0,0,0,0,0,0,0,0,0],"id":5,"left_children":[1,3,5,7,9,11,13,15,17,19,21,23,25,27,29,31,33,35,37,39,41,43,45,47,49,51,-1,53,-1,55,57,-1,-1,-1,-1,-1,-1,-1,-1,-1,-1,-1,-1,-1,-1,-1,-1,-1,-1,-1,-1,-1,-1,-1,-1,-1,-1,-1,-1],"loss_changes":[1.0720208E4,1.02131274E3,1.1535835E3,3.024917E2,5.192517E2,4.6208765E2,8.89917E1,1.5342212E2,2.0595189E2,3.4699304E2,2.2548358E2,1.5334937E2,3.0515137E1,3.660724E1,4.2354492E1,9.889008E0,1.14420166E2,2.9486458E1,1.4800597E2,1.9715974E2,3.864314E2,1.12501495E2,1.04461426E2,8.679346E1,1.4041992E2,3.5988647E1,0E0,2.2352722E1,0E0,9.6379395E1,4.3640137E0,0E0,0E0,0E0,0E0,0E0,0E0,0E0,0E0,0E0,0E0,0E0,0E0,0E0,0E0,0E0,0E0,0E0,0E0,0E0,0E0,0E0,0E0,0E0,0E0,0E0,0E0,0E0,0E0],"parents":[2147483647,0,0,1,1,2,2,3,3,4,4,5,5,6,6,7,7,8,8,9,9,10,10,11,11,12,12,13,13,14,14,15,15,16,16,17,17,18,18,19,19,20,20,21,21,22,22,23,23,24,24,25,25,27,27,29,29,30,30],"right_children":[2,4,6,8,10,12,14,16,18,20,22,24,26,28,30,32,34,36,38,40,42,44,46,48,50,52,-1,54,-1,56,58,-1,-1,-1,-1,-1,-1,-1,-1,-1,-1,-1,-1,-1,-1,-1,-1,-1,-1,-1,-1,-1,-1,-1,-1,-1,-1,-1,-1],"split_conditions":[5.1631345E-3,2.3713093E-3,7.2875977E-3,4.962809E-3,8.129674E-3,1.21474955E-2,8.010775E-3,1.3740992E-3,1.6156046E-3,3.1734556E-3,4.6078637E-3,5.8861165E-3,3.564859E0,4.125056E-2,2.1484181E-2,-4.5117902E4,1.0446908E0,5.8004227E-3,1.256976E-3,-2.6272018E4,4.00198E-3,-6.80943E4,8.186914E-1,5.1087406E-3,2.6884305E-1,-9.729265E3,-1.0321258E-2,1.0088414E0,-1.2706111E-2,2.5988942E-1,2.639564E0,-3.8178295E-2,-2.0858368E-2,-1.0015829E-2,-1.6668903E-2,-9.577526E-4,2.2741573E-2,-2.9831564E-2,-5.647094E-3,-5.2312706E-3,1.8566481E-3,-1.3400632E-2,-3.9332095E-3,-3.8090575E-2,5.0022115E-4,3.257811E-2,9.759537E-3,-3.3184302E-3,7.172337E-3,-3.8658854E-2,1.3128402E-2,1.9439265E-2,2.6197625E-2,1.9242248E-2,2.6137011E-2,-2.0627229E-2,2.7605612E-2,3.1338565E-2,3.5267733E-2],"split_indices":[0,0,0,2,2,2,0,0,0,0,0,0,7,2,2,3,7,2,5,3,0,3,7,5,6,3,0,6,0,6,7,0,0,0,0,0,0,0,0,0,0,0,0,0,0,0,0,0,0,0,0,0,0,0,0,0,0,0,0],"split_type":[0,0,0,0,0,0,0,0,0,0,0,0,0,0,0,0,0,0,0,0,0,0,0,0,0,0,0,0,0,0,0,0,0,0,0,0,0,0,0,0,0,0,0,0,0,0,0,0,0,0,0,0,0,0,0,0,0,0,0],"sum_hessian":[3.354003E4,2.5122365E4,8.417666E3,6.816885E3,1.830548E4,4.529765E3,3.8879014E3,5.2839854E3,1.5328997E3,1.3871537E4,4.4339443E3,3.2055847E3,1.3241802E3,8.297643E2,3.058137E3,1.4129707E2,5.142688E3,1.3480826E2,1.3980913E3,6.914714E3,6.956823E3,3.8674016E3,5.665424E2,1.424166E3,1.7814188E3,1.3136573E3,1.0522866E1,8.1823895E2,1.1525343E1,1.8309542E3,1.2271829E3,1.2128824E2,2.0008842E1,1.4466023E3,3.6960857E3,2.56503E1,1.0915796E2,1.0901346E2,1.2890779E3,4.507564E3,2.40715E3,3.788922E3,3.1679011E3,2.9456179E1,3.8379456E3,9.639943E1,4.7014297E2,4.69977E2,9.5418896E2,2.023579E1,1.761183E3,6.3907465E2,6.745827E2,4.716109E2,3.4662805E2,1.5999573E1,1.8149547E3,9.963595E2,2.3082335E2],"tree_param":{"num_deleted":"0","num_feature":"8","num_nodes":"59","size_leaf_vector":"1"}},{"base_weights":[-5.750596E-3,-3.0471E-1,9.9435514E-1,-9.5315635E-1,-1.40102E-1,6.78971E-1,1.3999233E0,-1.1409591E0,3.4139588E-1,1.0219358E-1,-5.722707E-1,5.133084E-1,1.0790637E0,1.6075839E0,1.1989696E0,3.3062227E-2,-1.2267491E0,1.3686681E0,1.7944139E-1,-7.396358E-1,2.1984725E-1,-1.317483E0,-4.1868523E-1,-3.1560516E-1,6.28641E-1,1.3234655E0,8.7811697E-1,1.638704E0,1.394799E0,8.355476E-1,1.5725583E0,-3.7608713E-2,8.282482E-3,-8.422298E-3,-2.6299E-2,-8.73416E-3,3.2194674E-2,1.4513748E-2,-5.0341366E-3,-1.9883098E-2,1.4895458E-2,1.9603437E-3,1.1640596E-2,-2.8491339E-2,-5.7007778E-3,-1.1968988E-2,4.398447E-3,-2.183997E-2,1.1935006E-2,2.45021E-2,5.775839E-3,1.5622885E-2,3.1681977E-2,9.913026E-3,2.946858E-2,3.3296593E-2,2.598241E-2,1.6881544E-2,3.1344514E-2,1.7869616E-2,-4.0053543E-2,2.1247866E-2,3.18642E-2],"categories":[],"categories_nodes":[],"categories_segments":[],"categories_sizes":[],"default_left":[0,0,0,0,0,0,0,0,0,0,0,0,0,0,0,0,0,0,0,0,0,0,0,0,0,0,0,0,0,0,0,0,0,0,0,0,0,0,0,0,0,0,0,0,0,0,0,0,0,0,0,0,0,0,0,0,0,0,0,0,0,0,0],"id":6,"left_children":[1,3,5,7,9,11,13,15,17,19,21,23,25,27,29,31,33,35,37,39,41,43,45,47,49,51,53,55,57,59,61,-1,-1,-1,-1,-1,-1,-1,-1,-1,-1,-1,-1,-1,-1,-1,-1,-1,-1,-1,-1,-1,-1,-1,-1,-1,-1,-1,-1,-1,-1,-1,-1],"loss_changes":[9.978172E3,2.742195E3,9.8121387E2,1.2650317E3,2.145922E3,2.8578662E2,1.379502E2,4.5769727E2,1.093508E2,1.300702E3,8.418877E2,2.9266406E2,6.072583E1,8.327637E0,2.307583E2,2.2684787E2,3.0009326E2,3.981671E1,1.3472525E2,6.091623E2,5.0828387E2,1.384436E2,7.0108484E2,2.657527E2,5.439133E2,7.887036E1,1.5781775E2,1.0246582E1,1.9087128E1,1.4466595E2,6.9177246E0,0E0,0E0,0E0,0E0,0E0,0E0,0E0,0E0,0E0,0E0,0E0,0E0,0E0,0E0,0E0,0E0,0E0,0E0,0E0,0E0,0E0,0E0,0E0,0E0,0E0,0E0,0E0,0E0,0E0,0E0,0E0,0E0],"parents":[2147483647,0,0,1,1,2,2,3,3,4,4,5,5,6,6,7,7,8,8,9,9,10,10,11,11,12,12,13,13,14,14,15,15,16,16,17,17,18,18,19,19,20,20,21,21,22,22,23,23,24,24,25,25,26,26,27,27,28,28,29,29,30,30],"right_children":[2,4,6,8,10,12,14,16,18,20,22,24,26,28,30,32,34,36,38,40,42,44,46,48,50,52,54,56,58,60,62,-1,-1,-1,-1,-1,-1,-1,-1,-1,-1,-1,-1,-1,-1,-1,-1,-1,-1,-1,-1,-1,-1,-1,-1,-1,-1,-1,-1,-1,-1,-1,-1],"split_conditions":[5.3614136E-3,6E0,7.730889E-3,4.4348743E-3,1.6E1,1.1615134E-2,8E0,-2.0972015E-2,8.327054E-1,2.0801292E-3,-1.221362E-2,6E0,1.5E1,2.2978E0,2.6235728E-2,-1.825529E-2,1.7382847E-3,1.2482499E-5,-1.9404683E-2,7.5370944E-3,7.403242E-3,6.9824895E-3,4.0732273E-3,6.4476603E-3,1.4E1,1E1,2E1,4.125056E-2,-4.2554785E-2,1.7371692E-2,8.010775E-3,-3.7608713E-2,8.282482E-3,-8.422298E-3,-2.6299E-2,-8.73416E-3,3.2194674E-2,1.4513748E-2,-5.0341366E-3,-1.9883098E-2,1.4895458E-2,1.9603437E-3,1.1640596E-2,-2.8491339E-2,-5.7007778E-3,-1.1968988E-2,4.398447E-3,-2.183997E-2,1.1935006E-2,2.45021E-2,5.775839E-3,1.5622885E-2,3.1681977E-2,9.913026E-3,2.946858E-2,3.3296593E-2,2.598241E-2,1.6881544E-2,3.1344514E-2,1.7869616E-2,-4.0053543E-2,2.1247866E-2,3.18642E-2],"split_indices":[0,1,0,0,1,2,1,4,7,0,4,1,1,7,4,2,0,4,4,2,2,5,0,0,1,1,1,2,4,2,0,0,0,0,0,0,0,0,0,0,0,0,0,0,0,0,0,0,0,0,0,0,0,0,0,0,0,0,0,0,0,0,0],"split_type":[0,0,0,0,0,0,0,0,0,0,0,0,0,0,0,0,0,0,0,0,0,0,0,0,0,0,0,0,0,0,0,0,0,0,0,0,0,0,0,0,0,0,0,0,0,0,0,0,0,0,0,0,0,0,0,0,0,0,0,0,0,0,0],"sum_hessian":[3.337103E4,2.5691826E4,7.679205E3,5.2003794E3,2.0491445E4,4.321542E3,3.357663E3,4.541703E3,6.586762E2,1.3130408E4,7.3610376E3,3.0579138E3,1.2636282E3,1.6475894E3,1.7100737E3,3.0924115E2,4.2324624E3,8.860284E1,5.7007336E2,1.6093236E3,1.1521085E4,1.256439E3,6.1045986E3,3.7318326E2,2.6847307E3,5.6741943E2,6.9620874E2,1.4311156E3,2.1647374E2,8.68608E2,8.4146576E2,5.0659225E1,2.585819E2,4.183279E2,3.8141343E3,1.0292726E1,7.831011E1,2.5127177E2,3.1880157E2,1.3741135E3,2.3521005E2,8.622288E3,2.8987969E3,1.1379366E3,1.1850227E2,4.763829E3,1.3407698E3,2.0156705E2,1.716162E2,9.7341156E2,1.7113191E3,1.8560233E2,3.8181714E2,4.2509906E2,2.7110965E2,1.3249813E3,1.0613434E2,5.3159718E1,1.6331401E2,8.5193884E2,1.6669165E1,3.4966408E1,8.064993E2],"tree_param":{"num_deleted":"0","num_feature":"8","num_nodes":"63","size_leaf_vector":"1"}},{"base_weights":[6.587835E-3,-3.2143077E-1,8.965771E-1,-9.945651E-1,-1.5264077E-1,6.1271524E-1,1.3744382E0,-1.1177096E0,2.575559E-1,1.0456991E-1,-5.4689497E-1,5.128246E-1,9.4414175E-1,1.5862341E0,1.1684939E0,-2.4631244E-1,-1.2087777E0,1.4771105E0,1.803738E-2,-7.973112E-1,2.0036638E-1,-4.3053836E-1,-9.604811E-1,7.165119E-1,3.123243E-1,-3.742429E-2,9.726964E-1,1.6314579E0,1.4824195E0,-2.1368079E-2,1.1909314E0,-2.3883339E-2,6.955856E-3,-2.7376289E-2,-2.0893734E-2,1.3170393E-2,3.4442957E-2,-1.4578513E-2,7.310033E-3,-3.7197784E-2,-1.396325E-2,-4.5064217E-3,5.8218203E-3,-1.5774738E-2,-6.2756157E-3,-2.711664E-2,7.733965E-3,4.9030366E-3,1.915064E-2,2.1844287E-3,1.7603155E-2,4.5888647E-3,2.0376394E-2,3.370246E-2,3.0660506E-2,3.168078E-2,1.985661E-2,1.9469261E-2,2.718126E-2],"categories":[],"categories_nodes":[],"categories_segments":[],"categories_sizes":[],"default_left":[0,0,0,0,0,0,0,0,0,0,0,0,0,0,0,0,0,0,0,0,0,0,0,0,0,0,0,0,0,0,0,0,0,0,0,0,0,0,0,0,0,0,0,0,0,0,0,0,0,0,0,0,0,0,0,0,0,0,0],"id":7,"left_children":[1,3,5,7,9,11,13,15,17,19,21,23,25,27,29,31,33,35,37,39,41,43,45,47,49,-1,51,53,55,-1,57,-1,-1,-1,-1,-1,-1,-1,-1,-1,-1,-1,-1,-1,-1,-1,-1,-1,-1,-1,-1,-1,-1,-1,-1,-1,-1,-1,-1],"loss_changes":[9.801093E3,2.7869495E3,1.2254087E3,7.5865576E2,1.9891483E3,1.8721777E2,1.4479639E2,3.548911E2,1.2866878E2,1.0257257E3,3.7214136E2,1.7783093E2,1.07256836E2,5.0527344E0,8.720361E1,2.3984924E2,1.047793E2,1.3135696E1,9.6199265E1,1.1854352E2,4.1455038E2,2.5250488E2,9.0574866E2,2.4537537E2,2.5357608E2,0E0,4.4213135E1,3.1379395E0,2.3771484E1,0E0,6.043213E1,0E0,0E0,0E0,0E0,0E0,0E0,0E0,0E0,0E0,0E0,0E0,0E0,0E0,0E0,0E0,0E0,0E0,0E0,0E0,0E0,0E0,0E0,0E0,0E0,0E0,0E0,0E0,0E0],"parents":[2147483647,0,0,1,1,2,2,3,3,4,4,5,5,6,6,7,7,8,8,9,9,10,10,11,11,12,12,13,13,14,14,15,15,16,16,17,17,18,18,19,19,20,20,21,21,22,22,23,23,24,24,26,26,27,27,28,28,30,30],"right_children":[2,4,6,8,10,12,14,16,18,20,22,24,26,28,30,32,34,36,38,40,42,44,46,48,50,-1,52,54,56,-1,58,-1,-1,-1,-1,-1,-1,-1,-1,-1,-1,-1,-1,-1,-1,-1,-1,-1,-1,-1,-1,-1,-1,-1,-1,-1,-1,-1,-1],"split_conditions":[4.971197E-3,6E0,7.730889E-3,4.401678E-3,1.5E1,-8.576076E3,8E0,1.7382847E-3,7.894091E-1,1.9784453E-3,2.2E1,1.5E1,1E0,1.7617087E0,2.4041605E-1,4E0,2.8664584E-3,-3.9141242E4,2E0,1.4833155E-3,8E0,5.2008647E-1,3.912069E-3,7E0,2.1E1,-3.742429E-2,3.394465E-1,9.889678E-3,5E0,-2.1368079E-2,9.229276E-3,-2.3883339E-2,6.955856E-3,-2.7376289E-2,-2.0893734E-2,1.3170393E-2,3.4442957E-2,-1.4578513E-2,7.310033E-3,-3.7197784E-2,-1.396325E-2,-4.5064217E-3,5.8218203E-3,-1.5774738E-2,-6.2756157E-3,-2.711664E-2,7.733965E-3,4.9030366E-3,1.915064E-2,2.1844287E-3,1.7603155E-2,4.5888647E-3,2.0376394E-2,3.370246E-2,3.0660506E-2,3.168078E-2,1.985661E-2,1.9469261E-2,2.718126E-2],"split_indices":[0,1,0,0,1,3,1,0,7,0,1,1,1,7,6,1,5,3,1,0,1,6,0,1,1,0,6,0,1,0,0,0,0,0,0,0,0,0,0,0,0,0,0,0,0,0,0,0,0,0,0,0,0,0,0,0,0,0,0],"split_type":[0,0,0,0,0,0,0,0,0,0,0,0,0,0,0,0,0,0,0,0,0,0,0,0,0,0,0,0,0,0,0,0,0,0,0,0,0,0,0,0,0,0,0,0,0,0,0,0,0,0,0,0,0,0,0,0,0,0,0],"sum_hessian":[3.35709E4,2.453039E4,9.040509E3,4.9167827E3,1.961361E4,5.673057E3,3.367452E3,4.476693E3,4.4008978E2,1.1870075E4,7.743533E3,4.3613984E3,1.3116588E3,1.6565972E3,1.7108547E3,4.2403723E2,4.0526555E3,7.1327515E1,3.6876227E2,1.1389548E3,1.0731121E4,6.0451094E3,1.6984237E3,2.1619802E3,2.1994182E3,1.2486799E1,1.2991721E3,1.1430034E3,5.135937E2,1.648332E1,1.6943715E3,1.6305397E2,2.6098325E2,2.0476483E3,2.0050072E3,1.7375866E1,5.395165E1,1.16636566E2,2.5212569E2,9.560346E1,1.0433514E3,1.8848175E3,8.846304E3,1.4844325E3,4.560677E3,1.3131323E3,3.8529138E2,7.3228723E2,1.429693E3,1.6209904E3,5.7842786E2,7.638643E1,1.2227856E3,7.2862415E2,4.1437924E2,4.232946E2,9.029915E1,7.420098E2,9.523616E2],"tree_param":{"num_deleted":"0","num_feature":"8","num_nodes":"59","size_leaf_vector":"1"}},{"base_weights":[3.048108E-3,-3.2621443E-1,8.8990736E-1,-1.0479199E0,-1.4933799E-1,5.4515827E-1,1.3291264E0,-1.1591926E0,1.4209983E-1,9.095972E-2,-5.101648E-1,3.1549698E-1,8.6601007E-1,1.5297954E0,1.1207966E0,-2.522313E-1,-1.2375202E0,5.9231675E-1,-4.5145896E-1,-9.205721E-1,1.8688975E-1,-1.381817E0,-3.6237222E-1,-7.4157335E-2,5.7562536E-1,1.0935969E0,6.2721753E-1,1.5976048E0,1.3933971E0,6.601602E-1,1.4380351E0,2.9505058E-3,-3.0137604E-2,-1.1140881E-2,-2.6754793E-2,1.6750883E-2,-3.7665866E-2,8.746466E-3,-2.4988221E-2,-2.0326996E-2,1.9816628E-2,-1.1391367E-3,6.8601226E-3,-3.2936342E-2,-1.3229464E-2,-1.0272705E-2,6.3650403E-3,5.997647E-3,-7.3970896E-3,-9.524354E-3,1.4368605E-2,1.4931368E-2,2.6383612E-2,5.376685E-3,2.720771E-2,3.2479744E-2,2.4818232E-2,2.8970568E-2,-3.753644E-2,2.9828036E-3,2.1593995E-2,1.9463249E-2,3.0743098E-2],"categories":[],"categories_nodes":[],"categories_segments":[],"categories_sizes":[],"default_left":[0,0,0,0,0,0,0,0,0,0,0,0,0,0,0,0,0,0,0,0,0,0,0,0,0,0,0,0,0,0,0,0,0,0,0,0,0,0,0,0,0,0,0,0,0,0,0,0,0,0,0,0,0,0,0,0,0,0,0,0,0,0,0],"id":8,"left_children":[1,3,5,7,9,11,13,15,17,19,21,23,25,27,29,31,33,35,37,39,41,43,45,47,49,51,53,55,57,59,61,-1,-1,-1,-1,-1,-1,-1,-1,-1,-1,-1,-1,-1,-1,-1,-1,-1,-1,-1,-1,-1,-1,-1,-1,-1,-1,-1,-1,-1,-1,-1,-1],"loss_changes":[9.802189E3,3.1245786E3,1.375273E3,6.382793E2,1.7049097E3,3.7494727E2,1.6506787E2,3.125713E2,1.1059873E2,1.1454111E3,1.0119042E3,3.0117953E2,1.1458423E2,1.6271973E1,2.8591382E2,1.7673196E2,2.7565527E2,1.443102E2,1.2724508E2,1.881922E2,4.1048184E2,2.1611743E2,6.9224835E2,1.31724E2,2.67972E2,8.3829956E1,2.7251154E2,1.0404297E1,1.2584729E2,1.7190521E2,5.181128E1,0E0,0E0,0E0,0E0,0E0,0E0,0E0,0E0,0E0,0E0,0E0,0E0,0E0,0E0,0E0,0E0,0E0,0E0,0E0,0E0,0E0,0E0,0E0,0E0,0E0,0E0,0E0,0E0,0E0,0E0,0E0,0E0],"parents":[2147483647,0,0,1,1,2,2,3,3,4,4,5,5,6,6,7,7,8,8,9,9,10,10,11,11,12,12,13,13,14,14,15,15,16,16,17,17,18,18,19,19,20,20,21,21,22,22,23,23,24,24,25,25,26,26,27,27,28,28,29,29,30,30],"right_children":[2,4,6,8,10,12,14,16,18,20,22,24,26,28,30,32,34,36,38,40,42,44,46,48,50,52,54,56,58,60,62,-1,-1,-1,-1,-1,-1,-1,-1,-1,-1,-1,-1,-1,-1,-1,-1,-1,-1,-1,-1,-1,-1,-1,-1,-1,-1,-1,-1,-1,-1,-1,-1],"split_conditions":[4.971197E-3,6E0,7.2875977E-3,4.401678E-3,1.5E1,3.094755E-3,9E0,-1.873735E-2,1.3711267E0,1.953406E-3,-1.28721045E-2,5.7314443E-3,1.5E1,1.6714844E0,7.918941E-3,-2.0757172E4,1.8196997E-3,4E0,-2.0177122E-2,1.4084677E-2,1E1,1.7360616E0,4.145654E-3,1.4E1,7E0,1E1,2.1E1,5.8790665E-2,8E0,1.8E1,8.3564315E-3,2.9505058E-3,-3.0137604E-2,-1.1140881E-2,-2.6754793E-2,1.6750883E-2,-3.7665866E-2,8.746466E-3,-2.4988221E-2,-2.0326996E-2,1.9816628E-2,-1.1391367E-3,6.8601226E-3,-3.2936342E-2,-1.3229464E-2,-1.0272705E-2,6.3650403E-3,5.997647E-3,-7.3970896E-3,-9.524354E-3,1.4368605E-2,1.4931368E-2,2.6383612E-2,5.376685E-3,2.720771E-2,3.2479744E-2,2.4818232E-2,2.8970568E-2,-3.753644E-2,2.9828036E-3,2.1593995E-2,1.9463249E-2,3.0743098E-2],"split_indices":[0,1,0,0,1,4,1,4,7,0,4,0,1,7,4,3,0,1,4,4,1,7,0,1,1,1,1,4,1,1,0,0,0,0,0,0,0,0,0,0,0,0,0,0,0,0,0,0,0,0,0,0,0,0,0,0,0,0,0,0,0,0,0],"split_type":[0,0,0,0,0,0,0,0,0,0,0,0,0,0,0,0,0,0,0,0,0,0,0,0,0,0,0,0,0,0,0,0,0,0,0,0,0,0,0,0,0,0,0,0,0,0,0,0,0,0,0,0,0,0,0,0,0,0,0,0,0,0,0],"sum_hessian":[3.356586E4,2.447835E4,9.087511E3,4.8172256E3,1.9661123E4,5.0926714E3,3.994839E3,4.4054087E3,4.1181726E2,1.1801931E4,7.8591924E3,2.9694646E3,2.1232068E3,2.0313563E3,1.9634828E3,3.506544E2,4.0547542E3,2.342831E2,1.7753418E2,1.0214663E3,1.0780465E4,1.1380668E3,6.721126E3,1.188902E3,1.7805626E3,1.0850635E3,1.0381432E3,1.3491776E3,6.8217883E2,8.021467E2,1.161336E3,2.6653397E2,8.4120415E1,5.2148694E2,3.533267E3,2.1380609E2,2.0476994E1,8.4141525E1,9.339265E1,9.732202E2,4.8246048E1,4.2079053E3,6.572559E3,8.309515E2,3.0711533E2,5.499336E3,1.2217896E3,5.2475946E2,6.641425E2,2.1248076E2,1.5680819E3,4.293391E2,6.5572437E2,6.9830475E2,3.398385E2,1.2526898E3,9.648775E1,6.714468E2,1.0732024E1,3.6236368E2,4.3978308E2,2.0617949E2,9.551566E2],"tree_param":{"num_deleted":"0","num_feature":"8","num_nodes":"63","size_leaf_vector":"1"}},{"base_weights":[1.0922573E-2,-2.2885974E-1,7.410996E-1,-9.0434E-1,-6.550602E-2,4.2547765E-1,1.125376E0,3.1278732E-1,-1.0763539E0,1.7608213E-1,-4.166125E-1,2.4328555E-1,9.079733E-1,8.7254715E-1,1.3604662E0,-1.092033E0,5.222497E-1,-1.3909017E0,-8.42692E-1,2.438566E-2,6.847625E-1,-5.2060753E-1,1.20335326E-1,-9.96103E-2,4.045031E-1,1.089536E0,5.0351393E-1,1.5102075E0,6.9984454E-1,1.5442535E0,1.2995563E0,-3.6980216E-3,-3.1636056E-2,-3.8607053E-2,1.3262957E-2,-1.7466413E-2,-3.1434074E-2,1.4908951E-2,-2.1778924E-2,2.0874372E-2,-1.0247073E-3,-1.4310667E-3,1.4932642E-2,-7.357986E-3,-1.6905762E-2,5.5856886E-3,-3.3731613E-2,1.3440981E-3,-2.0304315E-2,1.2556699E-2,3.6095795E-3,1.4087585E-2,2.6301136E-2,1.2078619E-2,-2.3508865E-2,3.28523E-2,2.629891E-2,-3.8258325E-2,1.454139E-2,1.8618565E-2,3.1235546E-2,1.9884517E-2,2.7510189E-2],"categories":[],"categories_nodes":[],"categories_segments":[],"categories_sizes":[],"default_left":[0,0,0,0,0,0,0,0,0,0,0,0,0,0,0,0,0,0,0,0,0,0,0,0,0,0,0,0,0,0,0,0,0,0,0,0,0,0,0,0,0,0,0,0,0,0,0,0,0,0,0,0,0,0,0,0,0,0,0,0,0,0,0],"id":9,"left_children":[1,3,5,7,9,11,13,15,17,19,21,23,25,27,29,31,33,35,37,39,41,43,45,47,49,51,53,55,57,59,61,-1,-1,-1,-1,-1,-1,-1,-1,-1,-1,-1,-1,-1,-1,-1,-1,-1,-1,-1,-1,-1,-1,-1,-1,-1,-1,-1,-1,-1,-1,-1,-1],"loss_changes":[5.888614E3,2.7935398E3,1.0077915E3,1.032634E3,1.7295718E3,4.011134E2,2.2140186E2,1.803659E2,3.1612158E2,9.319794E2,4.6420435E2,1.8341068E2,9.1176636E1,1.9796008E2,1.9431396E1,3.4882423E1,1.8521631E2,1.7053394E2,9.713137E2,7.174412E2,1.299469E2,3.4480823E2,3.8782803E2,1.6225359E2,1.12691315E2,7.379346E1,6.6353195E1,7.4873657E0,1.0267926E2,3.42688E0,3.235132E1,0E0,0E0,0E0,0E0,0E0,0E0,0E0,0E0,0E0,0E0,0E0,0E0,0E0,0E0,0E0,0E0,0E0,0E0,0E0,0E0,0E0,0E0,0E0,0E0,0E0,0E0,0E0,0E0,0E0,0E0,0E0,0E0],"parents":[2147483647,0,0,1,1,2,2,3,3,4,4,5,5,6,6,7,7,8,8,9,9,10,10,11,11,12,12,13,13,14,14,15,15,16,16,17,17,18,18,19,19,20,20,21,21,22,22,23,23,24,24,25,25,26,26,27,27,28,28,29,29,30,30],"right_children":[2,4,6,8,10,12,14,16,18,20,22,24,26,28,30,32,34,36,38,40,42,44,46,48,50,52,54,56,58,60,62,-1,-1,-1,-1,-1,-1,-1,-1,-1,-1,-1,-1,-1,-1,-1,-1,-1,-1,-1,-1,-1,-1,-1,-1,-1,-1,-1,-1,-1,-1,-1,-1],"split_conditions":[6.00782E-3,6E0,9.488055E-3,-1.9404683E-2,1.5E1,1.8354462E-2,1.7594336E-2,2.7355214E-3,-3.914421E-4,7.403242E-3,1.4892338E-2,6.437037E-1,1.6E1,-6.826341E-2,4E0,-2.8324762E-2,-2.4527265E-2,-7.819076E-3,-1.7297934E-3,-2.7533248E-2,7E0,2.1E1,3.6177743E-2,4.605896E-3,1.3E1,2.7277099E-2,1.9628696E0,6E0,1E0,2.1202797E-2,1.2E1,-3.6980216E-3,-3.1636056E-2,-3.8607053E-2,1.3262957E-2,-1.7466413E-2,-3.1434074E-2,1.4908951E-2,-2.1778924E-2,2.0874372E-2,-1.0247073E-3,-1.4310667E-3,1.4932642E-2,-7.357986E-3,-1.6905762E-2,5.5856886E-3,-3.3731613E-2,1.3440981E-3,-2.0304315E-2,1.2556699E-2,3.6095795E-3,1.4087585E-2,2.6301136E-2,1.2078619E-2,-2.3508865E-2,3.28523E-2,2.629891E-2,-3.8258325E-2,1.454139E-2,1.8618565E-2,3.1235546E-2,1.9884517E-2,2.7510189E-2],"split_indices":[5,1,5,4,1,4,4,5,4,2,4,6,1,4,1,4,2,2,2,4,1,1,4,2,1,4,6,1,1,4,1,0,0,0,0,0,0,0,0,0,0,0,0,0,0,0,0,0,0,0,0,0,0,0,0,0,0,0,0,0,0,0,0],"split_type":[0,0,0,0,0,0,0,0,0,0,0,0,0,0,0,0,0,0,0,0,0,0,0,0,0,0,0,0,0,0,0,0,0,0,0,0,0,0,0,0,0,0,0,0,0,0,0,0,0,0,0,0,0,0,0,0,0,0,0,0,0,0,0],"sum_hessian":[3.3630906E4,2.531747E4,8.313437E3,4.929297E3,2.0388174E4,4.565759E3,3.7476772E3,6.102092E2,4.3190874E3,1.207788E4,8.310293E3,3.3155186E3,1.2502405E3,1.8081891E3,1.939488E3,7.856944E1,5.3163983E2,1.83862E3,2.4804675E3,9.304405E3,2.7734753E3,6.962103E3,1.3481898E3,1.0602402E3,2.255278E3,8.615484E2,3.8869205E2,3.8358304E2,1.4246061E3,4.7630606E2,1.463182E3,2.810191E1,5.0467533E1,2.8154087E1,5.0348572E2,4.7764694E2,1.360973E3,3.3265836E2,2.147809E3,6.417992E2,8.662605E3,2.095909E2,2.5638845E3,4.73671E3,2.2253928E3,1.2400105E3,1.0817932E2,8.975348E2,1.627055E2,1.1282578E3,1.1270203E3,3.1985297E2,5.4169543E2,3.67417E2,2.1275038E1,2.238592E2,1.5972385E2,1.39391985E1,1.4106669E3,1.4892869E1,4.6141318E2,2.9454102E2,1.168641E3],"tree_param":{"num_deleted":"0","num_feature":"8","num_nodes":"63","size_leaf_vector":"1"}},{"base_weights":[-3.4714625E-3,-3.2813594E-1,8.4974635E-1,-4.167477E-1,5.13051E-2,5.3238E-1,1.2793862E0,-6.701846E-1,-3.0836135E-1,-1.8174796E-1,2.523707E-1,3.4924063E-1,9.9989885E-1,1.093811E0,1.4724617E0,-1.4446121E0,-6.3286835E-1,-1.5194562E-1,-4.8273453E-1,8.296958E-2,-1.0146744E0,-9.460231E-2,4.740121E-1,1.3807869E-1,5.8455676E-1,1.113225E0,6.111883E-1,1.1314651E0,-8.5364014E-1,1.2163241E0,1.5032321E0,-1.3105347E-2,-3.6995605E-2,-1.3960858E-2,-5.2655363E-3,2.671694E-3,-6.1017214E-3,6.578831E-3,-1.0715761E-2,-3.7468918E-2,2.6332294E-3,-1.5064667E-2,-3.4146827E-2,7.5691654E-3,-9.125563E-3,1.2613692E-2,-6.7427144E-3,-9.451682E-4,1.0273392E-2,1.2590855E-2,-2.5966827E-2,3.026272E-2,2.0603117E-2,-3.4839883E-2,2.1645445E-2,2.0931773E-2,3.031295E-2,-3.9545283E-2,-9.723912E-4,2.6974734E-2,-1.6251227E-2,3.0663721E-2,2.8712902E-2],"categories":[],"categories_nodes":[],"categories_segments":[],"categories_sizes":[],"default_left":[0,0,0,0,0,0,0,0,0,0,0,0,0,0,0,0,0,0,0,0,0,0,0,0,0,0,0,0,0,0,0,0,0,0,0,0,0,0,0,0,0,0,0,0,0,0,0,0,0,0,0,0,0,0,0,0,0,0,0,0,0,0,0],"id":10,"left_children":[1,3,5,7,9,11,13,15,17,19,21,23,25,27,29,31,33,35,37,39,41,43,45,47,49,51,53,55,57,59,61,-1,-1,-1,-1,-1,-1,-1,-1,-1,-1,-1,-1,-1,-1,-1,-1,-1,-1,-1,-1,-1,-1,-1,-1,-1,-1,-1,-1,-1,-1,-1,-1],"loss_changes":[9.226779E3,8.1130444E2,1.2509873E3,5.369973E2,2.141302E2,4.517882E2,1.3785791E2,1.6817432E2,3.7360767E2,4.668032E2,1.8874544E2,1.8852707E2,6.4611084E1,1.4711133E2,1.2937988E1,8.4377625E1,1.3439209E2,3.1598846E2,2.79188E2,1.5313454E2,9.092511E1,1.6390256E2,1.9052899E2,1.3948935E2,1.5282239E2,3.6364136E1,3.7637134E2,6.1916016E1,3.4359787E1,5.7626526E1,9.4091797E-1,0E0,0E0,0E0,0E0,0E0,0E0,0E0,0E0,0E0,0E0,0E0,0E0,0E0,0E0,0E0,0E0,0E0,0E0,0E0,0E0,0E0,0E0,0E0,0E0,0E0,0E0,0E0,0E0,0E0,0E0,0E0,0E0],"parents":[2147483647,0,0,1,1,2,2,3,3,4,4,5,5,6,6,7,7,8,8,9,9,10,10,11,11,12,12,13,13,14,14,15,15,16,16,17,17,18,18,19,19,20,20,21,21,22,22,23,23,24,24,25,25,26,26,27,27,28,28,29,29,30,30],"right_children":[2,4,6,8,10,12,14,16,18,20,22,24,26,28,30,32,34,36,38,40,42,44,46,48,50,52,54,56,58,60,62,-1,-1,-1,-1,-1,-1,-1,-1,-1,-1,-1,-1,-1,-1,-1,-1,-1,-1,-1,-1,-1,-1,-1,-1,-1,-1,-1,-1,-1,-1,-1,-1],"split_conditions":[4.924134E-3,8.622531E-3,7.2875977E-3,2.3425785E-3,3.162213E-3,1.21474955E-2,1.7594336E-2,-1.3095208E-2,3.1734556E-3,1.3271452E-2,1.8771395E-2,5.8861165E-3,3.9064188E-2,1.2719546E-2,8.010775E-3,-1.1215135E-2,2.8664584E-3,-8.331342E-3,-3.224014E-2,1.256976E-3,1.6754627E-2,3.8207907E-3,3.381571E-2,-1.4402093E-3,1.1974192E-2,4.147604E-3,7.7038696E-3,1.3117705E-2,1.1149637E-2,4.125056E-2,1.1033242E-2,-1.3105347E-2,-3.6995605E-2,-1.3960858E-2,-5.2655363E-3,2.671694E-3,-6.1017214E-3,6.578831E-3,-1.0715761E-2,-3.7468918E-2,2.6332294E-3,-1.5064667E-2,-3.4146827E-2,7.5691654E-3,-9.125563E-3,1.2613692E-2,-6.7427144E-3,-9.451682E-4,1.0273392E-2,1.2590855E-2,-2.5966827E-2,3.026272E-2,2.0603117E-2,-3.4839883E-2,2.1645445E-2,2.0931773E-2,3.031295E-2,-3.9545283E-2,-9.723912E-4,2.6974734E-2,-1.6251227E-2,3.0663721E-2,2.8712902E-2],"split_indices":[0,2,0,0,0,2,4,4,0,2,4,0,4,2,0,2,5,4,4,5,2,5,4,4,4,5,5,0,4,2,0,0,0,0,0,0,0,0,0,0,0,0,0,0,0,0,0,0,0,0,0,0,0,0,0,0,0,0,0,0,0,0,0],"split_type":[0,0,0,0,0,0,0,0,0,0,0,0,0,0,0,0,0,0,0,0,0,0,0,0,0,0,0,0,0,0,0,0,0,0,0,0,0,0,0,0,0,0,0,0,0,0,0,0,0,0,0,0,0,0,0,0,0,0,0,0,0,0,0],"sum_hessian":[3.3306707E4,2.4126775E4,9.179933E3,1.9559229E4,4.567546E3,5.281251E3,3.898682E3,5.857255E3,1.3701975E4,2.1153103E3,2.4522358E3,3.7961575E3,1.4850933E3,1.991616E3,1.9070659E3,2.6740402E2,5.5898506E3,7.2241934E3,6.477781E3,1.6057555E3,5.095548E2,9.559097E2,1.496326E3,2.0018239E3,1.7943336E3,1.1482167E3,3.3687665E2,1.9542998E3,3.7316154E1,2.092251E2,1.6978408E3,9.167252E1,1.757315E2,4.7509067E3,8.3894434E2,2.5217905E3,4.702403E3,3.9699472E2,6.080786E3,3.8034134E1,1.5677214E3,3.7154874E2,1.3800606E2,4.140381E2,5.4187164E2,1.2543878E3,2.4193816E2,1.3408052E3,6.6101874E2,1.7531659E3,4.116767E1,1.943171E2,9.5389954E2,5.5705185E1,2.8117148E2,1.6039316E3,3.5036816E2,1.491619E1,2.2399965E1,1.9676782E2,1.2457287E1,1.1603989E3,5.3744196E2],"tree_param":{"num_deleted":"0","num_feature":"8","num_nodes":"63","size_leaf_vector":"1"}},{"base_weights":[3.1155958E-3,-3.0348334E-1,8.414515E-1,-3.9387137E-1,6.1296254E-2,5.3302467E-1,1.2496248E0,-6.2015224E-1,-2.8307337E-1,-1.5673761E-1,2.5488472E-1,3.610322E-1,9.8530567E-1,1.0356196E0,1.4211774E0,-5.8727574E-1,-1.7945E0,-1.139635E-1,-4.514934E-1,8.14945E-2,-9.737147E-1,-1.3981448E-1,5.139388E-1,1.20165735E-1,5.471865E-1,1.1148608E0,5.8560246E-1,1.0583895E0,-3.8233515E-2,1.1575674E0,1.457302E0,-3.356179E-2,-1.1114944E-2,-3.7582878E-2,-2.1827623E-2,3.852757E-3,-4.9398527E-3,-1.2650547E-2,-4.0760394E-3,-2.2315511E-2,3.3867743E-3,-1.1008893E-2,-2.6835639E-2,1.0011192E-2,-9.431344E-3,1.2827509E-2,-2.4813155E-3,-3.4076439E-3,8.949852E-3,1.2007247E-2,-4.0340528E-2,2.3092758E-2,-7.7783624E-3,-2.0207407E-2,1.8937869E-2,-2.4496555E-2,2.1683449E-2,5.837136E-3,2.6149878E-2,2.2586564E-2,2.9336913E-2],"categories":[],"categories_nodes":[],"categories_segments":[],"categories_sizes":[],"default_left":[0,0,0,0,0,0,0,0,0,0,0,0,0,0,0,0,0,0,0,0,0,0,0,0,0,0,0,0,0,0,0,0,0,0,0,0,0,0,0,0,0,0,0,0,0,0,0,0,0,0,0,0,0,0,0,0,0,0,0,0,0],"id":11,"left_children":[1,3,5,7,9,11,13,15,17,19,21,23,25,27,29,31,33,35,37,39,41,43,45,47,49,51,53,55,-1,57,59,-1,-1,-1,-1,-1,-1,-1,-1,-1,-1,-1,-1,-1,-1,-1,-1,-1,-1,-1,-1,-1,-1,-1,-1,-1,-1,-1,-1,-1,-1],"loss_changes":[8.560521E3,8.0411304E2,1.1219487E3,4.89729E2,2.0448021E2,3.948302E2,1.3917871E2,2.4668848E2,3.73625E2,4.4357773E2,2.624885E2,1.6503311E2,7.1642334E1,1.1679907E2,1.8308594E1,2.1377881E2,8.028381E0,2.6717487E2,2.9455835E2,1.8569296E2,7.923007E1,2.1638945E2,1.2612424E2,1.5296727E2,2.843117E2,6.3663696E1,1.9979184E2,1.0133667E2,0E0,3.3408722E1,3.9267578E0,0E0,0E0,0E0,0E0,0E0,0E0,0E0,0E0,0E0,0E0,0E0,0E0,0E0,0E0,0E0,0E0,0E0,0E0,0E0,0E0,0E0,0E0,0E0,0E0,0E0,0E0,0E0,0E0,0E0,0E0],"parents":[2147483647,0,0,1,1,2,2,3,3,4,4,5,5,6,6,7,7,8,8,9,9,10,10,11,11,12,12,13,13,14,14,15,15,16,16,17,17,18,18,19,19,20,20,21,21,22,22,23,23,24,24,25,25,26,26,27,27,29,29,30,30],"right_children":[2,4,6,8,10,12,14,16,18,20,22,24,26,28,30,32,34,36,38,40,42,44,46,48,50,52,54,56,-1,58,60,-1,-1,-1,-1,-1,-1,-1,-1,-1,-1,-1,-1,-1,-1,-1,-1,-1,-1,-1,-1,-1,-1,-1,-1,-1,-1,-1,-1,-1,-1],"split_conditions":[4.971197E-3,8.303466E-3,7.2875977E-3,2.4086342E-3,3.162213E-3,1.21474955E-2,5.2220672E-3,1.1974192E-2,3.1734556E-3,1.3271452E-2,1.8771395E-2,5.7314443E-3,3.6177743E-2,1.005572E-2,8.010775E-3,-1.5024655E-2,1.7696586E0,-1.0274866E-2,4.00198E-3,8.327054E-1,1.4994153E-2,1.1875347E0,3.381571E-2,-8.513738E-3,1.21972915E-2,2.3301497E0,-1.1869663E4,2.6884305E-1,-3.8233515E-2,1.1284343E0,9.753436E-3,-3.356179E-2,-1.1114944E-2,-3.7582878E-2,-2.1827623E-2,3.852757E-3,-4.9398527E-3,-1.2650547E-2,-4.0760394E-3,-2.2315511E-2,3.3867743E-3,-1.1008893E-2,-2.6835639E-2,1.0011192E-2,-9.431344E-3,1.2827509E-2,-2.4813155E-3,-3.4076439E-3,8.949852E-3,1.2007247E-2,-4.0340528E-2,2.3092758E-2,-7.7783624E-3,-2.0207407E-2,1.8937869E-2,-2.4496555E-2,2.1683449E-2,5.837136E-3,2.6149878E-2,2.2586564E-2,2.9336913E-2],"split_indices":[0,2,0,0,0,2,4,4,0,2,4,0,4,2,0,4,7,4,0,7,2,7,4,4,4,6,3,6,0,7,4,0,0,0,0,0,0,0,0,0,0,0,0,0,0,0,0,0,0,0,0,0,0,0,0,0,0,0,0,0,0],"split_type":[0,0,0,0,0,0,0,0,0,0,0,0,0,0,0,0,0,0,0,0,0,0,0,0,0,0,0,0,0,0,0,0,0,0,0,0,0,0,0,0,0,0,0,0,0,0,0,0,0,0,0,0,0,0,0,0,0,0,0,0,0],"sum_hessian":[3.3302957E4,2.4385229E4,8.917727E3,1.954292E4,4.842309E3,5.080964E3,3.8367627E3,6.421961E3,1.312096E4,2.2772136E3,2.5650952E3,3.6825796E3,1.3983844E3,1.7105431E3,2.1262195E3,6.248613E3,1.733481E2,6.5482046E3,6.572755E3,1.7636947E3,5.13519E2,1.0164654E3,1.5486298E3,1.6063256E3,2.076254E3,1.0545391E3,3.4384534E2,1.6980989E3,1.2444172E1,2.6057248E2,1.8656471E3,1.7397795E2,6.074635E3,1.5310228E2,2.0245825E1,1.9810781E3,4.5671265E3,3.7962068E3,2.776548E3,1.1967997E2,1.6440148E3,2.4013536E2,2.7338364E2,3.466074E2,6.69858E2,1.290928E3,2.5770184E2,8.5106305E2,7.5526245E2,2.0348605E3,4.1393467E1,1.0276548E3,2.6884283E1,6.308764E1,2.8075772E2,1.8398878E1,1.6797E3,3.899868E1,2.2157379E2,5.642378E1,1.8092233E3],"tree_param":{"num_deleted":"0","num_feature":"8","num_nodes":"61","size_leaf_vector":"1"}},{"base_weights":[6.1520777E-4,-2.2562654E-1,6.9696295E-1,-8.3340967E-1,-7.492859E-2,3.9165574E-1,1.0621995E0,2.0368053E-1,-9.6961087E-1,1.5572357E-1,-4.0533897E-1,9.056143E-1,3.081377E-3,8.245861E-1,1.2903556E0,-3.8355254E-2,3.2124898E-1,-1.3059689E0,-7.215464E-1,7.119462E-3,6.551503E-1,-5.158935E-1,1.6289733E-1,1.1941886E0,4.1270593E-1,-1.3581823E-1,8.197058E-1,1.4484607E0,6.578165E-1,1.3271347E0,2.9063225E-1,3.2462664E-2,2.3189432E-3,-2.9850578E-2,-1.5690446E-2,1.435767E-2,-1.919707E-2,2.0198168E-2,-1.3484078E-3,-2.0371673E-3,1.4287264E-2,-6.0860612E-3,-1.546085E-2,5.58639E-3,-3.4337252E-2,1.7795097E-2,2.7244495E-2,-8.214002E-3,1.2443028E-2,-2.1070736E-3,-3.7618488E-2,1.8168999E-2,-3.567113E-2,3.1889036E-2,2.359487E-2,2.6781816E-2,9.769758E-3,2.8380211E-2,2.313373E-2,-1.4441644E-2,2.682049E-2],"categories":[],"categories_nodes":[],"categories_segments":[],"categories_sizes":[],"default_left":[0,0,0,0,0,0,0,0,0,0,0,0,0,0,0,0,0,0,0,0,0,0,0,0,0,0,0,0,0,0,0,0,0,0,0,0,0,0,0,0,0,0,0,0,0,0,0,0,0,0,0,0,0,0,0,0,0,0,0,0,0],"id":12,"left_children":[1,3,5,7,9,11,13,15,17,19,21,23,25,27,29,-1,31,33,35,37,39,41,43,45,47,49,51,53,55,57,59,-1,-1,-1,-1,-1,-1,-1,-1,-1,-1,-1,-1,-1,-1,-1,-1,-1,-1,-1,-1,-1,-1,-1,-1,-1,-1,-1,-1,-1,-1],"loss_changes":[5.253086E3,2.3049136E3,9.112251E2,7.065386E2,1.5370714E3,8.8972205E2,2.0051855E2,1.454076E2,3.6763965E2,8.814302E2,5.209946E2,2.721858E2,2.881031E2,1.8885315E2,6.920068E1,0E0,1.470557E2,1.809685E2,8.7412476E2,6.844673E2,1.2221448E2,3.7733875E2,2.960034E2,6.041992E1,1.2271587E2,1.14975525E2,8.683519E1,1.2916382E1,1.6563312E2,2.674707E1,7.409612E1,0E0,0E0,0E0,0E0,0E0,0E0,0E0,0E0,0E0,0E0,0E0,0E0,0E0,0E0,0E0,0E0,0E0,0E0,0E0,0E0,0E0,0E0,0E0,0E0,0E0,0E0,0E0,0E0,0E0,0E0],"parents":[2147483647,0,0,1,1,2,2,3,3,4,4,5,5,6,6,7,7,8,8,9,9,10,10,11,11,12,12,13,13,14,14,16,16,17,17,18,18,19,19,20,20,21,21,22,22,23,23,24,24,25,25,26,26,27,27,28,28,29,29,30,30],"right_children":[2,4,6,8,10,12,14,16,18,20,22,24,26,28,30,-1,32,34,36,38,40,42,44,46,48,50,52,54,56,58,60,-1,-1,-1,-1,-1,-1,-1,-1,-1,-1,-1,-1,-1,-1,-1,-1,-1,-1,-1,-1,-1,-1,-1,-1,-1,-1,-1,-1,-1,-1],"split_conditions":[6.00782E-3,6E0,9.488055E-3,-1.9404683E-2,1.5E1,1.6481955E0,1.7594336E-2,-2.4527265E-2,-3.914421E-4,7.403242E-3,1.4892338E-2,1.5E1,2.1484181E-2,-6.826341E-2,3.564859E0,-3.8355254E-2,-3.9826095E-2,3.747538E-3,-1.7297934E-3,-2.7533248E-2,7E0,1.2530239E0,3.9064188E-2,-6.5165167E-3,-2.5940977E-2,3.3134708E0,2.2E1,1.3E1,1.6792588E0,2.2586398E0,2E1,3.2462664E-2,2.3189432E-3,-2.9850578E-2,-1.5690446E-2,1.435767E-2,-1.919707E-2,2.0198168E-2,-1.3484078E-3,-2.0371673E-3,1.4287264E-2,-6.0860612E-3,-1.546085E-2,5.58639E-3,-3.4337252E-2,1.7795097E-2,2.7244495E-2,-8.214002E-3,1.2443028E-2,-2.1070736E-3,-3.7618488E-2,1.8168999E-2,-3.567113E-2,3.1889036E-2,2.359487E-2,2.6781816E-2,9.769758E-3,2.8380211E-2,2.313373E-2,-1.4441644E-2,2.682049E-2],"split_indices":[5,1,5,4,1,7,4,2,4,2,4,1,2,4,7,0,4,5,2,4,1,7,4,4,4,7,1,1,7,7,1,0,0,0,0,0,0,0,0,0,0,0,0,0,0,0,0,0,0,0,0,0,0,0,0,0,0,0,0,0,0],"split_type":[0,0,0,0,0,0,0,0,0,0,0,0,0,0,0,0,0,0,0,0,0,0,0,0,0,0,0,0,0,0,0,0,0,0,0,0,0,0,0,0,0,0,0,0,0,0,0,0,0,0,0,0,0,0,0,0,0,0,0,0,0],"sum_hessian":[3.3341543E4,2.5165773E4,8.175769E3,4.9990015E3,2.0166771E4,4.454514E3,3.721255E3,5.801651E2,4.4188364E3,1.1876369E4,8.290403E3,1.9171521E3,2.537362E3,1.825323E3,1.8959319E3,2.961526E1,5.505498E2,1.873642E3,2.5451943E3,9.153858E3,2.7225105E3,6.940371E3,1.3500323E3,1.2081895E3,7.089626E2,2.1691265E3,3.682354E2,3.8326547E2,1.4420575E3,1.8282445E3,6.768726E1,7.398625E1,4.7656357E2,1.3784236E3,4.9521838E2,3.6117596E2,2.1840186E3,6.325756E2,8.521283E3,1.9733008E2,2.5251804E3,3.8088767E3,3.1314946E3,1.272147E3,7.788529E1,4.3214914E2,7.7604034E2,1.4347443E2,5.6548816E2,2.133008E3,3.611852E1,3.5676294E2,1.1472467E1,2.449054E2,1.3836008E2,2.8557602E2,1.1564814E3,1.1827822E3,6.4546234E2,3.457237E1,3.3114895E1],"tree_param":{"num_deleted":"0","num_feature":"8","num_nodes":"61","size_leaf_vector":"1"}},{"base_weights":[-7.4111614E-3,-2.1868022E-1,6.71678E-1,-8.716614E-1,-6.1511572E-2,4.226448E-1,1.0993466E0,2.9041225E-1,-1.0356903E0,1.475956E-1,-4.2865384E-1,1.3553189E0,3.320575E-1,8.3445585E-1,1.2586399E0,-3.7720073E-2,4.0664962E-1,-1.3328868E0,-8.164988E-1,-1.6791123E-3,6.4369863E-1,-5.1313055E-1,4.629813E-2,1.9036187E-3,1.3932409E0,1.5724848E-1,5.7043535E-1,9.89244E-1,5.3300726E-1,1.473154E0,1.1834852E0,-1.697052E-2,1.2089819E-2,-1.6784253E-2,-3.018262E-2,1.160719E-2,-2.0405734E-2,1.8255629E-2,-1.4576205E-3,1.15716625E-2,2.6925163E-2,-7.0142765E-3,-1.6076088E-2,4.5544016E-3,-3.4851693E-2,2.1428885E-2,2.9613908E-2,-1.7189365E-3,7.416662E-3,5.1319883E-3,1.6089436E-2,1.3482701E-2,2.41095E-2,-9.2452404E-4,1.4963301E-2,2.8169086E-2,3.1515706E-2,-3.4481233E-3,2.4302635E-2],"categories":[],"categories_nodes":[],"categories_segments":[],"categories_sizes":[],"default_left":[0,0,0,0,0,0,0,0,0,0,0,0,0,0,0,0,0,0,0,0,0,0,0,0,0,0,0,0,0,0,0,0,0,0,0,0,0,0,0,0,0,0,0,0,0,0,0,0,0,0,0,0,0,0,0,0,0,0,0],"id":13,"left_children":[1,3,5,7,9,11,13,15,17,19,21,23,25,27,29,-1,31,33,35,37,39,41,43,-1,45,47,49,51,53,55,57,-1,-1,-1,-1,-1,-1,-1,-1,-1,-1,-1,-1,-1,-1,-1,-1,-1,-1,-1,-1,-1,-1,-1,-1,-1,-1,-1,-1],"loss_changes":[4.743625E3,2.587958E3,8.349509E2,9.328828E2,1.5606483E3,4.1844427E2,1.2053418E2,1.5388123E2,2.779839E2,9.59195E2,2.9603955E2,2.0681519E1,1.8828564E2,5.004712E1,2.7014404E1,0E0,1.4351823E2,1.5668335E2,7.038231E2,6.482744E2,1.3607959E2,2.95281E2,3.6199792E2,0E0,1.0138916E1,1.3566563E2,1.4017065E2,4.7847412E1,4.6369026E1,5.543823E-1,5.7753662E1,0E0,0E0,0E0,0E0,0E0,0E0,0E0,0E0,0E0,0E0,0E0,0E0,0E0,0E0,0E0,0E0,0E0,0E0,0E0,0E0,0E0,0E0,0E0,0E0,0E0,0E0,0E0,0E0],"parents":[2147483647,0,0,1,1,2,2,3,3,4,4,5,5,6,6,7,7,8,8,9,9,10,10,11,11,12,12,13,13,14,14,16,16,17,17,18,18,19,19,20,20,21,21,22,22,24,24,25,25,26,26,27,27,28,28,29,29,30,30],"right_children":[2,4,6,8,10,12,14,16,18,20,22,24,26,28,30,-1,32,34,36,38,40,42,44,-1,46,48,50,52,54,56,58,-1,-1,-1,-1,-1,-1,-1,-1,-1,-1,-1,-1,-1,-1,-1,-1,-1,-1,-1,-1,-1,-1,-1,-1,-1,-1,-1,-1],"split_conditions":[6.076966E-3,6E0,1.9204764E-2,-1.9404683E-2,1.6E1,-6.826341E-2,9.488055E-3,-2.4527265E-2,-3.914421E-4,7.403242E-3,1.5528361E-2,3.7036592E-1,8.545593E-3,1.6E1,4E0,-3.7720073E-2,2.7355214E-3,-7.819076E-3,-1.7297934E-3,-2.7533248E-2,2.0400641E-2,2.1E1,3.6177743E-2,1.9036187E-3,1.1498161E-2,8.238266E-1,-1.9046588E-2,2.859976E-2,1.8E1,1.325667E0,3.0479592E-1,-1.697052E-2,1.2089819E-2,-1.6784253E-2,-3.018262E-2,1.160719E-2,-2.0405734E-2,1.8255629E-2,-1.4576205E-3,1.15716625E-2,2.6925163E-2,-7.0142765E-3,-1.6076088E-2,4.5544016E-3,-3.4851693E-2,2.1428885E-2,2.9613908E-2,-1.7189365E-3,7.416662E-3,5.1319883E-3,1.6089436E-2,1.3482701E-2,2.41095E-2,-9.2452404E-4,1.4963301E-2,2.8169086E-2,3.1515706E-2,-3.4481233E-3,2.4302635E-2],"split_indices":[5,1,4,4,1,4,5,2,4,2,4,6,5,1,1,0,5,2,2,4,2,1,4,0,5,6,4,4,1,6,6,0,0,0,0,0,0,0,0,0,0,0,0,0,0,0,0,0,0,0,0,0,0,0,0,0,0,0,0],"split_type":[0,0,0,0,0,0,0,0,0,0,0,0,0,0,0,0,0,0,0,0,0,0,0,0,0,0,0,0,0,0,0,0,0,0,0,0,0,0,0,0,0,0,0,0,0,0,0,0,0,0,0,0,0,0,0,0,0,0,0],"sum_hessian":[3.3061703E4,2.5217271E4,7.844432E3,4.8911323E3,2.0326139E4,4.9590054E3,2.8854268E3,6.0482544E2,4.2863066E3,1.2950476E4,7.375663E3,4.3767706E2,4.521328E3,1.0861392E3,1.7992876E3,2.9849064E1,5.749764E2,1.8170604E3,2.4692463E3,9.955665E3,2.9948105E3,6.26201E3,1.1136536E3,1.2966013E1,4.2471106E2,2.6096667E3,1.9116614E3,7.1591644E2,3.702228E2,4.616551E2,1.3376326E3,7.777157E1,4.972048E2,4.7970322E2,1.3373572E3,3.1407678E2,2.1551697E3,7.182183E2,9.237446E3,2.7425847E3,2.5222594E2,4.0189407E3,2.243069E3,1.01195355E3,1.01700035E2,9.3834435E1,3.3087662E2,1.2203082E3,1.3893585E3,8.176888E2,1.0939725E3,2.932091E2,4.227073E2,1.0036019E2,2.698626E2,2.9278128E2,1.688738E2,3.033484E1,1.3072977E3],"tree_param":{"num_deleted":"0","num_feature":"8","num_nodes":"59","size_leaf_vector":"1"}},{"base_weights":[-7.0806E-4,-3.002341E-1,8.282358E-1,-8.9569765E-1,-1.1361994E-1,5.678361E-1,1.2484058E0,1.038341E-1,-1.0114144E0,1.5363644E-1,-4.7826692E-1,3.7236977E-1,8.5508275E-1,1.4468396E0,1.0641415E0,-3.6820296E-2,1.783427E-1,-1.0646963E0,1.1463689E-1,-9.258406E-1,2.4754156E-1,-1.2757753E0,-3.3056036E-1,-6.237387E-2,5.7605636E-1,1.1006855E0,5.986662E-1,1.5048298E0,1.301264E0,6.14193E-1,1.3288043E0,1.918716E-2,-2.080605E-3,-7.2567984E-3,-2.278511E-2,-3.1341862E-2,1.2516207E-2,-3.455637E-2,-1.4293639E-2,-1.5958016E-3,6.738934E-3,-2.9900478E-2,-1.3793128E-2,-9.406152E-3,5.8871964E-3,7.847995E-3,-9.492626E-3,-1.0394439E-2,1.3996831E-2,1.6570717E-2,2.6423212E-2,3.6897275E-3,2.7242668E-2,3.0831432E-2,2.0756196E-2,2.7939934E-2,1.6424041E-2,6.842821E-3,2.7325101E-2,2.080506E-2,2.875927E-2],"categories":[],"categories_nodes":[],"categories_segments":[],"categories_sizes":[],"default_left":[0,0,0,0,0,0,0,0,0,0,0,0,0,0,0,0,0,0,0,0,0,0,0,0,0,0,0,0,0,0,0,0,0,0,0,0,0,0,0,0,0,0,0,0,0,0,0,0,0,0,0,0,0,0,0,0,0,0,0,0,0],"id":14,"left_children":[1,3,5,7,9,11,13,15,17,19,21,23,25,27,29,-1,31,33,35,37,39,41,43,45,47,49,51,53,55,57,59,-1,-1,-1,-1,-1,-1,-1,-1,-1,-1,-1,-1,-1,-1,-1,-1,-1,-1,-1,-1,-1,-1,-1,-1,-1,-1,-1,-1,-1,-1],"loss_changes":[8.278297E3,2.7213735E3,9.6736426E2,6.761045E2,1.8175302E3,3.0643372E2,1.21981445E2,8.814473E1,3.1446484E2,1.0911102E3,9.285769E2,2.8826474E2,1.3848804E2,1.1494873E1,2.084878E2,0E0,1.2935883E2,2.6114746E2,2.0501392E2,1.4439758E2,2.8983008E2,1.5708887E2,5.8148596E2,1.9499446E2,3.0100702E2,6.6405396E1,3.425798E2,1.7986816E1,2.029181E1,1.3307774E2,3.3114746E1,0E0,0E0,0E0,0E0,0E0,0E0,0E0,0E0,0E0,0E0,0E0,0E0,0E0,0E0,0E0,0E0,0E0,0E0,0E0,0E0,0E0,0E0,0E0,0E0,0E0,0E0,0E0,0E0,0E0,0E0],"parents":[2147483647,0,0,1,1,2,2,3,3,4,4,5,5,6,6,7,7,8,8,9,9,10,10,11,11,12,12,13,13,14,14,16,16,17,17,18,18,19,19,20,20,21,21,22,22,23,23,24,24,25,25,26,26,27,27,28,28,29,29,30,30],"right_children":[2,4,6,8,10,12,14,16,18,20,22,24,26,28,30,-1,32,34,36,38,40,42,44,46,48,50,52,54,56,58,60,-1,-1,-1,-1,-1,-1,-1,-1,-1,-1,-1,-1,-1,-1,-1,-1,-1,-1,-1,-1,-1,-1,-1,-1,-1,-1,-1,-1,-1,-1],"split_conditions":[5.0137774E-3,7E0,7.730889E-3,-1.9404683E-2,1.5E1,3.094755E-3,8E0,2.6994895E-3,4.5720623E-3,1.953406E-3,-1.221362E-2,5.6626913E-3,1.5E1,1.753711E0,8.805114E-3,-3.6820296E-2,3.1337861E-3,1.7382847E-3,-1.18799595E-4,-5.017989E-3,2.4086342E-3,1.7189643E0,4.145654E-3,1.4E1,6E0,1.1E1,2.1E1,5.8790665E-2,5E0,1.3117705E-2,3.1870853E-2,1.918716E-2,-2.080605E-3,-7.2567984E-3,-2.278511E-2,-3.1341862E-2,1.2516207E-2,-3.455637E-2,-1.4293639E-2,-1.5958016E-3,6.738934E-3,-2.9900478E-2,-1.3793128E-2,-9.406152E-3,5.8871964E-3,7.847995E-3,-9.492626E-3,-1.0394439E-2,1.3996831E-2,1.6570717E-2,2.6423212E-2,3.6897275E-3,2.7242668E-2,3.0831432E-2,2.0756196E-2,2.7939934E-2,1.6424041E-2,6.842821E-3,2.7325101E-2,2.080506E-2,2.875927E-2],"split_indices":[0,1,0,4,1,4,1,0,0,0,4,0,1,7,4,0,0,0,4,4,0,7,0,1,1,1,1,4,1,0,4,0,0,0,0,0,0,0,0,0,0,0,0,0,0,0,0,0,0,0,0,0,0,0,0,0,0,0,0,0,0],"split_type":[0,0,0,0,0,0,0,0,0,0,0,0,0,0,0,0,0,0,0,0,0,0,0,0,0,0,0,0,0,0,0,0,0,0,0,0,0,0,0,0,0,0,0,0,0,0,0,0,0,0,0,0,0,0,0,0,0,0,0,0,0],"sum_hessian":[3.3339414E4,2.44908E4,8.848613E3,5.842797E3,1.8648004E4,5.4645547E3,3.3840588E3,6.0616235E2,5.2366343E3,1.0761218E4,7.886787E3,3.2533506E3,2.2112043E3,1.6258215E3,1.7582374E3,2.1441374E1,5.8472095E2,5.000182E3,2.3645242E2,8.604199E2,9.900798E3,1.2311506E3,6.655636E3,1.0380231E3,2.2153274E3,1.1275367E3,1.0836676E3,1.1555016E3,4.7032E2,6.5254877E2,1.1056886E3,1.5472467E2,4.2999628E2,4.808596E2,4.5193223E3,5.459077E1,1.8186166E2,1.7773364E2,6.826863E2,2.1238635E3,7.776934E3,8.9473645E2,3.364142E2,5.4396147E3,1.2160219E3,4.934686E2,5.4455444E2,2.2444817E2,1.9908793E3,5.069638E2,6.205729E2,7.0343036E2,3.8023727E2,1.0688936E3,8.6607994E1,3.903575E2,7.996248E1,4.803678E2,1.72181E2,3.0661908E2,7.9906946E2],"tree_param":{"num_deleted":"0","num_feature":"8","num_nodes":"61","size_leaf_vector":"1"}},{"base_weights":[1.1474343E-3,-2.5589144E-1,8.669545E-1,-8.556112E-1,-1.076214E-1,6.222337E-1,1.2415135E0,-1.0306584E0,3.246903E-1,1.1330338E-1,-5.046938E-1,1.6501097E-1,6.974546E-1,1.4444016E0,1.0406393E0,-1.3959132E-1,-1.1261607E0,1.3900964E0,1.429803E-1,-4.552726E-1,2.720442E-1,-1.2774339E0,-3.6042172E-1,-2.9628634E-1,9.151755E-1,1.1800082E0,4.865776E-1,1.4732342E0,1.228702E0,4.2382827E-1,1.3145584E0,-3.456484E-2,1.0443017E-2,-1.9021484E-3,-2.4190525E-2,2.1704282E-3,3.2247286E-2,1.3090715E-2,-5.227059E-3,-1.2941771E-2,4.503418E-3,-1.6555304E-4,7.246929E-3,-1.27409585E-2,-2.8869659E-2,-1.09799085E-2,3.911692E-3,-2.0987045E-2,1.6766684E-2,9.656114E-3,2.4099514E-2,4.4932743E-3,2.4439838E-2,-2.7354606E-4,1.2455776E-2,3.006882E-2,2.3120064E-2,1.6168924E-2,3.0204292E-2,-7.3229596E-3,1.9154554E-2,1.9960554E-2,2.8840486E-2],"categories":[],"categories_nodes":[],"categories_segments":[],"categories_sizes":[],"default_left":[0,0,0,0,0,0,0,0,0,0,0,0,0,0,0,0,0,0,0,0,0,0,0,0,0,0,0,0,0,0,0,0,0,0,0,0,0,0,0,0,0,0,0,0,0,0,0,0,0,0,0,0,0,0,0,0,0,0,0,0,0,0,0],"id":15,"left_children":[1,3,5,7,9,11,13,15,17,19,21,23,25,27,29,31,33,35,37,39,41,43,45,47,49,51,53,55,57,59,61,-1,-1,-1,-1,-1,-1,-1,-1,-1,-1,-1,-1,-1,-1,-1,-1,-1,-1,-1,-1,-1,-1,-1,-1,-1,-1,-1,-1,-1,-1,-1,-1],"loss_changes":[7.401253E3,2.280065E3,6.968823E2,1.0505835E3,1.8038411E3,1.5824011E2,1.2081201E2,3.7643213E2,1.2687142E2,1.1925626E3,8.188872E2,2.260704E2,4.0176978E2,7.2075195E0,2.5523633E2,4.5282672E2,3.4340088E2,2.6872482E1,1.16579315E2,3.7658234E2,2.6150635E2,1.2179639E2,6.4976935E2,3.4661664E2,3.0414139E1,4.77937E1,1.8775922E2,1.0566406E1,2.013971E1,1.9757825E2,4.062085E1,0E0,0E0,0E0,0E0,0E0,0E0,0E0,0E0,0E0,0E0,0E0,0E0,0E0,0E0,0E0,0E0,0E0,0E0,0E0,0E0,0E0,0E0,0E0,0E0,0E0,0E0,0E0,0E0,0E0,0E0,0E0,0E0],"parents":[2147483647,0,0,1,1,2,2,3,3,4,4,5,5,6,6,7,7,8,8,9,9,10,10,11,11,12,12,13,13,14,14,15,15,16,16,17,17,18,18,19,19,20,20,21,21,22,22,23,23,24,24,25,25,26,26,27,27,28,28,29,29,30,30],"right_children":[2,4,6,8,10,12,14,16,18,20,22,24,26,28,30,32,34,36,38,40,42,44,46,48,50,52,54,56,58,60,62,-1,-1,-1,-1,-1,-1,-1,-1,-1,-1,-1,-1,-1,-1,-1,-1,-1,-1,-1,-1,-1,-1,-1,-1,-1,-1,-1,-1,-1,-1,-1,-1],"split_conditions":[5.3614136E-3,6E0,8.010775E-3,4.4348743E-3,1.6E1,7E0,8E0,1.7382847E-3,8.0478704E-1,2.311007E-3,-1.28721045E-2,6.8143927E-3,1.4E1,2.3199873E0,4.58367E-3,-2.739264E-4,-2.0575926E-2,-3.8872137E4,-1.9404683E-2,9.370805E-3,9E0,-2.9234197E-2,3.912069E-3,1.3089251E-2,-1.873735E-2,-4.5553807E-2,-2.5245119E-2,5.8790665E-2,1.3558208E-2,1.8E1,3.1870853E-2,-3.456484E-2,1.0443017E-2,-1.9021484E-3,-2.4190525E-2,2.1704282E-3,3.2247286E-2,1.3090715E-2,-5.227059E-3,-1.2941771E-2,4.503418E-3,-1.6555304E-4,7.246929E-3,-1.27409585E-2,-2.8869659E-2,-1.09799085E-2,3.911692E-3,-2.0987045E-2,1.6766684E-2,9.656114E-3,2.4099514E-2,4.4932743E-3,2.4439838E-2,-2.7354606E-4,1.2455776E-2,3.006882E-2,2.3120064E-2,1.6168924E-2,3.0204292E-2,-7.3229596E-3,1.9154554E-2,1.9960554E-2,2.8840486E-2],"split_indices":[0,1,0,0,1,1,1,0,7,0,4,0,1,7,4,4,4,3,4,4,1,4,0,4,4,4,4,4,4,1,4,0,0,0,0,0,0,0,0,0,0,0,0,0,0,0,0,0,0,0,0,0,0,0,0,0,0,0,0,0,0,0,0],"split_type":[0,0,0,0,0,0,0,0,0,0,0,0,0,0,0,0,0,0,0,0,0,0,0,0,0,0,0,0,0,0,0,0,0,0,0,0,0,0,0,0,0,0,0,0,0,0,0,0,0,0,0,0,0,0,0,0,0,0,0,0,0,0,0],"sum_hessian":[3.3254902E4,2.5642734E4,7.612169E3,5.0819434E3,2.0560791E4,4.605839E3,3.0063298E3,4.4257803E3,6.561632E2,1.3210912E4,7.349879E3,6.513279E2,3.9545112E3,1.4923396E3,1.5139902E3,4.2876648E2,3.9970137E3,9.455658E1,5.616066E2,2.8828076E3,1.03281045E4,1.1550002E3,6.1948784E3,4.0360904E2,2.4771886E2,1.2010519E3,2.7534592E3,1.3108276E3,1.815119E2,4.664809E2,1.0475093E3,1.25652E2,3.0311447E2,2.9925162E2,3.697762E3,1.4261912E1,8.029467E1,2.4776598E2,3.138407E2,2.249011E3,6.337968E2,2.516386E3,7.8117183E3,2.3894034E2,9.160599E2,4.6260957E3,1.5687827E3,2.4269304E2,1.60916E2,1.0061563E2,1.4710323E2,5.092728E1,1.1501246E3,5.893081E2,2.1641511E3,1.19316E3,1.1766771E2,7.4508736E1,1.0700316E2,1.8817601E2,2.783049E2,3.0348706E2,7.440222E2],"tree_param":{"num_deleted":"0","num_feature":"8","num_nodes":"63","size_leaf_vector":"1"}},{"base_weights":[1.4009466E-3,-2.7384892E-1,8.265984E-1,-8.613631E-1,-1.278569E-1,5.4307556E-1,1.1634855E0,-1.0115671E0,3.4961888E-1,7.349402E-2,-4.8699147E-1,3.9367738E-1,9.7242063E-1,1.3061243E0,8.576424E-1,1.8368661E-2,-1.0909616E0,-1.6233296E0,5.1292264E-1,-8.604974E-1,1.5483178E-1,-1.1299964E0,-3.478495E-1,-1.5023167E-1,4.900508E-1,1.1059102E0,5.5617607E-1,1.3915956E0,1.1305237E0,5.132463E-1,1.2615709E0,8.902273E-3,-2.5262872E-2,-4.3219286E-3,-2.3875868E-2,-8.919752E-3,-3.9759073E-2,2.3789598E-2,2.924583E-3,-2.2598943E-2,1.6950924E-3,9.5920067E-4,9.677891E-3,-8.068548E-3,-2.5721937E-2,-1.0747125E-2,5.1106447E-3,1.02402065E-2,-1.0576214E-2,2.1344401E-2,4.2021023E-3,1.8276276E-2,3.0982222E-2,-2.6981063E-2,1.9263828E-2,2.8129758E-2,1.964784E-2,2.850439E-2,1.3865467E-2,1.3567049E-2,-3.0197944E-2,-7.23898E-3,2.6829315E-2],"categories":[],"categories_nodes":[],"categories_segments":[],"categories_sizes":[],"default_left":[0,0,0,0,0,0,0,0,0,0,0,0,0,0,0,0,0,0,0,0,0,0,0,0,0,0,0,0,0,0,0,0,0,0,0,0,0,0,0,0,0,0,0,0,0,0,0,0,0,0,0,0,0,0,0,0,0,0,0,0,0,0,0],"id":16,"left_children":[1,3,5,7,9,11,13,15,17,19,21,23,25,27,29,31,33,35,37,39,41,43,45,47,49,51,53,55,57,59,61,-1,-1,-1,-1,-1,-1,-1,-1,-1,-1,-1,-1,-1,-1,-1,-1,-1,-1,-1,-1,-1,-1,-1,-1,-1,-1,-1,-1,-1,-1,-1,-1],"loss_changes":[7.530372E3,2.132162E3,7.912666E2,9.003999E2,1.4400996E3,2.884452E2,1.6394238E2,3.6009668E2,1.7684698E2,9.694783E2,6.3954614E2,1.7538971E2,6.3788574E1,3.692041E1,1.6723541E2,1.732695E2,3.6730273E2,1.689212E1,1.2514357E2,2.605807E2,4.127691E2,1.4359753E2,6.728716E2,1.26611694E2,4.5868268E2,7.314807E1,2.2178134E2,8.931885E0,1.0843933E2,2.1937358E2,7.2595764E1,0E0,0E0,0E0,0E0,0E0,0E0,0E0,0E0,0E0,0E0,0E0,0E0,0E0,0E0,0E0,0E0,0E0,0E0,0E0,0E0,0E0,0E0,0E0,0E0,0E0,0E0,0E0,0E0,0E0,0E0,0E0,0E0],"parents":[2147483647,0,0,1,1,2,2,3,3,4,4,5,5,6,6,7,7,8,8,9,9,10,10,11,11,12,12,13,13,14,14,15,15,16,16,17,17,18,18,19,19,20,20,21,21,22,22,23,23,24,24,25,25,26,26,27,27,28,28,29,29,30,30],"right_children":[2,4,6,8,10,12,14,16,18,20,22,24,26,28,30,32,34,36,38,40,42,44,46,48,50,52,54,56,58,60,62,-1,-1,-1,-1,-1,-1,-1,-1,-1,-1,-1,-1,-1,-1,-1,-1,-1,-1,-1,-1,-1,-1,-1,-1,-1,-1,-1,-1,-1,-1,-1,-1],"split_conditions":[5.1631345E-3,6E0,7.2875977E-3,4.4348743E-3,1.6E1,1.3943447E-2,1.5E1,-2.0575926E-2,-2.072392E-2,1.953406E-3,-1.1393564E-2,7E0,3.9064188E-2,1.655983E0,1.7226053E-2,-2.0757172E4,1.7382847E-3,-3.9826095E-2,-1.9404683E-2,4.502058E-3,7.403242E-3,-2.9234197E-2,3.912069E-3,5.475118E-3,1.4E1,2E1,-1.0347129E4,5.1932603E-2,5E0,-1.3529029E-3,-1.2221747E4,8.902273E-3,-2.5262872E-2,-4.3219286E-3,-2.3875868E-2,-8.919752E-3,-3.9759073E-2,2.3789598E-2,2.924583E-3,-2.2598943E-2,1.6950924E-3,9.5920067E-4,9.677891E-3,-8.068548E-3,-2.5721937E-2,-1.0747125E-2,5.1106447E-3,1.02402065E-2,-1.0576214E-2,2.1344401E-2,4.2021023E-3,1.8276276E-2,3.0982222E-2,-2.6981063E-2,1.9263828E-2,2.8129758E-2,1.964784E-2,2.850439E-2,1.3865467E-2,1.3567049E-2,-3.0197944E-2,-7.23898E-3,2.6829315E-2],"split_indices":[0,1,0,0,1,2,1,4,2,0,4,1,4,7,4,3,0,4,4,2,2,4,0,0,1,1,3,2,1,2,3,0,0,0,0,0,0,0,0,0,0,0,0,0,0,0,0,0,0,0,0,0,0,0,0,0,0,0,0,0,0,0,0],"split_type":[0,0,0,0,0,0,0,0,0,0,0,0,0,0,0,0,0,0,0,0,0,0,0,0,0,0,0,0,0,0,0,0,0,0,0,0,0,0,0,0,0,0,0,0,0,0,0,0,0,0,0,0,0,0,0,0,0,0,0,0,0,0,0],"sum_hessian":[3.3151414E4,2.4859812E4,8.291602E3,4.946815E3,1.9912998E4,4.503979E3,3.7876226E3,4.401164E3,5.4565076E2,1.2759709E4,7.1532886E3,3.342906E3,1.1610729E3,2.5805234E3,1.2070992E3,3.1495486E2,4.0862092E3,4.0981495E1,5.0466928E2,1.02131116E3,1.1738397E4,1.2711576E3,5.882131E3,5.0292395E2,2.8399822E3,8.776981E2,2.8337476E2,1.7306554E3,8.49868E2,6.529238E2,5.541755E2,2.3682318E2,7.8131676E1,4.302063E2,3.656003E3,1.0281322E1,3.0700172E1,1.7650229E2,3.2816696E2,7.9469037E2,2.266208E2,8.861759E3,2.8766384E3,2.2555202E2,1.0456056E3,4.4764634E3,1.4056675E3,1.8270482E2,3.2021912E2,9.265425E2,1.9134397E3,6.145999E2,2.6309827E2,4.9430687E1,2.3394408E2,1.667295E3,6.3360363E1,5.0620816E2,3.4365982E2,6.043201E2,4.8603672E1,2.5768068E1,5.284074E2],"tree_param":{"num_deleted":"0","num_feature":"8","num_nodes":"63","size_leaf_vector":"1"}},{"base_weights":[-8.1347575E-4,-2.5030497E-1,8.4125257E-1,-7.669652E-1,-8.816199E-2,5.757891E-1,1.1921337E0,-8.868763E-1,3.1844494E-1,1.7613403E-1,-4.463098E-1,3.773165E-2,6.607871E-1,1.402619E0,9.9220556E-1,1.0790532E-1,-9.75269E-1,9.856843E-1,-2.3475828E-2,-7.5525916E-1,2.5494847E-1,-1.1398473E0,-3.1572565E-1,-2.9529816E-1,9.6292996E-1,1.135984E0,4.6693352E-1,1.4475834E0,1.3290097E0,4.655667E-1,1.266175E0,1.4785831E-2,-5.7886615E-3,-3.5468289E-3,-2.1187715E-2,-1.0306872E-3,2.6351003E-2,-7.750209E-3,2.001322E-2,-1.7598463E-2,1.8346842E-2,-1.298649E-3,6.7673265E-3,-8.465423E-3,-2.6581695E-2,-9.149746E-3,3.8216833E-3,-2.2668071E-2,1.0828492E-2,-1.2531762E-2,2.4275044E-2,-2.8360158E-3,2.3642957E-2,-5.788463E-3,1.2734035E-2,2.9281994E-2,2.2185512E-3,2.8265178E-2,1.9206088E-2,1.2158386E-2,-2.7763763E-2,1.4785409E-2,2.6557965E-2],"categories":[],"categories_nodes":[],"categories_segments":[],"categories_sizes":[],"default_left":[0,0,0,0,0,0,0,0,0,0,0,0,0,0,0,0,0,0,0,0,0,0,0,0,0,0,0,0,0,0,0,0,0,0,0,0,0,0,0,0,0,0,0,0,0,0,0,0,0,0,0,0,0,0,0,0,0,0,0,0,0,0,0],"id":17,"left_children":[1,3,5,7,9,11,13,15,17,19,21,23,25,27,29,31,33,35,37,39,41,43,45,47,49,51,53,55,57,59,61,-1,-1,-1,-1,-1,-1,-1,-1,-1,-1,-1,-1,-1,-1,-1,-1,-1,-1,-1,-1,-1,-1,-1,-1,-1,-1,-1,-1,-1,-1,-1,-1],"loss_changes":[6.930775E3,2.13185E3,7.014844E2,7.915134E2,1.8338016E3,1.9631958E2,1.3499023E2,4.8156494E2,1.3823767E2,8.184132E2,7.444817E2,1.8125175E2,3.4094202E2,3.0239258E0,2.4000122E2,1.1253743E2,3.371543E2,7.084273E1,1.4988716E2,1.8217282E2,2.7431018E2,1.7594263E2,4.9758203E2,3.038994E2,6.2899673E1,6.3606567E1,3.386844E2,2.1052246E1,1.7409058E1,1.5190329E2,3.4487183E1,0E0,0E0,0E0,0E0,0E0,0E0,0E0,0E0,0E0,0E0,0E0,0E0,0E0,0E0,0E0,0E0,0E0,0E0,0E0,0E0,0E0,0E0,0E0,0E0,0E0,0E0,0E0,0E0,0E0,0E0,0E0,0E0],"parents":[2147483647,0,0,1,1,2,2,3,3,4,4,5,5,6,6,7,7,8,8,9,9,10,10,11,11,12,12,13,13,14,14,15,15,16,16,17,17,18,18,19,19,20,20,21,21,22,22,23,23,24,24,25,25,26,26,27,27,28,28,29,29,30,30],"right_children":[2,4,6,8,10,12,14,16,18,20,22,24,26,28,30,32,34,36,38,40,42,44,46,48,50,52,54,56,58,60,62,-1,-1,-1,-1,-1,-1,-1,-1,-1,-1,-1,-1,-1,-1,-1,-1,-1,-1,-1,-1,-1,-1,-1,-1,-1,-1,-1,-1,-1,-1,-1,-1],"split_conditions":[5.3614136E-3,7E0,7.730889E-3,4.5720623E-3,1.5E1,7E0,8E0,-2.0177122E-2,-2.2600469E4,1.953406E-3,-1.28721045E-2,2.1202797E-2,1.4E1,1.2749984E-2,4.4338917E-3,3.162213E-3,1.7207045E-3,-6.7437615E-4,1.9658273E-2,1.3325705E-2,2.4086342E-3,-2.9234197E-2,4.145654E-3,6.4476603E-3,6.835471E-1,-4.5553807E-2,-2.5245119E-2,7.255921E-2,4E0,-1.2018516E-2,8.3564315E-3,1.4785831E-2,-5.7886615E-3,-3.5468289E-3,-2.1187715E-2,-1.0306872E-3,2.6351003E-2,-7.750209E-3,2.001322E-2,-1.7598463E-2,1.8346842E-2,-1.298649E-3,6.7673265E-3,-8.465423E-3,-2.6581695E-2,-9.149746E-3,3.8216833E-3,-2.2668071E-2,1.0828492E-2,-1.2531762E-2,2.4275044E-2,-2.8360158E-3,2.3642957E-2,-5.788463E-3,1.2734035E-2,2.9281994E-2,2.2185512E-3,2.8265178E-2,1.9206088E-2,1.2158386E-2,-2.7763763E-2,1.4785409E-2,2.6557965E-2],"split_indices":[0,1,0,0,1,1,1,4,3,0,4,4,1,5,4,0,0,4,4,4,0,4,0,0,6,4,4,4,1,4,0,0,0,0,0,0,0,0,0,0,0,0,0,0,0,0,0,0,0,0,0,0,0,0,0,0,0,0,0,0,0,0,0],"split_type":[0,0,0,0,0,0,0,0,0,0,0,0,0,0,0,0,0,0,0,0,0,0,0,0,0,0,0,0,0,0,0,0,0,0,0,0,0,0,0,0,0,0,0,0,0,0,0,0,0,0,0,0,0,0,0,0,0,0,0,0,0,0,0],"sum_hessian":[3.2988098E4,2.5448816E4,7.53928E3,6.0778174E3,1.9370998E4,4.2937305E3,3.2455493E3,5.473415E3,6.0440234E2,1.1146006E4,8.224993E3,5.8611365E2,3.7076167E3,1.577857E3,1.6676923E3,4.465492E2,5.0268657E3,2.0424307E2,4.001593E2,8.688211E2,1.0277186E4,1.3019247E3,6.923068E3,4.314013E2,1.5471234E2,1.0727032E3,2.6349133E3,9.670853E2,6.107717E2,5.7173566E2,1.0959567E3,1.7224161E2,2.743076E2,4.7980008E2,4.5470654E3,4.96402E1,1.5460287E2,2.95752E2,1.0440729E2,8.090535E2,5.9767544E1,2.125519E3,8.151666E3,2.727773E2,1.0291475E3,5.4100874E3,1.5129807E3,2.1540515E2,2.1599614E2,2.082742E1,1.3388492E2,3.7255558E1,1.0354478E3,4.8276962E2,2.1521438E3,9.551134E2,1.197195E1,4.946417E2,1.1613007E2,5.316365E2,4.0099155E1,1.16452156E2,9.795045E2],"tree_param":{"num_deleted":"0","num_feature":"8","num_nodes":"63","size_leaf_vector":"1"}},{"base_weights":[-6.553567E-4,-1.43817E-1,7.6572084E-1,-6.1724216E-1,1.3292468E-3,1.205955E0,5.903049E-1,2.7048245E-1,-7.570352E-1,2.5483197E-1,-3.266903E-1,7.7392244E-1,1.2816656E0,1.15635216E-1,7.9950523E-1,1.1278976E-1,1.5684288E0,-1.1242856E0,-5.098455E-1,9.997434E-2,6.2724733E-1,-3.9697126E-1,3.242772E-1,-2.6580456E-1,1.0620241E0,1.3933288E0,1.0449277E0,-4.856473E-2,8.775818E-1,5.302597E-1,1.0531394E0,2.0425761E-2,-3.2062845E-3,1.635765E-2,3.419867E-2,-3.0065073E-2,-1.8242126E-2,1.2664635E-2,-1.3819492E-2,1.9931398E-2,2.0633356E-4,-3.2126456E-2,1.31098E-2,-4.538849E-3,-1.2681489E-2,1.1257744E-2,-2.2370629E-2,1.6631491E-2,-2.0297157E-2,6.985271E-3,2.3927454E-2,2.8573122E-2,2.2870362E-2,1.1128823E-2,2.6921732E-2,5.535994E-4,-3.0099379E-2,2.1531379E-2,-6.857755E-3,2.6776489E-2,6.9517633E-3,2.2137832E-2,8.9944724E-4],"categories":[],"categories_nodes":[],"categories_segments":[],"categories_sizes":[],"default_left":[0,0,0,0,0,0,0,0,0,0,0,0,0,0,0,0,0,0,0,0,0,0,0,0,0,0,0,0,0,0,0,0,0,0,0,0,0,0,0,0,0,0,0,0,0,0,0,0,0,0,0,0,0,0,0,0,0,0,0,0,0,0,0],"id":18,"left_children":[1,3,5,7,9,11,13,15,17,19,21,23,25,27,29,31,33,35,37,39,41,43,45,47,49,51,53,55,57,59,61,-1,-1,-1,-1,-1,-1,-1,-1,-1,-1,-1,-1,-1,-1,-1,-1,-1,-1,-1,-1,-1,-1,-1,-1,-1,-1,-1,-1,-1,-1,-1,-1],"loss_changes":[3.6390728E3,1.9205413E3,4.0227026E2,8.141011E2,1.7788191E3,4.7421387E1,3.7073303E2,1.8240399E2,5.136487E2,6.957709E2,4.2677112E2,6.756831E1,3.168872E1,1.4324829E2,1.7631201E2,1.9806824E2,8.606079E0,1.8160327E2,7.020567E2,6.8512E2,2.2449377E2,3.3910156E2,3.1354694E2,4.1472416E1,1.6276825E1,5.654175E0,5.924295E1,1.0479016E2,4.9737183E1,1.8542075E2,7.210718E1,0E0,0E0,0E0,0E0,0E0,0E0,0E0,0E0,0E0,0E0,0E0,0E0,0E0,0E0,0E0,0E0,0E0,0E0,0E0,0E0,0E0,0E0,0E0,0E0,0E0,0E0,0E0,0E0,0E0,0E0,0E0,0E0],"parents":[2147483647,0,0,1,1,2,2,3,3,4,4,5,5,6,6,7,7,8,8,9,9,10,10,11,11,12,12,13,13,14,14,15,15,16,16,17,17,18,18,19,19,20,20,21,21,22,22,23,23,24,24,25,25,26,26,27,27,28,28,29,29,30,30],"right_children":[2,4,6,8,10,12,14,16,18,20,22,24,26,28,30,32,34,36,38,40,42,44,46,48,50,52,54,56,58,60,62,-1,-1,-1,-1,-1,-1,-1,-1,-1,-1,-1,-1,-1,-1,-1,-1,-1,-1,-1,-1,-1,-1,-1,-1,-1,-1,-1,-1,-1,-1,-1,-1],"split_conditions":[-1.0742746E4,7E0,1.6637658E0,-1.9404683E-2,1.5E1,-9.925937E3,-8.576076E3,-4.1354233E-3,-5.3117616E-4,5.6694224E-3,2.1746915E-2,-1.8070914E-2,1.5E1,2.7277099E-2,1.1752366E-2,-3.9826095E-2,2E0,-3.642206E4,-1.4547511E-3,-2.7533248E-2,-7.1954484E4,1.3300736E0,2.6056634E-2,1.3506284E0,6E0,4.125056E-2,-8.059636E3,3.034181E0,1.9E1,-6.826341E-2,3.564859E0,2.0425761E-2,-3.2062845E-3,1.635765E-2,3.419867E-2,-3.0065073E-2,-1.8242126E-2,1.2664635E-2,-1.3819492E-2,1.9931398E-2,2.0633356E-4,-3.2126456E-2,1.31098E-2,-4.538849E-3,-1.2681489E-2,1.1257744E-2,-2.2370629E-2,1.6631491E-2,-2.0297157E-2,6.985271E-3,2.3927454E-2,2.8573122E-2,2.2870362E-2,1.1128823E-2,2.6921732E-2,5.535994E-4,-3.0099379E-2,2.1531379E-2,-6.857755E-3,2.6776489E-2,6.9517633E-3,2.2137832E-2,8.9944724E-4],"split_indices":[3,1,7,4,1,3,3,2,4,2,4,4,1,4,4,4,1,3,2,4,3,7,2,7,1,2,3,7,1,4,7,0,0,0,0,0,0,0,0,0,0,0,0,0,0,0,0,0,0,0,0,0,0,0,0,0,0,0,0,0,0,0,0],"split_type":[0,0,0,0,0,0,0,0,0,0,0,0,0,0,0,0,0,0,0,0,0,0,0,0,0,0,0,0,0,0,0,0,0,0,0,0,0,0,0,0,0,0,0,0,0,0,0,0,0,0,0,0,0,0,0,0,0,0,0,0,0,0,0],"sum_hessian":[3.3166777E4,2.7947107E4,5.2196704E3,6.5571177E3,2.138999E4,1.4853936E3,3.7342769E3,8.9186694E2,5.665251E3,1.206576E4,9.32423E3,2.2336002E2,1.2620336E3,1.142961E3,2.591316E3,7.962868E2,9.558014E1,2.277545E3,3.387706E3,8.5231875E3,3.542572E3,8.416136E3,9.080949E2,4.8404358E1,1.7495566E2,8.539423E2,4.080912E2,9.409835E2,2.019775E2,1.2586648E3,1.3326511E3,1.8349739E2,6.1278937E2,1.6349337E1,7.9230804E1,8.15121E2,1.462424E3,4.6296436E2,2.9247417E3,7.7379944E2,7.749388E3,4.349334E1,3.4990786E3,4.902726E3,3.5134097E3,7.7981E2,1.2828491E2,1.9537636E1,2.8866722E1,2.8436304E1,1.4651935E2,7.4365784E2,1.1028449E2,1.5685252E2,2.5123866E2,8.9503937E2,4.5944164E1,1.7383502E2,2.8142483E1,2.3068771E2,1.027977E3,1.2650079E3,6.764312E1],"tree_param":{"num_deleted":"0","num_feature":"8","num_nodes":"63","size_leaf_vector":"1"}},{"base_weights":[-5.1392983E-3,-1.4889091E-1,8.196613E-1,-6.022265E-1,-8.559085E-3,5.6759167E-1,1.1236793E0,2.8516588E-1,-7.4754727E-1,2.4648878E-1,-3.4157676E-1,1.3168231E0,4.2724374E-1,1.2751485E0,8.458533E-1,1.0490026E0,1.3707179E-1,-1.1018255E0,-5.0525004E-1,-3.131672E-1,3.3574325E-1,-1.7654204E-1,-5.90361E-1,5.1853764E-3,1.344776E0,9.393473E-1,2.6022255E-1,1.2462782E0,3.17849E-2,9.133832E-1,-4.0342093E-2,-4.7353236E-3,2.5818316E-2,-1.0518173E-2,5.3667086E-3,-2.5837142E-2,-1.345964E-2,-1.2376274E-2,5.1053506E-3,-2.4870336E-3,-1.9110505E-2,6.1443257E-3,2.6162518E-2,-7.624982E-3,4.352498E-3,-4.8342724E-3,-1.7653808E-2,2.9316276E-2,2.2918116E-2,2.5140034E-2,1.1454303E-2,-6.422974E-4,1.0194196E-2,2.1233875E-2,2.605823E-2,1.4817883E-2,2.7728288E-2],"categories":[],"categories_nodes":[],"categories_segments":[],"categories_sizes":[],"default_left":[0,0,0,0,0,0,0,0,0,0,0,0,0,0,0,0,0,0,0,0,0,0,0,0,0,0,0,0,0,0,0,0,0,0,0,0,0,0,0,0,0,0,0,0,0,0,0,0,0,0,0,0,0,0,0,0,0],"id":19,"left_children":[1,3,5,7,9,11,13,15,17,19,21,23,25,27,29,31,33,35,37,39,41,43,45,-1,47,49,51,53,-1,55,-1,-1,-1,-1,-1,-1,-1,-1,-1,-1,-1,-1,-1,-1,-1,-1,-1,-1,-1,-1,-1,-1,-1,-1,-1,-1,-1],"loss_changes":[3.898016E3,1.781051E3,3.731228E2,8.53676E2,1.8160529E3,2.8000427E2,9.1736084E1,1.0515107E2,4.8745654E2,6.0492535E2,3.80568E2,1.1925293E1,1.9210077E2,1.0688721E1,1.5314758E2,4.740152E1,6.815189E1,1.8708179E2,2.9205048E2,2.0180896E2,2.8912366E2,4.5008228E2,3.7653943E2,0E0,7.915222E0,6.348651E1,1.239311E2,1.2107178E1,0E0,6.1248047E1,0E0,0E0,0E0,0E0,0E0,0E0,0E0,0E0,0E0,0E0,0E0,0E0,0E0,0E0,0E0,0E0,0E0,0E0,0E0,0E0,0E0,0E0,0E0,0E0,0E0,0E0,0E0],"parents":[2147483647,0,0,1,1,2,2,3,3,4,4,5,5,6,6,7,7,8,8,9,9,10,10,11,11,12,12,13,13,14,14,15,15,16,16,17,17,18,18,19,19,20,20,21,21,22,22,24,24,25,25,26,26,27,27,29,29],"right_children":[2,4,6,8,10,12,14,16,18,20,22,24,26,28,30,32,34,36,38,40,42,44,46,-1,48,50,52,54,-1,56,-1,-1,-1,-1,-1,-1,-1,-1,-1,-1,-1,-1,-1,-1,-1,-1,-1,-1,-1,-1,-1,-1,-1,-1,-1,-1,-1],"split_conditions":[8.015862E-3,7E0,1.8771395E-2,-1.9404683E-2,1.5E1,-6.826341E-2,2.2586398E0,-4.2554785E-2,-3.914421E-4,-5.052166E4,1.3651365E0,3.282532E-1,1.6792588E0,2.1E1,2.2E1,6.159066E-1,2.816133E-3,3.747538E-3,5.7893586E-3,1.0153761E0,3.0048024E-2,3.358445E-3,1.9E1,5.1853764E-3,1.3E1,1.3E1,-1.6606329E-2,9.802241E-3,3.17849E-2,-3.6617803E3,-4.0342093E-2,-4.7353236E-3,2.5818316E-2,-1.0518173E-2,5.3667086E-3,-2.5837142E-2,-1.345964E-2,-1.2376274E-2,5.1053506E-3,-2.4870336E-3,-1.9110505E-2,6.1443257E-3,2.6162518E-2,-7.624982E-3,4.352498E-3,-4.8342724E-3,-1.7653808E-2,2.9316276E-2,2.2918116E-2,2.5140034E-2,1.1454303E-2,-6.422974E-4,1.0194196E-2,2.1233875E-2,2.605823E-2,1.4817883E-2,2.7728288E-2],"split_indices":[5,1,4,4,1,4,7,4,4,3,7,6,7,1,1,6,5,5,5,7,4,5,1,0,1,1,4,5,0,3,0,0,0,0,0,0,0,0,0,0,0,0,0,0,0,0,0,0,0,0,0,0,0,0,0,0,0],"split_type":[0,0,0,0,0,0,0,0,0,0,0,0,0,0,0,0,0,0,0,0,0,0,0,0,0,0,0,0,0,0,0,0,0,0,0,0,0,0,0,0,0,0,0,0,0,0,0,0,0,0,0,0,0,0,0,0,0],"sum_hessian":[3.287476E4,2.7996322E4,4.8784404E3,6.6168584E3,2.1379465E4,2.6688333E3,2.209607E3,9.3087537E2,5.685983E3,1.2107028E4,9.272437E3,4.1962393E2,2.2492092E3,1.42743E3,7.82177E2,1.5007306E2,7.808023E2,2.3077356E3,3.3782476E3,1.6647637E3,1.0442265E4,5.575775E3,3.6966614E3,1.1162431E1,4.084615E2,5.518769E2,1.6973324E3,1.3121127E3,1.1531736E2,7.64852E2,1.7324999E1,2.3702452E1,1.263706E2,1.2841937E2,6.5238293E2,1.597567E3,7.101685E2,2.9396104E3,4.3863715E2,1.2876263E3,3.771373E2,1.0146027E4,2.96237E2,3.6700527E3,1.9057223E3,1.6869207E3,2.0097406E3,2.4964633E2,1.5881517E2,2.9424136E2,2.576355E2,7.817661E2,9.155663E2,3.1311E2,9.990027E2,5.625119E2,2.0234009E2],"tree_param":{"num_deleted":"0","num_feature":"8","num_nodes":"57","size_leaf_vector":"1"}},{"base_weights":[5.706378E-3,-2.5680345E-1,7.3628473E-1,-8.513867E-1,-1.1128731E-1,4.6081236E-1,1.1093861E0,-9.4639665E-1,1.391818E-1,8.398248E-2,-4.6692857E-1,3.192085E-1,8.730259E-1,1.3304038E0,9.2442477E-1,-1.5167744E-1,-1.0310751E0,-1.3818519E0,3.5945177E-1,-8.203506E-1,1.6404194E-1,-1.1188294E0,-3.3367032E-1,5.6035554E-1,1.382516E-1,1.0362959E0,4.1533425E-1,1.0058517E0,1.3581748E0,6.2634766E-1,1.228135E0,-3.320813E-2,9.488816E-3,-1.5812984E-2,-2.7016088E-2,1.0713292E-2,-3.885346E-2,2.8088626E-2,-1.777178E-3,-2.1530837E-2,1.6505865E-3,8.4133184E-4,1.0633459E-2,-1.0071865E-2,-2.7564138E-2,-1.00459885E-2,4.6972414E-3,-2.3474859E-3,1.9180264E-2,-8.477638E-4,1.08136805E-2,1.7869141E-2,2.9473102E-2,-2.9848563E-2,1.7250177E-2,8.010483E-3,2.73761E-2,2.8495653E-2,2.4551848E-2,1.3708825E-2,-4.1830648E-2,8.320108E-3,2.50943E-2],"categories":[],"categories_nodes":[],"categories_segments":[],"categories_sizes":[],"default_left":[0,0,0,0,0,0,0,0,0,0,0,0,0,0,0,0,0,0,0,0,0,0,0,0,0,0,0,0,0,0,0,0,0,0,0,0,0,0,0,0,0,0,0,0,0,0,0,0,0,0,0,0,0,0,0,0,0,0,0,0,0,0,0],"id":20,"left_children":[1,3,5,7,9,11,13,15,17,19,21,23,25,27,29,31,33,35,37,39,41,43,45,47,49,51,53,55,57,59,61,-1,-1,-1,-1,-1,-1,-1,-1,-1,-1,-1,-1,-1,-1,-1,-1,-1,-1,-1,-1,-1,-1,-1,-1,-1,-1,-1,-1,-1,-1,-1,-1],"loss_changes":[6.3405054E3,2.1041182E3,8.975371E2,4.502351E2,1.357091E3,2.931621E2,1.5024854E2,2.9336377E2,1.4086687E2,9.13407E2,6.011909E2,1.6327673E2,9.545984E1,1.3613037E1,1.8225854E2,3.9902164E2,3.0181787E2,5.837651E1,1.7222768E2,2.3752045E2,5.1964075E2,1.8662488E2,5.516382E2,4.3382596E2,1.5572139E2,5.757074E1,2.9105255E2,2.9419525E1,1.1484619E1,1.6568973E2,2.0923706E1,0E0,0E0,0E0,0E0,0E0,0E0,0E0,0E0,0E0,0E0,0E0,0E0,0E0,0E0,0E0,0E0,0E0,0E0,0E0,0E0,0E0,0E0,0E0,0E0,0E0,0E0,0E0,0E0,0E0,0E0,0E0,0E0],"parents":[2147483647,0,0,1,1,2,2,3,3,4,4,5,5,6,6,7,7,8,8,9,9,10,10,11,11,12,12,13,13,14,14,15,15,16,16,17,17,18,18,19,19,20,20,21,21,22,22,23,23,24,24,25,25,26,26,27,27,28,28,29,29,30,30],"right_children":[2,4,6,8,10,12,14,16,18,20,22,24,26,28,30,32,34,36,38,40,42,44,46,48,50,52,54,56,58,60,62,-1,-1,-1,-1,-1,-1,-1,-1,-1,-1,-1,-1,-1,-1,-1,-1,-1,-1,-1,-1,-1,-1,-1,-1,-1,-1,-1,-1,-1,-1,-1,-1],"split_conditions":[4.971197E-3,6E0,7.2875977E-3,4.401678E-3,1.6E1,1.3943447E-2,8E0,1.7382847E-3,-1.5108148E-2,1.953406E-3,-1.1393564E-2,1.4E1,3.6177743E-2,7.730889E-3,1.7594336E-2,-2.739264E-4,8.838368E-4,-4.2554785E-2,-2.0177122E-2,4.732541E-3,7.403242E-3,2.851959E-3,3.8676236E-3,7E0,2E1,2E1,7.7038696E-3,6E0,1.2749984E-2,1.21474955E-2,3.0479592E-1,-3.320813E-2,9.488816E-3,-1.5812984E-2,-2.7016088E-2,1.0713292E-2,-3.885346E-2,2.8088626E-2,-1.777178E-3,-2.1530837E-2,1.6505865E-3,8.4133184E-4,1.0633459E-2,-1.0071865E-2,-2.7564138E-2,-1.00459885E-2,4.6972414E-3,-2.3474859E-3,1.9180264E-2,-8.477638E-4,1.08136805E-2,1.7869141E-2,2.9473102E-2,-2.9848563E-2,1.7250177E-2,8.010483E-3,2.73761E-2,2.8495653E-2,2.4551848E-2,1.3708825E-2,-4.1830648E-2,8.320108E-3,2.50943E-2],"split_indices":[0,1,0,0,1,2,1,0,2,0,4,1,4,0,4,4,2,4,4,2,2,0,0,1,1,1,5,1,5,2,6,0,0,0,0,0,0,0,0,0,0,0,0,0,0,0,0,0,0,0,0,0,0,0,0,0,0,0,0,0,0,0,0],"split_type":[0,0,0,0,0,0,0,0,0,0,0,0,0,0,0,0,0,0,0,0,0,0,0,0,0,0,0,0,0,0,0,0,0,0,0,0,0,0,0,0,0,0,0,0,0,0,0,0,0,0,0,0,0,0,0,0,0,0,0,0,0,0,0],"sum_hessian":[3.305842E4,2.4320238E4,8.738185E3,4.780684E3,1.9539555E4,5.028206E3,3.7099783E3,4.362411E3,4.1827298E2,1.2614093E4,6.925461E3,3.7440608E3,1.2841451E3,1.6871732E3,2.022805E3,4.2044522E2,3.9419658E3,5.218584E1,3.6608713E2,1.0250353E3,1.1589058E4,1.174016E3,5.7514453E3,1.6039512E3,2.1401096E3,9.454109E2,3.387343E2,1.3620491E2,1.5509684E3,1.0225815E3,1.0002236E3,1.22872536E2,2.975727E2,2.2521836E3,1.6897822E3,1.1778895E1,4.0406944E1,1.0933216E2,2.5675497E2,7.984066E2,2.2662872E2,8.702923E3,2.8861343E3,3.491558E2,8.248602E2,4.4360005E3,1.3154445E3,5.942179E2,1.0097333E3,1.4775349E3,6.6257465E2,7.1512634E2,2.3028453E2,6.3835304E1,2.7489902E2,5.1947216E1,8.425769E1,1.020004E3,5.309643E2,1.001589E3,2.0992489E1,3.234571E1,9.6787787E2],"tree_param":{"num_deleted":"0","num_feature":"8","num_nodes":"63","size_leaf_vector":"1"}},{"base_weights":[3.875963E-3,-2.5972423E-1,7.3258966E-1,-8.6450934E-1,-1.14700995E-1,4.6398968E-1,1.1007195E0,-9.701082E-1,9.022592E-2,7.4451834E-2,-4.6008775E-1,3.046295E-1,8.6997527E-1,1.2897044E0,9.1640973E-1,-1.4774929E-1,-1.0607666E0,-1.2213368E0,3.0261657E-1,-4.2182228E-1,2.232206E-1,-5.7680845E-1,-5.7903663E-3,9.1692224E-2,5.2445513E-1,1.107835E0,6.5339875E-1,1.0278668E0,1.3151958E0,7.20821E-1,1.2472508E0,-2.2611376E-2,9.137314E-3,-8.44703E-3,-2.3797538E-2,4.908076E-3,-3.8007446E-2,1.4753904E-2,-6.0274885E-3,-1.4162916E-2,4.8236577E-3,3.8737562E-3,2.1947298E-2,-7.937876E-3,-2.2332542E-2,-1.7418198E-2,4.693985E-3,7.221718E-3,-2.3613665E-3,-3.97487E-2,1.1110382E-2,1.3759119E-2,2.7186608E-2,7.877204E-3,2.4689514E-2,5.9182295E-3,2.6351046E-2,2.7471904E-2,2.4104485E-2,-1.9092036E-2,1.5697073E-2,1.3958073E-2,2.6770867E-2],"categories":[],"categories_nodes":[],"categories_segments":[],"categories_sizes":[],"default_left":[0,0,0,0,0,0,0,0,0,0,0,0,0,0,0,0,0,0,0,0,0,0,0,0,0,0,0,0,0,0,0,0,0,0,0,0,0,0,0,0,0,0,0,0,0,0,0,0,0,0,0,0,0,0,0,0,0,0,0,0,0,0,0],"id":21,"left_children":[1,3,5,7,9,11,13,15,17,19,21,23,25,27,29,31,33,35,37,39,41,43,45,47,49,51,53,55,57,59,61,-1,-1,-1,-1,-1,-1,-1,-1,-1,-1,-1,-1,-1,-1,-1,-1,-1,-1,-1,-1,-1,-1,-1,-1,-1,-1,-1,-1,-1,-1,-1,-1],"loss_changes":[6.3417295E3,2.1262114E3,8.6651514E2,4.7290308E2,1.2777053E3,3.2778906E2,1.27430176E2,3.144956E2,1.305861E2,9.3304895E2,3.669071E2,1.7047565E2,7.271936E1,1.0584717E1,1.20313354E2,2.5045984E2,3.1276807E2,6.569604E1,1.0628841E2,5.5351904E2,2.5066959E2,5.341312E2,2.94829E2,1.0475318E2,1.408435E2,7.060535E1,1.12560486E2,3.4795425E1,8.733154E0,1.2750751E2,3.374414E1,0E0,0E0,0E0,0E0,0E0,0E0,0E0,0E0,0E0,0E0,0E0,0E0,0E0,0E0,0E0,0E0,0E0,0E0,0E0,0E0,0E0,0E0,0E0,0E0,0E0,0E0,0E0,0E0,0E0,0E0,0E0,0E0],"parents":[2147483647,0,0,1,1,2,2,3,3,4,4,5,5,6,6,7,7,8,8,9,9,10,10,11,11,12,12,13,13,14,14,15,15,16,16,17,17,18,18,19,19,20,20,21,21,22,22,23,23,24,24,25,25,26,26,27,27,28,28,29,29,30,30],"right_children":[2,4,6,8,10,12,14,16,18,20,22,24,26,28,30,32,34,36,38,40,42,44,46,48,50,52,54,56,58,60,62,-1,-1,-1,-1,-1,-1,-1,-1,-1,-1,-1,-1,-1,-1,-1,-1,-1,-1,-1,-1,-1,-1,-1,-1,-1,-1,-1,-1,-1,-1,-1,-1],"split_conditions":[4.971197E-3,6E0,7.2875977E-3,4.3111234E-3,1.6E1,1.21474955E-2,9E0,1.7382847E-3,-1.5523245E-2,2.311007E-3,4.0732273E-3,5.8861165E-3,1.5E1,7.730889E-3,2.272507E-2,4E0,-8.706418E-3,1E0,-7.275455E-4,4.605896E-3,2.0400641E-2,2.2E1,-9.53151E-3,1.4E1,-2.854117E4,1.1E1,2.1E1,6E0,1.2749984E-2,1.1E1,8.3564315E-3,-2.2611376E-2,9.137314E-3,-8.44703E-3,-2.3797538E-2,4.908076E-3,-3.8007446E-2,1.4753904E-2,-6.0274885E-3,-1.4162916E-2,4.8236577E-3,3.8737562E-3,2.1947298E-2,-7.937876E-3,-2.2332542E-2,-1.7418198E-2,4.693985E-3,7.221718E-3,-2.3613665E-3,-3.97487E-2,1.1110382E-2,1.3759119E-2,2.7186608E-2,7.877204E-3,2.4689514E-2,5.9182295E-3,2.6351046E-2,2.7471904E-2,2.4104485E-2,-1.9092036E-2,1.5697073E-2,1.3958073E-2,2.6770867E-2],"split_indices":[0,1,0,0,1,2,1,0,2,0,0,0,1,0,2,1,2,1,2,2,2,1,2,1,3,1,1,1,5,1,0,0,0,0,0,0,0,0,0,0,0,0,0,0,0,0,0,0,0,0,0,0,0,0,0,0,0,0,0,0,0,0,0],"split_type":[0,0,0,0,0,0,0,0,0,0,0,0,0,0,0,0,0,0,0,0,0,0,0,0,0,0,0,0,0,0,0,0,0,0,0,0,0,0,0,0,0,0,0,0,0,0,0,0,0,0,0,0,0,0,0,0,0,0,0,0,0,0,0],"sum_hessian":[3.301229E4,2.4243213E4,8.769077E3,4.6878774E3,1.9555334E4,5.0713677E3,3.6977095E3,4.221091E3,4.667867E2,1.2635779E4,6.919555E3,3.6432795E3,1.428088E3,1.8224696E3,1.87524E3,4.1950555E2,3.8015852E3,6.4327545E1,4.0245917E2,2.9136611E3,9.722118E3,5.5047524E3,1.4148026E3,1.8515862E3,1.7916935E3,6.784208E2,7.4966724E2,1.6570056E2,1.656769E3,1.1807046E3,6.9453534E2,1.5951106E2,2.5999448E2,6.403375E2,3.1612476E3,2.0512072E1,4.3815475E1,2.3390926E2,1.6854991E2,2.0349403E3,8.7872064E2,9.405686E3,3.1643326E2,4.1301475E3,1.374605E3,3.0726492E2,1.1075377E3,8.1046643E2,1.0411198E3,2.1078146E1,1.7706152E3,2.5568314E2,4.2273764E2,5.1948755E2,2.301797E2,4.7655346E1,1.1804521E2,1.0740199E3,5.8274915E2,4.289448E1,1.1378102E3,1.0036087E2,5.9417444E2],"tree_param":{"num_deleted":"0","num_feature":"8","num_nodes":"63","size_leaf_vector":"1"}},{"base_weights":[-1.4636705E-2,-2.6060754E-1,7.7262217E-1,-5.166362E-1,-1.676729E-1,4.7890458E-1,1.0897241E0,-1.4472514E0,-4.9424094E-1,-2.3919855E-1,8.707081E-2,2.9410753E-1,8.7525284E-1,8.881159E-1,1.2438443E0,-6.555615E-1,-1.6186769E0,-1.2997712E0,-4.7435683E-1,-9.875065E-2,-3.7401596E-1,-9.903615E-3,5.894314E-1,3.1761235E-1,-4.119993E-2,9.750036E-1,4.7660458E-1,9.4275147E-1,-3.482057E-1,6.5097195E-1,1.264267E0,-3.455596E-2,2.471368E-2,-1.0560838E-2,-3.4804877E-2,-3.41596E-2,-1.7431378E-4,-4.9969223E-3,-1.102844E-2,3.9069364E-3,-4.4207624E-3,-1.2000869E-2,-3.6299515E-3,8.016268E-4,-1.6858924E-2,3.1449523E-2,7.871488E-3,-2.6876153E-3,8.062242E-3,1.3978573E-2,2.1793796E-2,-3.1179568E-2,1.7718425E-2,-1.3713748E-2,1.930573E-2,-4.3102715E-2,5.9030293E-3,-6.0258065E-3,2.1345122E-2,2.8651735E-2,2.4487855E-2],"categories":[],"categories_nodes":[],"categories_segments":[],"categories_sizes":[],"default_left":[0,0,0,0,0,0,0,0,0,0,0,0,0,0,0,0,0,0,0,0,0,0,0,0,0,0,0,0,0,0,0,0,0,0,0,0,0,0,0,0,0,0,0,0,0,0,0,0,0,0,0,0,0,0,0,0,0,0,0,0,0],"id":22,"left_children":[1,3,5,7,9,11,13,15,17,19,21,23,25,27,29,31,33,35,37,39,41,43,45,47,-1,49,51,53,55,57,59,-1,-1,-1,-1,-1,-1,-1,-1,-1,-1,-1,-1,-1,-1,-1,-1,-1,-1,-1,-1,-1,-1,-1,-1,-1,-1,-1,-1,-1,-1],"loss_changes":[6.313037E3,5.909005E2,7.221758E2,1.3694983E2,3.321433E2,2.948756E2,1.14612305E2,1.9722717E1,1.0269165E2,2.693913E2,1.947422E2,1.5269507E2,5.033551E1,1.0983154E2,2.4554688E1,6.168309E1,1.5623291E1,8.147302E1,1.089043E2,2.5079112E2,3.1575824E2,1.3962344E2,1.2371283E2,1.05374695E2,0E0,3.1468018E1,2.167525E2,5.7644775E1,8.129615E1,2.9156366E1,1.1673584E1,0E0,0E0,0E0,0E0,0E0,0E0,0E0,0E0,0E0,0E0,0E0,0E0,0E0,0E0,0E0,0E0,0E0,0E0,0E0,0E0,0E0,0E0,0E0,0E0,0E0,0E0,0E0,0E0,0E0,0E0],"parents":[2147483647,0,0,1,1,2,2,3,3,4,4,5,5,6,6,7,7,8,8,9,9,10,10,11,11,12,12,13,13,14,14,15,15,16,16,17,17,18,18,19,19,20,20,21,21,22,22,23,23,25,25,26,26,27,27,28,28,29,29,30,30],"right_children":[2,4,6,8,10,12,14,16,18,20,22,24,26,28,30,32,34,36,38,40,42,44,46,48,-1,50,52,54,56,58,60,-1,-1,-1,-1,-1,-1,-1,-1,-1,-1,-1,-1,-1,-1,-1,-1,-1,-1,-1,-1,-1,-1,-1,-1,-1,-1,-1,-1,-1,-1],"split_conditions":[5.255864E-3,2.3713093E-3,7.2875977E-3,-1.5024655E-2,8.959779E-3,1.0678526E-2,3.9664167E-3,-1.3406445E-2,1.3740992E-3,3.1734556E-3,4.6078637E-3,1.8771395E-2,3.9064188E-2,1.7963174E-3,3.2268414E-1,-1.3715047E-2,3.1705317E-1,-4.8859297E4,1.0106404E0,-1.010238E-2,3.8676236E-3,3.381571E-2,8.1256866E-1,-1.9986107E4,-4.119993E-2,6.353589E-1,-1.0347129E4,2.6884305E-1,9.2000777E-1,3.381571E-2,4.605896E-3,-3.455596E-2,2.471368E-2,-1.0560838E-2,-3.4804877E-2,-3.41596E-2,-1.7431378E-4,-4.9969223E-3,-1.102844E-2,3.9069364E-3,-4.4207624E-3,-1.2000869E-2,-3.6299515E-3,8.016268E-4,-1.6858924E-2,3.1449523E-2,7.871488E-3,-2.6876153E-3,8.062242E-3,1.3978573E-2,2.1793796E-2,-3.1179568E-2,1.7718425E-2,-1.3713748E-2,1.930573E-2,-4.3102715E-2,5.9030293E-3,-6.0258065E-3,2.1345122E-2,2.8651735E-2,2.4487855E-2],"split_indices":[0,0,0,4,2,2,4,2,0,0,0,4,4,2,6,2,6,3,7,4,0,4,7,3,0,6,3,6,6,4,2,0,0,0,0,0,0,0,0,0,0,0,0,0,0,0,0,0,0,0,0,0,0,0,0,0,0,0,0,0,0],"split_type":[0,0,0,0,0,0,0,0,0,0,0,0,0,0,0,0,0,0,0,0,0,0,0,0,0,0,0,0,0,0,0,0,0,0,0,0,0,0,0,0,0,0,0,0,0,0,0,0,0,0,0,0,0,0,0,0,0,0,0,0,0],"sum_hessian":[3.2599693E4,2.4839611E4,7.7600815E3,6.613695E3,1.8225916E4,4.0300488E3,3.7300327E3,1.538182E2,6.4598765E3,1.4230736E4,3.9951802E3,2.7499033E3,1.2801456E3,1.6192572E3,2.1107754E3,2.8340677E1,1.2547753E2,1.5394571E2,6.3059307E3,6.9710366E3,7.259699E3,3.3494014E3,6.457788E2,2.7236167E3,2.6286676E1,1.0225772E3,2.5756836E2,1.5510322E3,6.822491E1,7.154634E1,2.0392291E3,1.8175453E1,1.0165225E1,1.320203E1,1.122755E2,1.166596E2,3.7286102E1,1.6128431E3,4.6930874E3,2.0468977E3,4.924139E3,3.3380283E3,3.9216707E3,3.1605889E3,1.8881258E2,1.06034E2,5.397448E2,4.329725E2,2.290644E3,3.024588E2,7.2011847E2,4.261008E1,2.1495828E2,2.0708704E1,1.5303236E3,1.7337233E1,5.0887676E1,2.1773905E1,4.9772438E1,3.8339114E2,1.655838E3],"tree_param":{"num_deleted":"0","num_feature":"8","num_nodes":"61","size_leaf_vector":"1"}},{"base_weights":[-5.5242823E-3,-1.4113729E-1,7.563936E-1,-6.8630654E-1,-1.3362817E-2,5.1603717E-1,1.0521226E0,1.9943692E-1,-8.2354754E-1,1.9617048E-1,-3.0820724E-1,1.2441232E0,3.9828354E-1,1.2028794E0,7.6961684E-1,1.4269265E-2,1.6047637E0,-1.133764E0,-6.024741E-1,6.697063E-2,6.032645E-1,-1.5800287E-1,-5.7202274E-1,1.4160527E0,9.6937954E-1,8.240237E-1,1.9588342E-1,1.1706532E0,3.0018903E-2,8.4009343E-1,-3.9841026E-2,-1.5171053E-2,7.1131415E-3,2.0407608E-2,3.437972E-2,-2.777149E-2,-1.1700805E-2,1.4448004E-2,-1.6055383E-2,1.8073726E-2,-2.3411545E-4,9.953535E-3,2.4691101E-2,-7.4205426E-3,2.55786E-3,-4.722788E-3,-1.712936E-2,2.953051E-2,3.4302308E-3,-1.4260845E-2,2.7191337E-2,2.2727625E-2,9.412804E-3,-1.4750535E-3,8.571058E-3,1.9599738E-2,2.4611916E-2,-4.2691673E-3,1.9212108E-2],"categories":[],"categories_nodes":[],"categories_segments":[],"categories_sizes":[],"default_left":[0,0,0,0,0,0,0,0,0,0,0,0,0,0,0,0,0,0,0,0,0,0,0,0,0,0,0,0,0,0,0,0,0,0,0,0,0,0,0,0,0,0,0,0,0,0,0,0,0,0,0,0,0,0,0,0,0,0,0],"id":23,"left_children":[1,3,5,7,9,11,13,15,17,19,21,23,25,27,29,31,33,35,37,39,41,43,45,47,49,51,53,55,-1,57,-1,-1,-1,-1,-1,-1,-1,-1,-1,-1,-1,-1,-1,-1,-1,-1,-1,-1,-1,-1,-1,-1,-1,-1,-1,-1,-1,-1,-1],"loss_changes":[3.3830085E3,1.9360615E3,3.5093652E2,6.417388E2,1.3912493E3,2.3349481E2,9.3292725E1,1.8423349E2,3.1253052E2,6.922717E2,3.7055475E2,1.6321106E1,2.0245303E2,1.1841309E1,1.5227884E2,1.6572144E2,3.474594E0,2.6466724E2,7.092444E2,6.579978E2,2.1058398E2,3.632296E2,3.23901E2,1.6975525E1,9.9186066E1,8.29256E1,1.0019142E2,1.3516357E1,0E0,9.624689E1,0E0,0E0,0E0,0E0,0E0,0E0,0E0,0E0,0E0,0E0,0E0,0E0,0E0,0E0,0E0,0E0,0E0,0E0,0E0,0E0,0E0,0E0,0E0,0E0,0E0,0E0,0E0,0E0,0E0],"parents":[2147483647,0,0,1,1,2,2,3,3,4,4,5,5,6,6,7,7,8,8,9,9,10,10,11,11,12,12,13,13,14,14,15,15,16,16,17,17,18,18,19,19,20,20,21,21,22,22,23,23,24,24,25,25,26,26,27,27,29,29],"right_children":[2,4,6,8,10,12,14,16,18,20,22,24,26,28,30,32,34,36,38,40,42,44,46,48,50,52,54,56,-1,58,-1,-1,-1,-1,-1,-1,-1,-1,-1,-1,-1,-1,-1,-1,-1,-1,-1,-1,-1,-1,-1,-1,-1,-1,-1,-1,-1,-1,-1],"split_conditions":[7.857829E-3,6E0,1.7594336E-2,-1.9404683E-2,1.5E1,-6.826341E-2,2.2586398E0,-4.030102E-3,-3.914421E-4,7.403242E-3,1.4086384E0,6E0,1.7782499E0,2.1E1,2.2E1,7.222952E-1,2E0,3.747538E-3,-1.7297934E-3,-2.7533248E-2,2.0400641E-2,3.017334E-3,1.9E1,2.4971342E0,2E1,1.3E1,-1.6606329E-2,3.0048024E-2,3.0018903E-2,9.225274E-3,-3.9841026E-2,-1.5171053E-2,7.1131415E-3,2.0407608E-2,3.437972E-2,-2.777149E-2,-1.1700805E-2,1.4448004E-2,-1.6055383E-2,1.8073726E-2,-2.3411545E-4,9.953535E-3,2.4691101E-2,-7.4205426E-3,2.55786E-3,-4.722788E-3,-1.712936E-2,2.953051E-2,3.4302308E-3,-1.4260845E-2,2.7191337E-2,2.2727625E-2,9.412804E-3,-1.4750535E-3,8.571058E-3,1.9599738E-2,2.4611916E-2,-4.2691673E-3,1.9212108E-2],"split_indices":[5,1,4,4,1,4,7,2,4,2,7,1,7,1,1,6,1,5,2,4,2,5,1,7,1,1,4,4,0,5,0,0,0,0,0,0,0,0,0,0,0,0,0,0,0,0,0,0,0,0,0,0,0,0,0,0,0,0,0],"split_type":[0,0,0,0,0,0,0,0,0,0,0,0,0,0,0,0,0,0,0,0,0,0,0,0,0,0,0,0,0,0,0,0,0,0,0,0,0,0,0,0,0,0,0,0,0,0,0,0,0,0,0,0,0,0,0,0,0,0,0],"sum_hessian":[3.273969E4,2.7793668E4,4.946021E3,5.2763145E3,2.2517354E4,2.7301501E3,2.215871E3,7.076985E2,4.568616E3,1.3162981E4,9.354371E3,3.7862805E2,2.351522E3,1.4424879E3,7.7338324E2,6.2626263E2,8.143585E1,1.8991267E3,2.6694893E3,9.992927E3,3.170055E3,5.961912E3,3.3924595E3,2.3011089E2,1.4851715E2,7.565614E2,1.5949607E3,1.3064952E3,1.3599263E2,7.5485175E2,1.8531488E1,1.9141933E2,4.3484332E2,1.5082039E1,6.635381E1,1.295721E3,6.034057E2,3.5016666E2,2.3193228E3,8.5808307E2,9.134844E3,2.7174836E3,4.5257132E2,3.4163801E3,2.5455317E3,1.5565776E3,1.835882E3,2.1919344E2,1.0917457E1,2.7755676E1,1.2076148E2,4.0026575E2,3.562957E2,7.389079E2,8.5605273E2,3.1704663E2,9.894486E2,7.7317505E1,6.7753424E2],"tree_param":{"num_deleted":"0","num_feature":"8","num_nodes":"59","size_leaf_vector":"1"}},{"base_weights":[5.5519934E-3,-1.2404193E-1,7.473691E-1,-3.0093688E-1,3.4477152E-2,5.169727E-1,1.0343536E0,-3.647074E-1,1.9686948E-1,4.6865207E-1,-6.927562E-2,1.1864997E0,4.1206038E-1,1.1864479E0,7.6726437E-1,7.6903635E-1,-3.9979097E-1,-3.5915785E-2,2.600885E-1,2.8517684E-1,9.697255E-1,-2.429592E-1,4.377689E-2,5.7824575E-3,1.2115617E0,8.625505E-1,2.5080848E-1,5.050952E-1,1.2030504E0,5.9750974E-1,1.307376E0,2.3950007E-2,-8.715072E-4,-5.2560503E-3,-1.0992281E-2,6.4704097E-3,-3.4604862E-2,2.0341258E-2,2.7057242E-3,-4.1139536E-2,2.0361356E-2,-8.367136E-3,-5.124104E-5,3.5720442E-3,-3.943588E-3,1.762284E-2,2.5683738E-2,1.28495265E-2,2.4644274E-2,-7.399018E-4,9.896277E-3,-7.481797E-3,2.2863831E-2,2.5737869E-2,2.2730641E-2,1.6453568E-2,7.507899E-3,2.71148E-2,8.727886E-3],"categories":[],"categories_nodes":[],"categories_segments":[],"categories_sizes":[],"default_left":[0,0,0,0,0,0,0,0,0,0,0,0,0,0,0,0,0,0,0,0,0,0,0,0,0,0,0,0,0,0,0,0,0,0,0,0,0,0,0,0,0,0,0,0,0,0,0,0,0,0,0,0,0,0,0,0,0,0,0],"id":24,"left_children":[1,3,5,7,9,11,13,15,17,19,21,23,25,27,29,31,33,-1,35,37,39,41,43,-1,45,47,49,51,53,55,57,-1,-1,-1,-1,-1,-1,-1,-1,-1,-1,-1,-1,-1,-1,-1,-1,-1,-1,-1,-1,-1,-1,-1,-1,-1,-1,-1,-1],"loss_changes":[3.1633938E3,7.855127E2,3.228811E2,4.2036023E2,6.6557855E2,1.9017316E2,8.737158E1,4.670786E2,1.8975581E2,2.6159137E2,2.3417961E2,7.7615356E0,1.7040295E2,1.4896606E1,7.176608E1,1.229077E2,2.3342957E2,0E0,1.8455576E2,2.2875565E2,1.1366675E2,1.982239E2,2.3470988E2,0E0,7.2177734E0,4.937451E1,1.21718704E2,2.0043753E1,5.8345947E0,2.985939E1,7.179291E0,0E0,0E0,0E0,0E0,0E0,0E0,0E0,0E0,0E0,0E0,0E0,0E0,0E0,0E0,0E0,0E0,0E0,0E0,0E0,0E0,0E0,0E0,0E0,0E0,0E0,0E0,0E0,0E0],"parents":[2147483647,0,0,1,1,2,2,3,3,4,4,5,5,6,6,7,7,8,8,9,9,10,10,11,11,12,12,13,13,14,14,15,15,16,16,18,18,19,19,20,20,21,21,22,22,24,24,25,25,26,26,27,27,28,28,29,29,30,30],"right_children":[2,4,6,8,10,12,14,16,18,20,22,24,26,28,30,32,34,-1,36,38,40,42,44,-1,46,48,50,52,54,56,58,-1,-1,-1,-1,-1,-1,-1,-1,-1,-1,-1,-1,-1,-1,-1,-1,-1,-1,-1,-1,-1,-1,-1,-1,-1,-1,-1,-1],"split_conditions":[7.857829E-3,3.017334E-3,1.7594336E-2,9.308491E-3,1.150684E0,-6.826341E-2,2.2402482E0,-2.7533248E-2,-7.059784E4,5.0640996E-3,-3.43378E-3,3.6544386E-1,1.7023766E0,2.7696875E-1,-3.6617803E3,2.4475916E-3,1.1004795E0,-3.5915785E-2,3.381571E-2,7.894091E-1,3.282532E-1,5.1087406E-3,1.8539985E0,5.7824575E-3,1.1498161E-2,1.0124004E-2,-1.6606329E-2,-7.0901E3,1.5840961E0,2.6810071E0,3.564859E0,2.3950007E-2,-8.715072E-4,-5.2560503E-3,-1.0992281E-2,6.4704097E-3,-3.4604862E-2,2.0341258E-2,2.7057242E-3,-4.1139536E-2,2.0361356E-2,-8.367136E-3,-5.124104E-5,3.5720442E-3,-3.943588E-3,1.762284E-2,2.5683738E-2,1.28495265E-2,2.4644274E-2,-7.399018E-4,9.896277E-3,-7.481797E-3,2.2863831E-2,2.5737869E-2,2.2730641E-2,1.6453568E-2,7.507899E-3,2.71148E-2,8.727886E-3],"split_indices":[5,5,4,2,7,4,7,4,3,5,2,6,7,6,3,5,7,0,4,7,6,5,7,0,5,5,4,3,7,7,7,0,0,0,0,0,0,0,0,0,0,0,0,0,0,0,0,0,0,0,0,0,0,0,0,0,0,0,0],"split_type":[0,0,0,0,0,0,0,0,0,0,0,0,0,0,0,0,0,0,0,0,0,0,0,0,0,0,0,0,0,0,0,0,0,0,0,0,0,0,0,0,0,0,0,0,0,0,0,0,0,0,0,0,0,0,0,0,0,0,0],"sum_hessian":[3.2903137E4,2.8010465E4,4.8926724E3,1.323782E4,1.4772645E4,2.7156494E3,2.177023E3,1.1734998E4,1.5028214E3,2.8487805E3,