{"learner":{"attributes":{"best_iteration":"0","best_score":"nan","scikit_learn":"{\"_estimator_type\": \"classifier\"}"},"feature_names":["EMA100_ratio","EMA200_ratio","DayOfWeek","STDEV_pct","MACDs_12_26_9_ratio","MACDh_12_26_9_ratio","ADXR_14_2","ATR_pct"],"feature_types":["float","float","int","float","float","float","float","float"],"gradient_booster":{"model":{"cats":{"enc":[],"feature_segments":[],"sorted_idx":[]},"gbtree_model_param":{"num_parallel_tree":"1","num_trees":"31"},"iteration_indptr":[0,1,2,3,4,5,6,7,8,9,10,11,12,13,14,15,16,17,18,19,20,21,22,23,24,25,26,27,28,29,30,31],"tree_info":[0,0,0,0,0,0,0,0,0,0,0,0,0,0,0,0,0,0,0,0,0,0,0,0,0,0,0,0,0,0,0],"trees":[{"base_weights":[-4.8359882E-2,-1.1471901E0,1.3192725E0,-1.6762906E0,-4.5006368E-1,1.4208344E0,-3.9908145E-2,-1.1109817E0,-1.8797297E0,-3.998173E-2,1.4786975E-1,1.0865237E0,1.8760943E0,-1.5953884E0,-4.3298166E-2,-3.999232E-2,-1.6191164E0,5.9328777E-1,-1.8507937E0,1.4312235E0,-3.0950344E-1,1.8973964E0,-3.88169E-2,2.3597102E-3,-3.997381E-2,1.994439E-2,-3.9866026E-2,-2.2538587E-2,-3.798414E-2,-3.009872E-2,1.4884557E-2,-2.3634544E-2,-3.9952744E-2,3.7720412E-2,2.5280042E-2,-1.6004818E-2,2.9192366E-2,3.53038E-2,3.8790964E-2],"categories":[],"categories_nodes":[],"categories_segments":[],"categories_sizes":[],"default_left":[0,0,0,0,0,0,0,0,0,0,0,0,0,0,0,0,0,0,0,0,0,0,0,0,0,0,0,0,0,0,0,0,0,0,0,0,0,0,0],"id":0,"left_children":[1,3,5,7,9,11,-1,13,15,-1,17,19,21,23,25,-1,27,29,31,33,35,37,-1,-1,-1,-1,-1,-1,-1,-1,-1,-1,-1,-1,-1,-1,-1,-1,-1],"loss_changes":[5.1838035E4,7.0539785E3,5.1761836E3,1.248123E3,7.6458447E3,2.2671348E3,0E0,1.4893284E3,2.4617578E2,0E0,5.3036367E3,4.1390703E3,5.1690625E2,1.3693931E3,1.8281309E3,0E0,3.4555615E2,1.5439446E3,1.039917E2,5.2186426E2,1.4802856E3,3.1189453E1,0E0,0E0,0E0,0E0,0E0,0E0,0E0,0E0,0E0,0E0,0E0,0E0,0E0,0E0,0E0,0E0,0E0],"parents":[2147483647,0,0,1,1,2,2,3,3,4,4,5,5,7,7,8,8,10,10,11,11,12,12,13,13,14,14,16,16,17,17,18,18,19,19,20,20,21,21],"right_children":[2,4,6,8,10,12,-1,14,16,-1,18,20,22,24,26,-1,28,30,32,34,36,38,-1,-1,-1,-1,-1,-1,-1,-1,-1,-1,-1,-1,-1,-1,-1,-1,-1],"split_conditions":[2.5518842E-3,1.5584449E-3,1.1455321E-2,-1.5756494E-4,-1.7636213E-3,4.7033E-3,-3.9908145E-2,2.2941502E-3,2.5847093E-3,-3.998173E-2,7.3675034E-3,2.6321798E1,4.630899E1,-4.676386E-4,5.1341313E-3,-3.999232E-2,1.7817701E1,1.5240427E1,1.3377655E-3,1.2715857E1,8.593924E-3,5.426764E-3,-3.88169E-2,2.3597102E-3,-3.997381E-2,1.994439E-2,-3.9866026E-2,-2.2538587E-2,-3.798414E-2,-3.009872E-2,1.4884557E-2,-2.3634544E-2,-3.9952744E-2,3.7720412E-2,2.5280042E-2,-1.6004818E-2,2.9192366E-2,3.53038E-2,3.8790964E-2],"split_indices":[7,7,1,5,1,7,0,0,1,0,1,6,6,5,1,0,6,6,3,6,0,7,0,0,0,0,0,0,0,0,0,0,0,0,0,0,0,0,0],"split_type":[0,0,0,0,0,0,0,0,0,0,0,0,0,0,0,0,0,0,0,0,0,0,0,0,0,0,0,0,0,0,0,0,0,0,0,0,0,0,0],"sum_hessian":[3.4492402E4,1.9125871E4,1.536653E4,1.0872433E4,8.253438E3,1.491028E4,4.5625E2,2.8790876E3,7.993345E3,2.298E3,5.9554385E3,8.599223E3,6.3110576E3,1.9801212E3,8.9896655E2,5.47E3,2.5233455E3,4.8707144E3,1.0847242E3,6.8964365E3,1.7027861E3,6.2765576E3,3.45E1,3.7737115E2,1.60275E3,5.8646655E2,3.125E2,9.1712115E2,1.6062242E3,3.2622424E2,4.54449E3,1.9697423E2,8.8775E2,1.8510905E3,5.0453457E3,1.3334923E3,3.6929385E2,1.5283224E3,4.7482354E3],"tree_param":{"num_deleted":"0","num_feature":"8","num_nodes":"39","size_leaf_vector":"1"}},{"base_weights":[6.972162E-3,-1.1428895E0,1.2976575E0,-4.269421E-1,-3.9333932E-2,1.3954585E0,-3.913415E-2,-3.9220564E-2,3.0106857E-2,1.4615955E0,-3.993761E-2,-3.9484166E-2,4.5663264E-1,1.1231008E0,1.8729328E0,-3.9234772E-2,1.5153155E-2,2.7789252E-2,-2.6722914E-3,-3.884081E-2,3.7703607E-2],"categories":[],"categories_nodes":[],"categories_segments":[],"categories_sizes":[],"default_left":[0,0,0,0,0,0,0,0,0,0,0,0,0,0,0,0,0,0,0,0,0],"id":1,"left_children":[1,3,5,7,-1,9,-1,-1,11,13,-1,-1,15,17,19,-1,-1,-1,-1,-1,-1],"loss_changes":[5.2732953E4,1.1081859E4,5.3309297E3,7.0503115E3,0E0,3.649373E3,0E0,0E0,6.6243335E3,2.2173945E3,0E0,0E0,4.652672E3,2.9287568E3,3.3985352E2,0E0,0E0,0E0,0E0,0E0,0E0],"parents":[2147483647,0,0,1,1,2,2,3,3,5,5,8,8,9,9,12,12,13,13,14,14],"right_children":[2,4,6,8,-1,10,-1,-1,12,14,-1,-1,16,18,20,-1,-1,-1,-1,-1,-1],"split_conditions":[2.4839325E-3,3E0,1.1455321E-2,-1.5835442E-3,-3.9333932E-2,5E0,-3.913415E-2,-3.9220564E-2,1E0,4.7033E-3,-3.993761E-2,-3.9484166E-2,1.0637023E-3,3E0,1E0,-3.9234772E-2,1.5153155E-2,2.7789252E-2,-2.6722914E-3,-3.884081E-2,3.7703607E-2],"split_indices":[7,2,1,1,0,2,0,0,2,7,0,0,7,2,2,0,0,0,0,0,0],"split_type":[0,0,0,0,0,0,0,0,0,0,0,0,0,0,0,0,0,0,0,0,0],"sum_hessian":[3.55297E4,1.8789932E4,1.673977E4,1.0053959E4,8.735972E3,1.6251963E4,4.8780612E2,2.3070999E3,7.7468594E3,1.5941761E4,3.1020206E2,1.3586194E3,6.3882397E3,8.747392E3,7.194369E3,7.065024E2,5.6817373E3,7.217591E3,1.5298004E3,2.2492506E1,7.1718765E3],"tree_param":{"num_deleted":"0","num_feature":"8","num_nodes":"21","size_leaf_vector":"1"}},{"base_weights":[1.8159458E-2,-1.169027E0,1.242947E0,-4.8149183E-1,-3.858606E-2,1.3429686E0,-3.8434174E-2,-3.847256E-2,-5.2035745E-2,1.4107033E0,-3.9120305E-2,-3.8719613E-2,3.696143E-1,1.0750732E0,1.842119E0,-3.84926E-2,1.3614895E-2,2.6694478E-2,-2.2384708E-3,-3.7945352E-2,3.706356E-2],"categories":[],"categories_nodes":[],"categories_segments":[],"categories_sizes":[],"default_left":[0,0,0,0,0,0,0,0,0,0,0,0,0,0,0,0,0,0,0,0,0],"id":2,"left_children":[1,3,5,7,-1,9,-1,-1,11,13,-1,-1,15,17,19,-1,-1,-1,-1,-1,-1],"loss_changes":[5.190439E4,9.473805E3,5.5640176E3,5.8957383E3,0E0,3.8086758E3,0E0,0E0,5.8288047E3,2.4144062E3,0E0,0E0,4.2809434E3,2.8942373E3,3.0545898E2,0E0,0E0,0E0,0E0,0E0,0E0],"parents":[2147483647,0,0,1,1,2,2,3,3,5,5,8,8,9,9,12,12,13,13,14,14],"right_children":[2,4,6,8,-1,10,-1,-1,12,14,-1,-1,16,18,20,-1,-1,-1,-1,-1,-1],"split_conditions":[2.4050826E-3,3E0,1.1455321E-2,-1.7636213E-3,-3.858606E-2,5E0,-3.8434174E-2,-3.847256E-2,1E0,4.7033E-3,-3.9120305E-2,-3.8719613E-2,1.0637023E-3,3E0,1E0,-3.84926E-2,1.3614895E-2,2.6694478E-2,-2.2384708E-3,-3.7945352E-2,3.706356E-2],"split_indices":[7,2,1,1,0,2,0,0,2,7,0,0,7,2,2,0,0,0,0,0,0],"split_type":[0,0,0,0,0,0,0,0,0,0,0,0,0,0,0,0,0,0,0,0,0],"sum_hessian":[3.5694395E4,1.8125404E4,1.7568988E4,9.518959E3,8.606446E3,1.7031307E4,5.376811E2,2.183371E3,7.3355874E3,1.6689246E4,3.4206125E2,1.3409277E3,5.9946597E3,9.38876E3,7.3004863E3,7.1521674E2,5.279443E3,7.703591E3,1.6851691E3,2.09977E1,7.279489E3],"tree_param":{"num_deleted":"0","num_feature":"8","num_nodes":"21","size_leaf_vector":"1"}},{"base_weights":[2.190486E-3,-1.1585764E0,1.2596374E0,-1.690573E0,-5.6789106E-1,1.3536998E0,-3.7703153E-2,-1.8143624E0,-1.2280895E0,-3.783156E-2,-6.252554E-3,1.021818E0,1.7828723E0,-3.2107152E-2,-1.8535204E0,-2.4561548E-1,-3.8224503E-2,7.92676E-1,-1.1408584E0,1.3549902E0,-5.985956E-1,1.8013235E0,-3.8561903E-2,2.3790495E-2,-3.816296E-2,-3.7853565E-2,-3.3998527E-2,-3.781369E-2,1.008856E-2,2.1124933E-2,-2.4019534E-2,-7.812197E-3,-3.8849555E-2,7.99117E-3,2.8670646E-2,1.4510548E-2,-2.1128636E-2,3.4549072E-2,3.7137203E-2],"categories":[],"categories_nodes":[],"categories_segments":[],"categories_sizes":[],"default_left":[0,0,0,0,0,0,0,0,0,0,0,0,0,0,0,0,0,0,0,0,0,0,0,0,0,0,0,0,0,0,0,0,0,0,0,0,0,0,0],"id":3,"left_children":[1,3,5,7,9,11,-1,13,15,-1,17,19,21,23,25,27,-1,29,31,33,35,37,-1,-1,-1,-1,-1,-1,-1,-1,-1,-1,-1,-1,-1,-1,-1,-1,-1],"loss_changes":[5.15313E4,5.767748E3,5.0154785E3,5.5041016E2,6.4683096E3,2.3416934E3,0E0,5.3132227E2,1.3702268E3,0E0,5.5394004E3,5.011964E3,4.9470312E2,3.8008752E2,4.125E1,1.0362617E3,0E0,1.8855149E3,1.517613E3,5.7700977E2,9.608353E2,2.5722656E1,0E0,0E0,0E0,0E0,0E0,0E0,0E0,0E0,0E0,0E0,0E0,0E0,0E0,0E0,0E0,0E0,0E0],"parents":[2147483647,0,0,1,1,2,2,3,3,4,4,5,5,7,7,8,8,10,10,11,11,12,12,13,13,14,14,15,15,17,17,18,18,19,19,20,20,21,21],"right_children":[2,4,6,8,10,12,-1,14,16,-1,18,20,22,24,26,28,-1,30,32,34,36,38,-1,-1,-1,-1,-1,-1,-1,-1,-1,-1,-1,-1,-1,-1,-1,-1,-1],"split_conditions":[2.4839325E-3,1.453525E-3,1.1455321E-2,4.1809864E-3,-1.5835442E-3,4.7033E-3,-3.7703153E-2,-5.2082696E-4,5.1341313E-3,-3.783156E-2,2.3466638E-4,2.7094328E1,4.630899E1,2.182059E1,1.982448E-3,1.0637023E-3,-3.8224503E-2,4.5160316E-3,-1.2354234E-4,-8.142386E-3,-4.405445E-3,6.3353796E-3,-3.8561903E-2,2.3790495E-2,-3.816296E-2,-3.7853565E-2,-3.3998527E-2,-3.781369E-2,1.008856E-2,2.1124933E-2,-2.4019534E-2,-7.812197E-3,-3.8849555E-2,7.99117E-3,2.8670646E-2,1.4510548E-2,-2.1128636E-2,3.4549072E-2,3.7137203E-2],"split_indices":[7,7,1,1,1,7,0,5,1,0,4,6,6,6,1,7,0,1,5,0,4,7,0,0,0,0,0,0,0,0,0,0,0,0,0,0,0,0,0],"split_type":[0,0,0,0,0,0,0,0,0,0,0,0,0,0,0,0,0,0,0,0,0,0,0,0,0,0,0,0,0,0,0,0,0,0,0,0,0,0,0],"sum_hessian":[3.530301E4,1.835721E4,1.69458E4,9.657353E3,8.699858E3,1.6454246E4,4.915531E2,7.615761E3,2.0415918E3,2.5909294E3,6.1089287E3,9.280892E3,7.173355E3,1.6382271E2,7.4519385E3,8.3795917E2,1.2036326E3,3.5848694E3,2.5240593E3,7.6982793E3,1.5826128E3,7.138404E3,3.495118E1,9.940515E1,6.4417564E1,5.9285205E3,1.5234176E3,2.6197733E2,5.759818E2,3.1667322E3,4.181371E2,1.3046387E3,1.2194207E3,5.8533093E2,7.112948E3,4.0641205E2,1.1762007E3,3.0780981E3,4.0603057E3],"tree_param":{"num_deleted":"0","num_feature":"8","num_nodes":"39","size_leaf_vector":"1"}},{"base_weights":[-3.7130932E-3,-9.2539746E-1,9.6003604E-1,-2.279642E-1,-1.7225205E0,1.078796E0,-3.7363548E-2,-1.7982101E0,1.4174147E-1,-3.7357077E-2,1.5994841E0,1.1695373E0,-3.80224E-2,2.667791E-1,-3.7609443E-2,-1.3276861E0,5.4040796E-1,3.879381E-2,-3.643698E-2,1.3114278E0,1.7652996E-1,-3.6032878E-2,3.674998E-2,-3.7129693E-2,-1.7867994E-2,1.4316107E-2,-3.87807E-2,2.2411477E-2,3.401739E-2,2.8755166E-2,-3.8662173E-2],"categories":[],"categories_nodes":[],"categories_segments":[],"categories_sizes":[],"default_left":[0,0,0,0,0,0,0,0,0,0,0,0,0,0,0,0,0,0,0,0,0,0,0,0,0,0,0,0,0,0,0],"id":4,"left_children":[1,3,5,7,9,11,-1,13,15,-1,17,19,-1,21,-1,23,25,-1,-1,27,29,-1,-1,-1,-1,-1,-1,-1,-1,-1,-1],"loss_changes":[3.1270453E4,1.0003329E4,5.7820996E3,5.5727144E3,4.057041E3,4.46816E3,0E0,3.114214E2,4.5525503E3,0E0,4.138036E2,2.2580566E3,0E0,2.3370634E2,0E0,3.789348E2,2.6596455E3,0E0,0E0,1.040207E3,5.338161E3,0E0,0E0,0E0,0E0,0E0,0E0,0E0,0E0,0E0,0E0],"parents":[2147483647,0,0,1,1,2,2,3,3,4,4,5,5,7,7,8,8,10,10,11,11,13,13,15,15,16,16,19,19,20,20],"right_children":[2,4,6,8,10,12,-1,14,16,-1,18,20,-1,22,-1,24,26,-1,-1,28,30,-1,-1,-1,-1,-1,-1,-1,-1,-1,-1],"split_conditions":[2.35866E-3,3E0,1.1076211E-2,1E0,2.2703353E-3,5E0,-3.7363548E-2,1.1108371E1,-1.5835442E-3,-3.7357077E-2,2.1722424E1,3.5040043E1,-3.80224E-2,1.8304181E-3,-3.7609443E-2,1.445214E-3,2.896693E1,3.879381E-2,-3.643698E-2,5.297349E-3,-4.405445E-3,-3.6032878E-2,3.674998E-2,-3.7129693E-2,-1.7867994E-2,1.4316107E-2,-3.87807E-2,2.2411477E-2,3.401739E-2,2.8755166E-2,-3.8662173E-2],"split_indices":[3,2,1,2,4,2,0,6,1,0,6,6,0,3,0,3,6,0,0,3,4,0,0,0,0,0,0,0,0,0,0],"split_type":[0,0,0,0,0,0,0,0,0,0,0,0,0,0,0,0,0,0,0,0,0,0,0,0,0,0,0,0,0,0,0],"sum_hessian":[3.520167E4,1.7993592E4,1.7208082E4,9.597651E3,8.395939E3,1.651524E4,6.9284033E2,1.8283846E3,7.769267E3,8.044472E3,3.5146744E2,1.602782E4,4.8742114E2,6.991363E1,1.758471E3,1.6574739E3,6.111793E3,3.201E2,3.1367437E1,1.4023573E4,2.0042465E3,3.0085054E1,3.982857E1,7.4582837E2,9.1164557E2,5.708707E3,4.0308612E2,9.414123E3,4.6094507E3,1.2545757E3,7.4967084E2],"tree_param":{"num_deleted":"0","num_feature":"8","num_nodes":"31","size_leaf_vector":"1"}},{"base_weights":[-2.2213148E-2,-1.1363553E0,1.1599106E0,-4.947881E-1,-3.6713265E-2,1.2366054E0,-3.74755E-2,-3.684428E-2,-1.3485871E-1,8.999006E-1,1.7198095E0,-1.0352281E0,3.8831758E-1,1.2477086E0,-5.469338E-1,-3.7729137E-2,1.7388446E0,-8.654606E-3,-3.7803352E-2,-3.6838453E-2,1.3264419E-2,2.9016754E-2,2.2513673E-3,1.805805E-2,-2.823193E-2,3.508505E-2,-3.8141903E-2],"categories":[],"categories_nodes":[],"categories_segments":[],"categories_sizes":[],"default_left":[0,0,0,0,0,0,0,0,0,0,0,0,0,0,0,0,0,0,0,0,0,0,0,0,0,0,0],"id":5,"left_children":[1,3,5,7,-1,9,-1,-1,11,13,15,17,19,21,23,-1,25,-1,-1,-1,-1,-1,-1,-1,-1,-1,-1],"loss_changes":[4.571948E4,8.0165605E3,3.921037E3,4.520288E3,0E0,2.6710078E3,0E0,0E0,3.4662683E3,4.8739287E3,4.6629297E2,1.3919702E3,2.8545996E3,1.7999453E3,2.3549062E3,0E0,3.8029102E2,0E0,0E0,0E0,0E0,0E0,0E0,0E0,0E0,0E0,0E0],"parents":[2147483647,0,0,1,1,2,2,3,3,5,5,8,8,9,9,10,10,11,11,12,12,13,13,14,14,16,16],"right_children":[2,4,6,8,-1,10,-1,-1,12,14,16,18,20,22,24,-1,26,-1,-1,-1,-1,-1,-1,-1,-1,-1,-1],"split_conditions":[2.4050826E-3,3E0,5E0,1E0,-3.6713265E-2,4.7033E-3,-3.74755E-2,-3.684428E-2,1.453525E-3,2.7507318E1,1E0,2E0,-3.6288546E-3,3E0,-1.682765E-2,-3.7729137E-2,4.630899E1,-8.654606E-3,-3.7803352E-2,-3.6838453E-2,1.3264419E-2,2.9016754E-2,2.2513673E-3,1.805805E-2,-2.823193E-2,3.508505E-2,-3.8141903E-2],"split_indices":[7,2,2,2,0,7,0,0,7,6,2,2,0,2,0,0,6,0,0,0,0,0,0,0,0,0,0],"split_type":[0,0,0,0,0,0,0,0,0,0,0,0,0,0,0,0,0,0,0,0,0,0,0,0,0,0,0],"sum_hessian":[3.471145E4,1.786961E4,1.684184E4,9.320521E3,8.549089E3,1.642717E4,4.146708E2,1.9639424E3,7.3565786E3,9.682978E3,6.744191E3,2.7033735E3,4.6532056E3,7.80655E3,1.8764285E3,3.4868446E1,6.7093228E3,1.5867635E3,1.1166099E3,5.0995667E2,4.1432485E3,6.6213223E3,1.1852273E3,7.009462E2,1.1754822E3,6.681632E3,2.7690634E1],"tree_param":{"num_deleted":"0","num_feature":"8","num_nodes":"27","size_leaf_vector":"1"}},{"base_weights":[3.5207886E-2,-1.0624685E0,1.2372E0,-4.1494343E-1,-3.6138184E-2,1.3229157E0,-3.6219962E-2,-3.6394816E-2,-8.274685E-3,1.3798717E0,-3.7166044E-2,-3.6464155E-2,3.835215E-1,1.1174647E0,1.717252E0,-3.3614386E-2,1.43447695E-2,2.6514493E-2,5.368987E-3,-3.761893E-2,3.4553304E-2],"categories":[],"categories_nodes":[],"categories_segments":[],"categories_sizes":[],"default_left":[0,0,0,0,0,0,0,0,0,0,0,0,0,0,0,0,0,0,0,0,0],"id":6,"left_children":[1,3,5,7,-1,9,-1,-1,11,13,-1,-1,15,17,19,-1,-1,-1,-1,-1,-1],"loss_changes":[4.708023E4,8.989551E3,4.452502E3,5.699002E3,0E0,3.004293E3,0E0,0E0,5.5028765E3,1.438748E3,0E0,0E0,4.385466E3,1.6188369E3,2.6996875E2,0E0,0E0,0E0,0E0,0E0,0E0],"parents":[2147483647,0,0,1,1,2,2,3,3,5,5,8,8,9,9,12,12,13,13,14,14],"right_children":[2,4,6,8,-1,10,-1,-1,12,14,-1,-1,16,18,20,-1,-1,-1,-1,-1,-1],"split_conditions":[2.5284358E-3,3E0,1.1455321E-2,-1.7636213E-3,-3.6138184E-2,5E0,-3.6219962E-2,-3.6394816E-2,1E0,4.7033E-3,-3.7166044E-2,-3.6464155E-2,1.1189256E-3,3E0,1E0,-3.3614386E-2,1.43447695E-2,2.6514493E-2,5.368987E-3,-3.761893E-2,3.4553304E-2],"split_indices":[7,2,1,1,0,2,0,0,2,7,0,0,7,2,2,0,0,0,0,0,0],"split_type":[0,0,0,0,0,0,0,0,0,0,0,0,0,0,0,0,0,0,0,0,0],"sum_hessian":[3.5681094E4,1.8649832E4,1.703126E4,9.975068E3,8.674764E3,1.6566021E4,4.652389E2,2.2385378E3,7.736531E3,1.62752295E4,2.9079205E2,1.3729875E3,6.3635435E3,9.157405E3,7.1178237E3,8.8499286E2,5.4785503E3,7.353052E3,1.8043538E3,1.999349E1,7.09783E3],"tree_param":{"num_deleted":"0","num_feature":"8","num_nodes":"21","size_leaf_vector":"1"}},{"base_weights":[3.7694633E-2,-1.0284119E0,1.201357E0,-1.4978186E0,-3.9770684E-1,1.2914952E0,-3.5800815E-2,-9.5795697E-1,-1.6923404E0,-3.5758786E-2,1.4966689E-1,9.9746394E-1,1.6730034E0,-3.5657365E-2,-4.4709688E-1,-3.5592914E-2,-1.5013158E0,5.4942435E-1,-1.5648159E0,1.2794528E0,-2.994677E-1,1.6900905E0,-3.740305E-2,-3.5670422E-2,7.454074E-4,-1.7720388E-2,-3.3111833E-2,1.3052989E-2,-3.7985258E-2,-1.1526244E-2,-3.6829956E-2,3.0844018E-3,2.7126433E-2,1.5163279E-2,-2.0198183E-2,3.2521095E-2,3.4873843E-2],"categories":[],"categories_nodes":[],"categories_segments":[],"categories_sizes":[],"default_left":[0,0,0,0,0,0,0,0,0,0,0,0,0,0,0,0,0,0,0,0,0,0,0,0,0,0,0,0,0,0,0,0,0,0,0,0,0],"id":7,"left_children":[1,3,5,7,9,11,-1,13,15,-1,17,19,21,-1,23,-1,25,27,29,31,33,35,-1,-1,-1,-1,-1,-1,-1,-1,-1,-1,-1,-1,-1,-1,-1],"loss_changes":[4.42598E4,5.5114043E3,4.601713E3,1.1190215E3,6.047036E3,1.8556289E3,0E0,1.1914529E3,1.2783594E2,0E0,3.9087905E3,3.4216162E3,4.3940625E2,0E0,1.1323383E3,0E0,2.3251465E2,1.1700759E3,2.936245E2,6.6427734E2,1.2566755E3,2.1445312E1,0E0,0E0,0E0,0E0,0E0,0E0,0E0,0E0,0E0,0E0,0E0,0E0,0E0,0E0,0E0],"parents":[2147483647,0,0,1,1,2,2,3,3,4,4,5,5,7,7,8,8,10,10,11,11,12,12,14,14,16,16,17,17,18,18,19,19,20,20,21,21],"right_children":[2,4,6,8,10,12,-1,14,16,-1,18,20,22,-1,24,-1,26,28,30,32,34,36,-1,-1,-1,-1,-1,-1,-1,-1,-1,-1,-1,-1,-1,-1,-1],"split_conditions":[2.5060985E-3,1.5584449E-3,1.1076211E-2,-1.5756494E-4,-1.5835442E-3,4.7033E-3,-3.5800815E-2,1.1538194E-3,2.5847093E-3,-3.5758786E-2,7.3675034E-3,2.7507318E1,4.630899E1,-3.5657365E-2,-1.051569E-3,-3.5592914E-2,-7.6128286E-5,3.2630836E1,1.3377655E-3,-8.420431E-3,-1.682765E-2,6.3353796E-3,-3.740305E-2,-3.5670422E-2,7.454074E-4,-1.7720388E-2,-3.3111833E-2,1.3052989E-2,-3.7985258E-2,-1.1526244E-2,-3.6829956E-2,3.0844018E-3,2.7126433E-2,1.5163279E-2,-2.0198183E-2,3.2521095E-2,3.4873843E-2],"split_indices":[7,7,1,5,1,7,0,7,1,0,1,6,6,0,1,0,5,6,3,0,0,7,0,0,0,0,0,0,0,0,0,0,0,0,0,0,0],"split_type":[0,0,0,0,0,0,0,0,0,0,0,0,0,0,0,0,0,0,0,0,0,0,0,0,0,0,0,0,0,0,0,0,0,0,0,0,0],"sum_hessian":[3.567446E4,1.8617652E4,1.7056807E4,1.0672806E4,7.944847E3,1.655846E4,4.983456E2,2.828693E3,7.844113E3,2.2438306E3,5.7010166E3,9.353514E3,7.2049478E3,1.0807946E3,1.7478984E3,5.3775376E3,2.4665752E3,4.623675E3,1.0773414E3,7.6830884E3,1.6704257E3,7.1709165E3,3.4030956E1,4.643177E2,1.2835808E3,4.9595508E2,1.9706201E3,4.4373896E3,1.8628522E2,2.3635568E2,8.409858E2,4.915739E2,7.191514E3,6.7112146E2,9.9930414E2,3.2825688E3,3.888348E3],"tree_param":{"num_deleted":"0","num_feature":"8","num_nodes":"37","size_leaf_vector":"1"}},{"base_weights":[1.4692439E-2,-1.0469049E0,1.1624482E0,-1.4747636E0,-4.4851005E-1,1.2529444E0,-3.5245147E-2,-3.496566E-2,-1.1868485E0,-3.5145503E-2,7.2128765E-2,9.56142E-1,1.646654E0,1.2754431E0,-1.2819747E0,6.976585E-1,-1.2504758E0,1.2121972E0,-7.2148436E-1,1.6628404E0,-3.685216E-2,-3.4363177E-2,3.5330255E-2,-3.5073046E-2,-2.0342294E-2,1.7655803E-2,-3.7903395E-2,-3.0978765E-2,1.1559759E-2,1.7128045E-2,2.9812196E-2,9.416427E-3,-3.8632717E-2,3.1097153E-2,3.3960875E-2],"categories":[],"categories_nodes":[],"categories_segments":[],"categories_sizes":[],"default_left":[0,0,0,0,0,0,0,0,0,0,0,0,0,0,0,0,0,0,0,0,0,0,0,0,0,0,0,0,0,0,0,0,0,0,0],"id":8,"left_children":[1,3,5,7,9,11,-1,-1,13,-1,15,17,19,21,23,25,27,29,31,33,-1,-1,-1,-1,-1,-1,-1,-1,-1,-1,-1,-1,-1,-1,-1],"loss_changes":[4.2903133E4,4.6824375E3,4.4801914E3,8.3753125E2,5.197793E3,1.9159531E3,0E0,0E0,1.2194424E3,0E0,4.5162383E3,4.0216875E3,4.01375E2,2.880176E2,6.233779E2,1.7805361E3,9.575288E2,8.029424E2,1.7902488E3,2.3720703E1,0E0,0E0,0E0,0E0,0E0,0E0,0E0,0E0,0E0,0E0,0E0,0E0,0E0,0E0,0E0],"parents":[2147483647,0,0,1,1,2,2,3,3,4,4,5,5,8,8,10,10,11,11,12,12,13,13,14,14,15,15,16,16,17,17,18,18,19,19],"right_children":[2,4,6,8,10,12,-1,-1,14,-1,16,18,20,22,24,26,28,30,32,34,-1,-1,-1,-1,-1,-1,-1,-1,-1,-1,-1,-1,-1,-1,-1],"split_conditions":[2.4839325E-3,1.5584449E-3,1.1076211E-2,1.0637023E-3,-1.7636213E-3,4.7033E-3,-3.5245147E-2,-3.496566E-2,5.892332E-4,-3.5145503E-2,4.6003438E-3,2.9599047E1,4.630899E1,3.173077E-3,-1.051569E-3,8.78222E-4,2.4050826E-3,7.713345E-4,-3.7138842E-3,5.426764E-3,-3.685216E-2,-3.4363177E-2,3.5330255E-2,-3.5073046E-2,-2.0342294E-2,1.7655803E-2,-3.7903395E-2,-3.0978765E-2,1.1559759E-2,1.7128045E-2,2.9812196E-2,9.416427E-3,-3.8632717E-2,3.1097153E-2,3.3960875E-2],"split_indices":[7,7,1,7,1,7,0,0,3,0,1,6,6,0,1,4,7,1,4,7,0,0,0,0,0,0,0,0,0,0,0,0,0,0,0],"split_type":[0,0,0,0,0,0,0,0,0,0,0,0,0,0,0,0,0,0,0,0,0,0,0,0,0,0,0,0,0,0,0,0,0,0,0],"sum_hessian":[3.5209098E4,1.8291076E4,1.6918021E4,1.0664333E4,7.6267437E3,1.6410844E4,5.0717783E2,5.466109E3,5.1982236E3,2.1699102E3,5.4568335E3,9.359081E3,7.051763E3,1.928535E2,5.00537E3,3.7050618E3,1.7517717E3,8.120058E3,1.2390232E3,7.019751E3,3.201181E1,2.6796618E1,1.6605688E2,1.7977809E3,3.2075894E3,3.4587969E3,2.4626505E2,1.5061315E3,2.4564024E2,3.5665947E3,4.5534634E3,6.243795E2,6.146436E2,1.7376646E3,5.282087E3],"tree_param":{"num_deleted":"0","num_feature":"8","num_nodes":"35","size_leaf_vector":"1"}},{"base_weights":[2.3362972E-2,-8.6618805E-1,8.5757893E-1,-2.4471426E-1,-1.5566981E0,9.713668E-1,-1.5776393E0,-3.511869E-2,1.0797711E-1,-3.4683738E-2,1.616054E0,1.0566231E0,-3.577984E-2,3.281203E-2,-3.5185196E-2,-1.0288143E0,6.282445E-1,3.7293162E-2,-3.3956848E-2,8.6327577E-1,1.5256431E0,-2.6669353E-2,1.3353258E-2,1.7164098E-2,-3.722224E-2,2.856678E-2,6.018626E-3,3.1203117E-2,-3.9656285E-2],"categories":[],"categories_nodes":[],"categories_segments":[],"categories_sizes":[],"default_left":[0,0,0,0,0,0,0,0,0,0,0,0,0,0,0,0,0,0,0,0,0,0,0,0,0,0,0,0,0],"id":9,"left_children":[1,3,5,7,9,11,13,-1,15,-1,17,19,-1,-1,-1,21,23,-1,-1,25,27,-1,-1,-1,-1,-1,-1,-1,-1],"loss_changes":[2.6148357E4,7.317341E3,5.040218E3,4.784661E3,4.551451E3,4.0903125E3,4.7755518E2,0E0,4.3054697E3,0E0,3.5613086E2,1.5267441E3,0E0,0E0,0E0,1.1822437E3,2.8603652E3,0E0,0E0,3.7921934E3,5.985576E2,0E0,0E0,0E0,0E0,0E0,0E0,0E0,0E0],"parents":[2147483647,0,0,1,1,2,2,3,3,4,4,5,5,6,6,8,8,10,10,11,11,15,15,16,16,19,19,20,20],"right_children":[2,4,6,8,10,12,14,-1,16,-1,18,20,-1,-1,-1,22,24,-1,-1,26,28,-1,-1,-1,-1,-1,-1,-1,-1],"split_conditions":[2.230828E-3,3E0,1.0443926E-2,1E0,2.2703353E-3,5E0,1.2715857E1,-3.511869E-2,5.3601724E-4,-3.4683738E-2,2.2464851E1,6.097399E-3,-3.577984E-2,3.281203E-2,-3.5185196E-2,4.6501696E-4,2.6829845E1,3.7293162E-2,-3.3956848E-2,1.9402637E1,5.1597637E1,-2.6669353E-2,1.3353258E-2,1.7164098E-2,-3.722224E-2,2.856678E-2,6.018626E-3,3.1203117E-2,-3.9656285E-2],"split_indices":[3,2,1,2,4,2,6,0,1,0,6,3,0,0,0,5,6,0,0,6,6,0,0,0,0,0,0,0,0],"split_type":[0,0,0,0,0,0,0,0,0,0,0,0,0,0,0,0,0,0,0,0,0,0,0,0,0,0,0,0,0],"sum_hessian":[3.5234684E4,1.7051727E4,1.8182957E4,8.975281E3,8.076446E3,1.737188E4,8.110756E2,1.6976132E3,7.277668E3,7.6490317E3,4.274141E2,1.6852045E4,5.1983746E2,4.2869095E1,7.682065E2,2.284605E3,4.993063E3,3.9802246E2,2.9391613E1,1.1935036E4,4.917008E3,1.9370266E3,3.4757837E2,4.5714585E3,4.2160425E2,5.9522705E3,5.982766E3,4.869688E3,4.7319466E1],"tree_param":{"num_deleted":"0","num_feature":"8","num_nodes":"29","size_leaf_vector":"1"}},{"base_weights":[-1.944222E-2,-1.0539342E0,1.1342511E0,-4.6739742E-1,-1.7117469E0,1.2011757E0,-3.5603784E-2,-3.460319E-2,-1.2895404E-1,-3.3962067E-2,-3.500065E-2,8.90952E-1,1.5967398E0,-9.1597456E-1,4.0747666E-1,1.1208308E0,-1.2152268E-1,-3.680075E-2,1.6141523E0,-6.3375947E-3,-3.5931706E-2,-3.032173E-2,1.4294046E-2,2.4347017E-2,-3.481583E-2,-4.0412873E-2,2.9788444E-2,3.2438967E-2,-3.2549098E-2],"categories":[],"categories_nodes":[],"categories_segments":[],"categories_sizes":[],"default_left":[0,0,0,0,0,0,0,0,0,0,0,0,0,0,0,0,0,0,0,0,0,0,0,0,0,0,0,0,0],"id":10,"left_children":[1,3,5,7,9,11,-1,-1,13,-1,-1,15,17,19,21,23,25,-1,27,-1,-1,-1,-1,-1,-1,-1,-1,-1,-1],"loss_changes":[4.0885598E4,6.9677793E3,3.1609805E3,4.080847E3,1.1289062E0,1.9411992E3,0E0,0E0,3.180418E3,0E0,0E0,2.0660713E3,4.193164E2,1.6101116E3,2.648458E3,2.0000527E3,5.030156E3,0E0,1.7759961E2,0E0,0E0,0E0,0E0,0E0,0E0,0E0,0E0,0E0,0E0],"parents":[2147483647,0,0,1,1,2,2,3,3,4,4,5,5,8,8,11,11,12,12,13,13,14,14,15,15,16,16,18,18],"right_children":[2,4,6,8,10,12,-1,-1,14,-1,-1,16,18,20,22,24,26,-1,28,-1,-1,-1,-1,-1,-1,-1,-1,-1,-1],"split_conditions":[2.5284358E-3,3E0,5E0,1E0,1.5584449E-3,4.7033E-3,-3.5603784E-2,-3.460319E-2,1.5584449E-3,-3.3962067E-2,-3.500065E-2,3E0,1E0,2E0,-2.9476378E-3,9.984302E-3,2.1539177E-3,-3.680075E-2,2.3781994E-2,-6.3375947E-3,-3.5931706E-2,-3.032173E-2,1.4294046E-2,2.4347017E-2,-3.481583E-2,-4.0412873E-2,2.9788444E-2,3.2438967E-2,-3.2549098E-2],"split_indices":[7,2,2,2,7,7,0,0,7,0,0,2,2,2,0,0,4,0,0,0,0,0,0,0,0,0,0,0,0],"split_type":[0,0,0,0,0,0,0,0,0,0,0,0,0,0,0,0,0,0,0,0,0,0,0,0,0,0,0,0,0],"sum_hessian":[3.4255285E4,1.8060762E4,1.6194522E4,9.548624E3,8.512138E3,1.5831603E4,3.6292047E2,2.0173406E3,7.531283E3,6.311062E3,2.2010762E3,8.874905E3,6.9566973E3,3.0524224E3,4.4788613E3,7.2327305E3,1.6421742E3,3.451205E1,6.9221855E3,1.8174517E3,1.2349706E3,6.162448E2,3.8626162E3,6.997326E3,2.3540434E2,7.5358765E2,8.885865E2,6.906107E3,1.607872E1],"tree_param":{"num_deleted":"0","num_feature":"8","num_nodes":"29","size_leaf_vector":"1"}},{"base_weights":[-3.9678525E-2,-1.003258E0,1.0685655E0,-4.0757433E-1,-1.6869019E0,1.1377412E0,-3.506267E-2,-3.404297E-2,-7.210312E-2,-3.346489E-2,-3.4352303E-2,8.3106023E-1,1.5652132E0,-8.318553E-1,4.5768645E-1,1.1696308E0,-5.4345036E-1,1.5842127E0,-3.6350675E-2,-4.2306315E-3,-3.5400968E-2,-3.4214094E-2,1.4510991E-2,2.7227372E-2,-4.6093162E-4,1.9041227E-2,-2.3106452E-2,-3.6812842E-2,3.1998742E-2],"categories":[],"categories_nodes":[],"categories_segments":[],"categories_sizes":[],"default_left":[0,0,0,0,0,0,0,0,0,0,0,0,0,0,0,0,0,0,0,0,0,0,0,0,0,0,0,0,0],"id":11,"left_children":[1,3,5,7,9,11,-1,-1,13,-1,-1,15,17,19,21,23,25,27,-1,-1,-1,-1,-1,-1,-1,-1,-1,-1,-1],"loss_changes":[3.591853E4,7.326074E3,3.0554062E3,4.1758154E3,3.0273438E-1,2.0002734E3,0E0,0E0,3.0747852E3,0E0,0E0,4.139345E3,4.1273242E2,1.8259246E3,2.615243E3,1.6320342E3,1.6100505E3,3.444834E2,0E0,0E0,0E0,0E0,0E0,0E0,0E0,0E0,0E0,0E0,0E0],"parents":[2147483647,0,0,1,1,2,2,3,3,4,4,5,5,8,8,11,11,12,12,13,13,14,14,15,15,16,16,17,17],"right_children":[2,4,6,8,10,12,-1,-1,14,-1,-1,16,18,20,22,24,26,28,-1,-1,-1,-1,-1,-1,-1,-1,-1,-1,-1],"split_conditions":[2.4839325E-3,3E0,5E0,1E0,1.453525E-3,4.7033E-3,-3.506267E-2,-3.404297E-2,1.5677165E-3,-3.346489E-2,-3.4352303E-2,2.7094328E1,4.630899E1,2E0,-3.6288546E-3,3E0,-4.405445E-3,1E0,-3.6350675E-2,-4.2306315E-3,-3.5400968E-2,-3.4214094E-2,1.4510991E-2,2.7227372E-2,-4.6093162E-4,1.9041227E-2,-2.3106452E-2,-3.6812842E-2,3.1998742E-2],"split_indices":[7,2,2,2,7,7,0,0,7,0,0,6,6,2,0,2,4,2,0,0,0,0,0,0,0,0,0,0,0],"split_type":[0,0,0,0,0,0,0,0,0,0,0,0,0,0,0,0,0,0,0,0,0,0,0,0,0,0,0,0,0],"sum_hessian":[3.3633324E4,1.799098E4,1.5642345E4,9.614907E3,8.376074E3,1.5268656E4,3.736885E2,1.9778943E3,7.6370127E3,5.838573E3,2.5375007E3,8.892263E3,6.376393E3,3.1373997E3,4.4996133E3,7.134989E3,1.7572742E3,6.341338E3,3.505529E1,1.889448E3,1.2479515E3,4.940936E2,4.0055195E3,6.1467617E3,9.8822687E2,5.100101E2,1.247264E3,2.842257E1,6.3129155E3],"tree_param":{"num_deleted":"0","num_feature":"8","num_nodes":"29","size_leaf_vector":"1"}},{"base_weights":[-8.649902E-3,-9.248677E-1,1.1031028E0,-3.088951E-1,-1.6667699E0,1.1852431E0,-3.368434E-2,-1.697401E0,7.441899E-2,-3.3051483E-2,-3.410182E-2,1.2403994E0,-3.5010487E-2,-3.37854E-2,-3.9221726E-2,-3.394365E-2,4.3552595E-1,9.793784E-1,1.5676126E0,-1.3768163E-2,1.8658737E-2,2.4841752E-2,-9.940999E-3,3.1608135E-2,-3.6649495E-2],"categories":[],"categories_nodes":[],"categories_segments":[],"categories_sizes":[],"default_left":[0,0,0,0,0,0,0,0,0,0,0,0,0,0,0,0,0,0,0,0,0,0,0,0,0],"id":12,"left_children":[1,3,5,7,9,11,-1,13,15,-1,-1,17,-1,-1,-1,-1,19,21,23,-1,-1,-1,-1,-1,-1],"loss_changes":[3.479677E4,8.557599E3,3.535498E3,5.446878E3,1.4667969E0,2.429787E3,0E0,1.0693359E0,5.1315996E3,0E0,0E0,1.2551484E3,0E0,0E0,0E0,0E0,3.7258237E3,3.177025E3,2.868662E2,0E0,0E0,0E0,0E0,0E0,0E0],"parents":[2147483647,0,0,1,1,2,2,3,3,4,4,5,5,7,7,8,8,11,11,16,16,17,17,18,18],"right_children":[2,4,6,8,10,12,-1,14,16,-1,-1,18,-1,-1,-1,-1,20,22,24,-1,-1,-1,-1,-1,-1],"split_conditions":[2.574474E-3,3E0,1.1455321E-2,-1.7636213E-3,1.5584449E-3,5E0,-3.368434E-2,2.4839325E-3,1E0,-3.3051483E-2,-3.410182E-2,4.7033E-3,-3.5010487E-2,-3.37854E-2,-3.9221726E-2,-3.394365E-2,1.4721618E-3,2.7507318E1,4.630899E1,-1.3768163E-2,1.8658737E-2,2.4841752E-2,-9.940999E-3,3.1608135E-2,-3.6649495E-2],"split_indices":[7,2,1,1,7,2,0,7,2,0,0,7,0,0,0,0,7,6,6,0,0,0,0,0,0],"split_type":[0,0,0,0,0,0,0,0,0,0,0,0,0,0,0,0,0,0,0,0,0,0,0,0,0],"sum_hessian":[3.4159133E4,1.8726502E4,1.543263E4,1.0232449E4,8.494053E3,1.4991453E4,4.4117703E2,2.2129944E3,8.0194546E3,6.232148E3,2.2619053E3,1.4715593E4,2.7586026E2,2.1543474E3,5.864695E1,1.3571686E3,6.662286E3,8.1881387E3,6.5274536E3,2.0437369E3,4.618549E3,6.9514536E3,1.2366849E3,6.503546E3,2.390752E1],"tree_param":{"num_deleted":"0","num_feature":"8","num_nodes":"25","size_leaf_vector":"1"}},{"base_weights":[-1.4613867E-3,-7.7276796E-1,7.9066926E-1,-1.6959716E-1,-1.4733564E0,8.9619344E-1,-3.3639953E-2,-3.334227E-2,1.6441843E-1,-3.2867253E-2,1.5581143E0,9.773461E-1,-3.372237E-2,4.4050086E-1,-1.628905E0,3.577192E-2,-3.2460835E-2,1.3933133E0,7.159772E-1,-1.7634233E-2,1.5407674E-2,-3.5305608E-2,-5.1371944E-3,3.08292E-2,2.523333E-2,2.058349E-3,2.746639E-2],"categories":[],"categories_nodes":[],"categories_segments":[],"categories_sizes":[],"default_left":[0,0,0,0,0,0,0,0,0,0,0,0,0,0,0,0,0,0,0,0,0,0,0,0,0,0,0],"id":13,"left_children":[1,3,5,7,9,11,-1,-1,13,-1,15,17,-1,19,21,-1,-1,23,25,-1,-1,-1,-1,-1,-1,-1,-1],"loss_changes":[2.0781262E4,7.2818984E3,4.3797812E3,4.6330425E3,4.111377E3,3.3742441E3,0E0,0E0,3.7502576E3,0E0,3.1368164E2,1.6952979E3,0E0,2.863683E3,1.8843188E2,0E0,0E0,1.1518555E2,3.8624185E3,0E0,0E0,0E0,0E0,0E0,0E0,0E0,0E0],"parents":[2147483647,0,0,1,1,2,2,3,3,4,4,5,5,8,8,10,10,11,11,13,13,14,14,17,17,18,18],"right_children":[2,4,6,8,10,12,-1,-1,14,-1,16,18,-1,20,22,-1,-1,24,26,-1,-1,-1,-1,-1,-1,-1,-1],"split_conditions":[2.2928747E-3,3E0,1.1076211E-2,1E0,2.2703353E-3,5E0,-3.3639953E-2,-3.334227E-2,2.608621E1,-3.2867253E-2,2.2464851E1,1.9235987E1,-3.372237E-2,-1.051569E-3,2.1751802E-3,3.577192E-2,-3.2460835E-2,-9.413767E-3,5.504683E-3,-1.7634233E-2,1.5407674E-2,-3.5305608E-2,-5.1371944E-3,3.08292E-2,2.523333E-2,2.058349E-3,2.746639E-2],"split_indices":[3,2,1,2,4,2,0,0,6,0,6,6,0,1,3,0,0,1,3,0,0,0,0,0,0,0,0],"split_type":[0,0,0,0,0,0,0,0,0,0,0,0,0,0,0,0,0,0,0,0,0,0,0,0,0,0,0],"sum_hessian":[3.4011246E4,1.7232205E4,1.6779043E4,9.260646E3,7.9715586E3,1.6092934E4,6.861084E2,1.6881864E3,7.5724604E3,7.5487144E3,4.2284436E2,1.5603241E4,4.896926E2,6.5629097E3,1.00955084E3,3.9471555E2,2.8128822E1,6.0191245E3,9.584117E3,1.3100571E3,5.252852E3,9.179509E2,9.159991E1,2.8266858E3,3.1924387E3,4.959773E3,4.624344E3],"tree_param":{"num_deleted":"0","num_feature":"8","num_nodes":"27","size_leaf_vector":"1"}},{"base_weights":[4.0310337E-3,-9.672186E-1,1.06662E0,-1.4421451E0,-4.4495833E-1,1.1461936E0,-3.2861877E-2,-1.5934733E0,-9.429532E-1,-3.29258E-2,3.1020645E-2,8.6460334E-1,1.5195329E0,-5.2423227E-1,-1.6122189E0,-7.1374305E-2,-3.3457335E-2,7.42243E-1,-9.435682E-1,1.1019498E0,-5.4703015E-1,1.5364801E0,-3.5250653E-2,-3.3454124E-2,2.2443678E-2,-2.915947E-2,-3.261595E-2,-3.2571223E-2,1.1801804E-2,1.8718105E-2,-2.6328994E-2,-5.4091644E-3,-3.3340488E-2,-1.2813006E-3,2.3720847E-2,1.1607331E-2,-3.7220698E-2,2.8622037E-2,3.1395387E-2],"categories":[],"categories_nodes":[],"categories_segments":[],"categories_sizes":[],"default_left":[0,0,0,0,0,0,0,0,0,0,0,0,0,0,0,0,0,0,0,0,0,0,0,0,0,0,0,0,0,0,0,0,0,0,0,0,0,0,0],"id":14,"left_children":[1,3,5,7,9,11,-1,13,15,-1,17,19,21,23,25,27,-1,29,31,33,35,37,-1,-1,-1,-1,-1,-1,-1,-1,-1,-1,-1,-1,-1,-1,-1,-1,-1],"loss_changes":[3.529298E4,4.4306934E3,3.5231113E3,7.050703E2,4.866741E3,1.6663711E3,0E0,1.4282227E2,1.3860828E3,0E0,4.226496E3,3.031669E3,3.8202344E2,2.3877475E2,1.7529297E1,1.0252551E3,0E0,1.4066226E3,1.252043E3,7.595928E2,1.9310707E3,2.1256836E1,0E0,0E0,0E0,0E0,0E0,0E0,0E0,0E0,0E0,0E0,0E0,0E0,0E0,0E0,0E0,0E0,0E0],"parents":[2147483647,0,0,1,1,2,2,3,3,4,4,5,5,7,7,8,8,10,10,11,11,12,12,13,13,14,14,15,15,17,17,18,18,19,19,20,20,21,21],"right_children":[2,4,6,8,10,12,-1,14,16,-1,18,20,22,24,26,28,-1,30,32,34,36,38,-1,-1,-1,-1,-1,-1,-1,-1,-1,-1,-1,-1,-1,-1,-1,-1,-1],"split_conditions":[2.5060985E-3,1.4721618E-3,1.1455321E-2,4.021067E-3,-1.7636213E-3,4.7033E-3,-3.2861877E-2,-5.2082696E-4,5.1341313E-3,-3.29258E-2,2.11138E-4,2.9599047E1,4.630899E1,-5.350201E-4,-2.449578E-4,1.0637023E-3,-3.3457335E-2,5.327784E-3,-1.2354234E-4,-8.704508E-3,-3.7138842E-3,5.426764E-3,-3.5250653E-2,-3.3454124E-2,2.2443678E-2,-2.915947E-2,-3.261595E-2,-3.2571223E-2,1.1801804E-2,1.8718105E-2,-2.6328994E-2,-5.4091644E-3,-3.3340488E-2,-1.2813006E-3,2.3720847E-2,1.1607331E-2,-3.7220698E-2,2.8622037E-2,3.1395387E-2],"split_indices":[7,7,1,1,1,7,0,5,1,0,4,6,6,5,5,7,0,1,5,0,4,7,0,0,0,0,0,0,0,0,0,0,0,0,0,0,0,0,0],"split_type":[0,0,0,0,0,0,0,0,0,0,0,0,0,0,0,0,0,0,0,0,0,0,0,0,0,0,0,0,0,0,0,0,0,0,0,0,0,0,0],"sum_hessian":[3.419532E4,1.786551E4,1.6329809E4,9.355745E3,8.509766E3,1.5864543E4,4.6526538E2,7.177515E3,2.17823E3,2.4142214E3,6.095544E3,9.045546E3,6.818997E3,1.24256134E2,7.053259E3,9.933365E2,1.1848934E3,3.5241084E3,2.5714355E3,7.7438213E3,1.3017249E3,6.784527E3,3.446985E1,7.3223274E1,5.103286E1,7.6734863E2,6.28591E3,2.9576065E2,6.9757587E2,3.221641E3,3.024673E2,1.3328511E3,1.2385844E3,5.208501E2,7.222971E3,7.008705E2,6.008544E2,1.6400167E3,5.1445103E3],"tree_param":{"num_deleted":"0","num_feature":"8","num_nodes":"39","size_leaf_vector":"1"}},{"base_weights":[-1.4721543E-3,-9.59214E-1,9.982847E-1,-1.3345113E0,-4.1026694E-1,1.0809165E0,-3.2626815E-2,-3.204345E-2,-1.0588384E0,-3.2421637E-2,6.083232E-2,7.834122E-1,1.5003563E0,1.2835722E0,-1.1508384E0,6.431144E-1,-1.2776787E0,1.035794E0,-6.979969E-1,1.5166254E0,-3.4530655E-2,-3.160083E-2,3.4794185E-2,-3.218281E-2,-1.7992133E-2,1.6798647E-2,-3.5893288E-2,2.6385416E-3,-3.0529104E-2,1.2922519E-2,2.6868226E-2,1.3392089E-2,-3.650142E-2,2.8033346E-2,3.103066E-2],"categories":[],"categories_nodes":[],"categories_segments":[],"categories_sizes":[],"default_left":[0,0,0,0,0,0,0,0,0,0,0,0,0,0,0,0,0,0,0,0,0,0,0,0,0,0,0,0,0,0,0,0,0,0,0],"id":15,"left_children":[1,3,5,7,9,11,-1,-1,13,-1,15,17,19,21,23,25,27,29,31,33,-1,-1,-1,-1,-1,-1,-1,-1,-1,-1,-1,-1,-1,-1,-1],"loss_changes":[3.2383184E4,3.5578604E3,3.5972441E3,7.549922E2,4.0019675E3,2.0006035E3,0E0,0E0,1.0912217E3,0E0,3.9377344E3,3.5108887E3,3.5204102E2,2.529505E2,5.5860693E2,1.6906705E3,5.3743164E2,9.6054297E2,2.1086802E3,2.4110352E1,0E0,0E0,0E0,0E0,0E0,0E0,0E0,0E0,0E0,0E0,0E0,0E0,0E0,0E0,0E0],"parents":[2147483647,0,0,1,1,2,2,3,3,4,4,5,5,8,8,10,10,11,11,12,12,13,13,14,14,15,15,16,16,17,17,18,18,19,19],"right_children":[2,4,6,8,10,12,-1,-1,14,-1,16,18,20,22,24,26,28,30,32,34,-1,-1,-1,-1,-1,-1,-1,-1,-1,-1,-1,-1,-1,-1,-1],"split_conditions":[2.4050826E-3,1.5584449E-3,1.1455321E-2,1.0637023E-3,-1.7636213E-3,4.7033E-3,-3.2626815E-2,-3.204345E-2,5.892332E-4,-3.2421637E-2,4.684002E-3,2.9599047E1,4.630899E1,3.173077E-3,-1.051569E-3,8.2508766E-4,1.1304365E-3,1.327342E-3,-4.0183477E-3,5.426764E-3,-3.4530655E-2,-3.160083E-2,3.4794185E-2,-3.218281E-2,-1.7992133E-2,1.6798647E-2,-3.5893288E-2,2.6385416E-3,-3.0529104E-2,1.2922519E-2,2.6868226E-2,1.3392089E-2,-3.650142E-2,2.8033346E-2,3.103066E-2],"split_indices":[7,7,1,7,1,7,0,0,3,0,1,6,6,0,1,4,3,1,4,7,0,0,0,0,0,0,0,0,0,0,0,0,0,0,0],"split_type":[0,0,0,0,0,0,0,0,0,0,0,0,0,0,0,0,0,0,0,0,0,0,0,0,0,0,0,0,0,0,0,0,0,0,0],"sum_hessian":[3.381825E4,1.7272127E4,1.6546121E4,1.0257674E4,7.0144526E3,1.6042634E4,5.0348746E2,5.201838E3,5.0558364E3,1.9641034E3,5.050349E3,9.387374E3,6.65526E3,1.9053706E2,4.8652993E3,3.5197666E3,1.5305826E3,8.0212017E3,1.3661719E3,6.6224326E3,3.282751E1,2.5811302E1,1.6472575E2,1.7206505E3,3.144649E3,3.2574666E3,2.623003E2,2.2961536E2,1.3009673E3,3.5401787E3,4.4810234E3,6.1736865E2,7.488033E2,1.5527913E3,5.069641E3],"tree_param":{"num_deleted":"0","num_feature":"8","num_nodes":"35","size_leaf_vector":"1"}},{"base_weights":[-2.9201019E-3,-9.716294E-1,9.90324E-1,-2.1849321E-1,-1.4312115E0,1.0702269E0,-3.2204796E-2,-3.20846E-2,3.3980945E-1,-9.319316E-1,-1.5896895E0,1.126762E0,-3.3853773E-2,-3.266723E-2,7.787177E-1,-1.6895387E0,-2.4994585E-1,-3.1483147E-2,-1.6272808E0,8.501616E-1,1.4990945E0,-3.4024622E-2,1.9577874E-2,-3.1631377E-2,-3.4579474E-2,-3.361125E-2,4.220162E-3,-3.158055E-2,-3.337431E-2,2.171826E-2,-3.856262E-3,-3.9087236E-2,3.020609E-2],"categories":[],"categories_nodes":[],"categories_segments":[],"categories_sizes":[],"default_left":[0,0,0,0,0,0,0,0,0,0,0,0,0,0,0,0,0,0,0,0,0,0,0,0,0,0,0,0,0,0,0,0,0],"id":16,"left_children":[1,3,5,7,9,11,-1,-1,13,15,17,19,-1,-1,21,23,25,-1,27,29,31,-1,-1,-1,-1,-1,-1,-1,-1,-1,-1,-1,-1],"loss_changes":[3.2325197E4,5.8865596E3,3.448541E3,4.9883564E3,8.340176E2,2.5157969E3,0E0,0E0,3.9816692E3,1.3155891E3,1.796875E0,1.6228184E3,0E0,0E0,1.8684385E3,2.0717773E0,8.8539703E2,0E0,1.6625977E0,2.2260044E3,2.6311035E2,0E0,0E0,0E0,0E0,0E0,0E0,0E0,0E0,0E0,0E0,0E0,0E0],"parents":[2147483647,0,0,1,1,2,2,3,3,4,4,5,5,8,8,9,9,10,10,11,11,14,14,15,15,16,16,18,18,19,19,20,20],"right_children":[2,4,6,8,10,12,-1,-1,14,16,18,20,-1,-1,22,24,26,-1,28,30,32,-1,-1,-1,-1,-1,-1,-1,-1,-1,-1,-1,-1],"split_conditions":[2.4050826E-3,2E0,1.1455321E-2,1E0,3E0,5E0,-3.2204796E-2,-3.20846E-2,-1.5835442E-3,1.5584449E-3,1.4721618E-3,4.7033E-3,-3.3853773E-2,-3.266723E-2,1.0637023E-3,-1.5835442E-3,-1.051569E-3,-3.1483147E-2,-1.7636213E-3,3E0,1E0,-3.4024622E-2,1.9577874E-2,-3.1631377E-2,-3.4579474E-2,-3.361125E-2,4.220162E-3,-3.158055E-2,-3.337431E-2,2.171826E-2,-3.856262E-3,-3.9087236E-2,3.020609E-2],"split_indices":[7,2,1,2,2,2,0,0,1,7,7,7,0,0,7,1,1,0,1,2,2,0,0,0,0,0,0,0,0,0,0,0,0],"split_type":[0,0,0,0,0,0,0,0,0,0,0,0,0,0,0,0,0,0,0,0,0,0,0,0,0,0,0,0,0,0,0,0,0],"sum_hessian":[3.359432E4,1.7007275E4,1.6587045E4,6.445864E3,1.0561412E4,1.6093205E4,4.9384018E2,1.850681E3,4.5951826E3,2.5464421E3,8.01497E3,1.5771122E4,3.2208252E2,8.3561475E2,3.7595679E3,1.2055698E3,1.3408723E3,5.703813E3,2.3111575E3,9.050895E3,6.720228E3,2.8020132E2,3.4793667E3,3.3419913E2,8.7137067E2,3.2616324E2,1.01470905E3,1.0869087E3,1.2242488E3,7.3822773E3,1.6686172E3,2.1153927E1,6.6990737E3],"tree_param":{"num_deleted":"0","num_feature":"8","num_nodes":"33","size_leaf_vector":"1"}},{"base_weights":[-1.5317786E-3,-7.3924476E-1,7.3962307E-1,-1.3343182E0,-3.0723238E-1,8.3310765E-1,-3.1987496E-2,-1.3952239E0,-7.300925E-2,-2.6909307E-2,-1.5512131E0,9.7575146E-1,-9.466976E-2,6.4096147E-1,-1.4340453E0,1.1646258E0,-3.3680454E-2,-1.2436584E0,3.6678597E-1,-3.2494877E-2,-1.0155623E-1,7.901712E-1,1.386866E0,1.139829E0,-1.7246696E0,3.522979E-2,-3.2928918E-2,-2.5099685E-2,-3.1802077E-2,3.1691033E-2,-3.4812603E-2,-3.183943E-2,-4.077181E-3,9.484297E-3,-3.411067E-2,2.8719932E-2,-3.295355E-2,2.5091896E-2,5.1817563E-3,2.7914757E-2,-3.784559E-2,2.6263691E-2,-4.012129E-2,-3.7970405E-2,-3.4024473E-2],"categories":[],"categories_nodes":[],"categories_segments":[],"categories_sizes":[],"default_left":[0,0,0,0,0,0,0,0,0,0,0,0,0,0,0,0,0,0,0,0,0,0,0,0,0,0,0,0,0,0,0,0,0,0,0,0,0,0,0,0,0,0,0,0,0],"id":17,"left_children":[1,3,5,7,9,11,-1,13,15,17,19,21,23,25,27,29,-1,31,33,-1,35,37,39,41,43,-1,-1,-1,-1,-1,-1,-1,-1,-1,-1,-1,-1,-1,-1,-1,-1,-1,-1,-1,-1],"loss_changes":[1.8217578E4,4.292242E3,3.6355527E3,5.3928516E2,3.3740295E3,2.1153555E3,0E0,5.305908E2,6.493102E2,3.7837935E3,1.8933398E2,1.0555996E3,4.2894136E3,3.2582996E2,1.8144238E2,2.2741124E2,0E0,6.9885864E2,1.3292673E3,0E0,2.0927986E2,2.3542773E3,1.2789258E2,6.640785E2,1.5478516E-1,0E0,0E0,0E0,0E0,0E0,0E0,0E0,0E0,0E0,0E0,0E0,0E0,0E0,0E0,0E0,0E0,0E0,0E0,0E0,0E0],"parents":[2147483647,0,0,1,1,2,2,3,3,4,4,5,5,7,7,8,8,9,9,10,10,11,11,12,12,13,13,14,14,15,15,17,17,18,18,20,20,21,21,22,22,23,23,24,24],"right_children":[2,4,6,8,10,12,-1,14,16,18,20,22,24,26,28,30,-1,32,34,-1,36,38,40,42,44,-1,-1,-1,-1,-1,-1,-1,-1,-1,-1,-1,-1,-1,-1,-1,-1,-1,-1,-1,-1],"split_conditions":[2.2720199E-3,5.3601724E-4,1.1455321E-2,5.7833694E-4,2.608621E1,3.5040043E1,-3.1987496E-2,-6.262415E-4,2.0930264E1,9.697919E-4,4.436296E-4,5.297349E-3,-4.405445E-3,-3.4859346E-4,1.8921787E1,1.7509243E-3,-3.3680454E-2,2.8640872E-3,9.891646E-3,-3.2494877E-2,4.5395116E-4,1.9156775E1,8.9169005E-3,5.427927E1,-2.149856E-2,3.522979E-2,-3.2928918E-2,-2.5099685E-2,-3.1802077E-2,3.1691033E-2,-3.4812603E-2,-3.183943E-2,-4.077181E-3,9.484297E-3,-3.411067E-2,2.8719932E-2,-3.295355E-2,2.5091896E-2,5.1817563E-3,2.7914757E-2,-3.784559E-2,2.6263691E-2,-4.012129E-2,-3.7970405E-2,-3.4024473E-2],"split_indices":[3,1,1,5,6,6,0,5,6,3,5,3,4,4,6,3,0,0,1,0,5,6,1,6,1,0,0,0,0,0,0,0,0,0,0,0,0,0,0,0,0,0,0,0,0],"split_type":[0,0,0,0,0,0,0,0,0,0,0,0,0,0,0,0,0,0,0,0,0,0,0,0,0,0,0,0,0,0,0,0,0,0,0,0,0,0,0,0,0,0,0,0,0],"sum_hessian":[3.3317176E4,1.6697426E4,1.6619748E4,7.0222886E3,9.675138E3,1.5981682E4,6.380661E2,6.6986416E3,3.236473E2,7.896757E3,1.7783813E3,1.385202E4,2.1296626E3,1.2498718E2,6.5736543E3,1.8315582E2,1.4049147E2,1.9300051E3,5.9667515E3,1.6923508E3,8.603048E1,9.546031E3,4.305988E3,1.2119886E3,9.17674E2,8.40751E1,4.0912083E1,3.065728E3,3.5079263E3,1.6045296E2,2.2702875E1,1.4452474E3,4.8475772E2,5.6734595E3,2.9329218E2,4.3138046E1,4.289243E1,5.0917925E3,4.454239E3,4.294972E3,1.1015555E1,1.149272E3,6.271668E1,9.904202E1,8.1863196E2],"tree_param":{"num_deleted":"0","num_feature":"8","num_nodes":"45","size_leaf_vector":"1"}},{"base_weights":[-3.4079726E-3,-9.1775674E-1,9.944355E-1,-1.6528517E-1,-1.3950607E0,1.0688658E0,-3.1301375E-2,-3.1609736E-2,3.8897434E-1,-8.8560724E-1,-1.5607277E0,1.1233528E0,-3.352588E-2,-3.199071E-2,8.068651E-1,-1.7746897E-1,-1.6184794E0,-3.0856771E-2,-1.6022581E0,8.706736E-1,1.44833E0,-3.3243984E-2,1.9981656E-2,-3.346398E-2,1.3094882E-2,-3.4489024E-2,1.2647048E-2,-3.1061921E-2,-3.288669E-2,2.2678064E-2,-9.279881E-3,2.9240584E-2,-3.6776736E-2],"categories":[],"categories_nodes":[],"categories_segments":[],"categories_sizes":[],"default_left":[0,0,0,0,0,0,0,0,0,0,0,0,0,0,0,0,0,0,0,0,0,0,0,0,0,0,0,0,0,0,0,0,0],"id":18,"left_children":[1,3,5,7,9,11,-1,-1,13,15,17,19,-1,-1,21,23,25,-1,27,29,31,-1,-1,-1,-1,-1,-1,-1,-1,-1,-1,-1,-1],"loss_changes":[3.0445691E4,6.2537725E3,3.0413594E3,5.303012E3,8.9762305E2,2.3211426E3,0E0,0E0,4.0382197E3,1.3576858E3,3.1855469E0,1.2470527E3,0E0,0E0,1.9071921E3,1.6594098E3,3.0790527E2,0E0,2.0761719E0,3.0067314E3,3.0207617E2,0E0,0E0,0E0,0E0,0E0,0E0,0E0,0E0,0E0,0E0,0E0,0E0],"parents":[2147483647,0,0,1,1,2,2,3,3,4,4,5,5,8,8,9,9,10,10,11,11,14,14,15,15,16,16,18,18,19,19,20,20],"right_children":[2,4,6,8,10,12,-1,-1,14,16,18,20,-1,-1,22,24,26,-1,28,30,32,-1,-1,-1,-1,-1,-1,-1,-1,-1,-1,-1,-1],"split_conditions":[2.4839325E-3,2E0,1.1455321E-2,1E0,3E0,5E0,-3.1301375E-2,-3.1609736E-2,-1.7636213E-3,1.8770699E1,1.4721618E-3,4.4919495E-3,-3.352588E-2,-3.199071E-2,1.0637023E-3,1.5584449E-3,2.4442652E-3,-3.0856771E-2,-1.7636213E-3,2.7094328E1,4.630899E1,-3.3243984E-2,1.9981656E-2,-3.346398E-2,1.3094882E-2,-3.4489024E-2,1.2647048E-2,-3.1061921E-2,-3.288669E-2,2.2678064E-2,-9.279881E-3,2.9240584E-2,-3.6776736E-2],"split_indices":[7,2,1,2,2,2,0,0,1,6,7,7,0,0,7,7,7,0,1,6,6,0,0,0,0,0,0,0,0,0,0,0,0],"split_type":[0,0,0,0,0,0,0,0,0,0,0,0,0,0,0,0,0,0,0,0,0,0,0,0,0,0,0,0,0,0,0,0,0],"sum_hessian":[3.336765E4,1.7412406E4,1.595524E4,6.7587563E3,1.065365E4,1.5504978E4,4.502624E2,1.9016261E3,4.8571304E3,2.6159917E3,8.037658E3,1.5203833E4,3.0114474E2,8.4294696E2,4.0141833E3,1.3311477E3,1.284844E3,5.646145E3,2.3915134E3,8.555597E3,6.648237E3,2.893445E2,3.7248389E3,4.755518E2,8.5559595E2,1.2273378E3,5.7506214E1,1.1214778E3,1.2700355E3,7.1463784E3,1.4092179E3,6.6212285E3,2.7008179E1],"tree_param":{"num_deleted":"0","num_feature":"8","num_nodes":"33","size_leaf_vector":"1"}},{"base_weights":[-4.0565824E-4,-9.2934954E-1,1.0131265E0,-1.386228E0,-5.766314E-1,1.0848236E0,-3.0932896E-2,-7.416392E-1,-1.4795511E0,-1.0864533E0,8.066863E-2,8.3078223E-1,1.4325228E0,-3.164912E-2,5.8395725E-1,-1.314407E0,-1.5625129E0,-3.0821232E-2,-7.1975833E-1,8.589275E-1,-9.1215014E-1,1.0947374E0,-3.5012227E-1,1.448948E0,-3.3820394E-2,2.3217311E-2,-3.395688E-2,-3.0731265E-2,-1.7740464E-2,-3.0717444E-2,-3.233162E-2,-4.683893E-3,-3.2698866E-2,2.0471787E-2,-3.4259632E-2,-5.8294768E-3,-3.1515677E-2,2.2312175E-2,-4.335697E-2,1.6384406E-2,-1.8025028E-2,2.6408175E-2,2.9734168E-2],"categories":[],"categories_nodes":[],"categories_segments":[],"categories_sizes":[],"default_left":[0,0,0,0,0,0,0,0,0,0,0,0,0,0,0,0,0,0,0,0,0,0,0,0,0,0,0,0,0,0,0,0,0,0,0,0,0,0,0,0,0,0,0],"id":19,"left_children":[1,3,5,7,9,11,-1,13,15,17,19,21,23,-1,25,27,29,-1,31,33,35,37,39,41,-1,-1,-1,-1,-1,-1,-1,-1,-1,-1,-1,-1,-1,-1,-1,-1,-1,-1,-1],"loss_changes":[3.1129426E4,2.7790732E3,2.9035068E3,4.5075488E2,3.2632354E3,1.3572285E3,0E0,1.0627507E3,8.758203E1,9.128696E2,3.2879612E3,2.7716152E3,3.3550684E2,0E0,4.894995E2,2.0741162E2,3.4882812E0,0E0,1.3492496E3,1.0119015E3,7.6956433E2,4.9712207E2,1.0478749E3,2.9104492E1,0E0,0E0,0E0,0E0,0E0,0E0,0E0,0E0,0E0,0E0,0E0,0E0,0E0,0E0,0E0,0E0,0E0,0E0,0E0],"parents":[2147483647,0,0,1,1,2,2,3,3,4,4,5,5,7,7,8,8,9,9,10,10,11,11,12,12,14,14,15,15,16,16,18,18,19,19,20,20,21,21,22,22,23,23],"right_children":[2,4,6,8,10,12,-1,14,16,18,20,22,24,-1,26,28,30,-1,32,34,36,38,40,42,-1,-1,-1,-1,-1,-1,-1,-1,-1,-1,-1,-1,-1,-1,-1,-1,-1,-1,-1],"split_conditions":[2.5284358E-3,4.763926E-4,1.1455321E-2,-3.9277904E-4,1.6032506E-3,4.7033E-3,-3.0932896E-2,-1.7636213E-3,-7.886292E-5,1.0637023E-3,2.3466638E-4,2.7094328E1,4.630899E1,-3.164912E-2,-6.05404E-5,1.5584449E-3,1.5584449E-3,-3.0821232E-2,5.1341313E-3,7.0439423E-3,-1.2354234E-4,1.083233E-3,-4.405445E-3,5.426764E-3,-3.3820394E-2,2.3217311E-2,-3.395688E-2,-3.0731265E-2,-1.7740464E-2,-3.0717444E-2,-3.233162E-2,-4.683893E-3,-3.2698866E-2,2.0471787E-2,-3.4259632E-2,-5.8294768E-3,-3.1515677E-2,2.2312175E-2,-4.335697E-2,1.6384406E-2,-1.8025028E-2,2.6408175E-2,2.9734168E-2],"split_indices":[7,1,1,5,7,7,0,1,5,7,4,6,6,0,4,7,7,0,1,1,5,5,4,7,0,0,0,0,0,0,0,0,0,0,0,0,0,0,0,0,0,0,0],"split_type":[0,0,0,0,0,0,0,0,0,0,0,0,0,0,0,0,0,0,0,0,0,0,0,0,0,0,0,0,0,0,0,0,0,0,0,0,0,0,0,0,0,0,0],"sum_hessian":[3.306115E4,1.725052E4,1.5810628E4,7.514159E3,9.736361E3,1.538045E4,4.301782E2,9.51577E2,6.562582E3,5.4830444E3,4.2533164E3,8.889294E3,6.4911562E3,5.821836E2,3.693934E2,2.2004348E3,4.3621475E3,2.4465146E3,3.0365298E3,2.3844275E3,1.8688889E3,7.2654756E3,1.623818E3,6.4577656E3,3.339024E1,2.9527423E2,7.411917E1,1.4459789E3,7.5445605E2,2.9432173E3,1.4189299E3,1.9848215E3,1.0517084E3,2.241557E3,1.4287071E2,9.665211E2,9.0236786E2,7.2199766E3,4.5498894E1,5.199535E2,1.1038645E3,1.4750844E3,4.9826816E3],"tree_param":{"num_deleted":"0","num_feature":"8","num_nodes":"43","size_leaf_vector":"1"}},{"base_weights":[-2.2886002E-2,2.2278558E-1,-3.0480742E-2,9.774502E-1,1.5782427E-2,1.4602271E0,6.7534876E-1,1.6777024E-1,-1.3933085E0,2.986535E-2,-3.623944E-2,-2.3977445E-1,1.28478E0,-1.1190971E0,3.150695E-1,-3.2206647E-2,2.439704E-1,1.2071291E-2,-3.410338E-2,2.6696391E-2,-3.3118937E-2,1.2428139E-2,-3.314113E-2,1.2511336E-2,-6.73759E-3,2.9047765E-2,-3.049954E-2],"categories":[],"categories_nodes":[],"categories_segments":[],"categories_sizes":[],"default_left":[0,0,0,0,0,0,0,0,0,0,0,0,0,0,0,0,0,0,0,0,0,0,0,0,0,0,0],"id":20,"left_children":[1,3,-1,5,7,9,11,13,15,-1,-1,17,19,21,23,-1,25,-1,-1,-1,-1,-1,-1,-1,-1,-1,-1],"loss_changes":[1.197443E4,4.3587925E3,0E0,8.747705E2,4.689817E3,2.5250146E2,2.0618584E3,3.747132E3,7.580962E2,0E0,0E0,1.8281227E3,3.2870264E2,1.9021707E3,3.5907783E3,0E0,5.3734454E2,0E0,0E0,0E0,0E0,0E0,0E0,0E0,0E0,0E0,0E0],"parents":[2147483647,0,0,1,1,3,3,4,4,5,5,6,6,7,7,8,8,11,11,12,12,13,13,14,14,16,16],"right_children":[2,4,-1,6,8,10,12,14,16,-1,-1,18,20,22,24,-1,26,-1,-1,-1,-1,-1,-1,-1,-1,-1,-1],"split_conditions":[5E0,-1.35508515E-2,-3.0480742E-2,-3.7298694E-2,3.2630836E1,4.630899E1,-8.704508E-3,1E0,4.079446E-3,2.986535E-2,-3.623944E-2,2E0,2.837624E1,-7.355022E-3,3E0,-3.2206647E-2,4.334958E-3,1.2071291E-2,-3.410338E-2,2.6696391E-2,-3.3118937E-2,1.2428139E-2,-3.314113E-2,1.2511336E-2,-6.73759E-3,2.9047765E-2,-3.049954E-2],"split_indices":[2,1,0,1,6,6,0,2,4,0,0,2,6,1,2,0,1,0,0,0,0,0,0,0,0,0,0],"split_type":[0,0,0,0,0,0,0,0,0,0,0,0,0,0,0,0,0,0,0,0,0,0,0,0,0,0,0],"sum_hessian":[3.2467215E4,2.790173E4,4.5654854E3,6.0050635E3,2.1896666E4,2.3097593E3,3.695304E3,1.976565E4,2.1310168E3,2.2872385E3,2.2520784E1,1.4773519E3,2.2179521E3,2.0293278E3,1.7736322E4,1.8816753E3,2.4934148E2,9.380317E2,5.393202E2,2.1814133E3,3.653891E1,4.7905637E2,1.5502714E3,1.2014492E4,5.72183E3,1.4828162E2,1.0105987E2],"tree_param":{"num_deleted":"0","num_feature":"8","num_nodes":"27","size_leaf_vector":"1"}},{"base_weights":[1.6887318E-2,-7.412032E-1,7.3147666E-1,-1.9738749E-1,-1.3686386E0,8.295973E-1,-1.3900968E0,-3.0947508E-2,1.038234E-1,-1.518619E0,6.041092E-1,9.026881E-1,-3.1708658E-2,2.9339006E-2,-1.5612345E0,-1.147142E0,4.295767E-1,-3.0073129E-2,-3.1222913E-2,1.467584E0,-3.0250799E-2,1.2709398E0,6.8561643E-1,-3.4854304E-2,-3.07264E-2,-2.95222E-2,9.919696E-3,1.2135141E-2,-3.378806E-2,3.304669E-2,-2.977059E-2,2.7161388E-2,2.1118287E-2,4.1109375E-3,2.458419E-2],"categories":[],"categories_nodes":[],"categories_segments":[],"categories_sizes":[],"default_left":[0,0,0,0,0,0,0,0,0,0,0,0,0,0,0,0,0,0,0,0,0,0,0,0,0,0,0,0,0,0,0,0,0,0,0],"id":21,"left_children":[1,3,5,7,9,11,13,-1,15,17,19,21,-1,-1,23,25,27,-1,-1,29,-1,31,33,-1,-1,-1,-1,-1,-1,-1,-1,-1,-1,-1,-1],"loss_changes":[1.7950096E4,5.485583E3,3.5518604E3,3.503132E3,2.20967E3,2.8792354E3,3.7112695E2,0E0,2.870784E3,1.7607422E0,9.674021E2,1.2639707E3,0E0,0E0,2.1508789E-1,7.875574E2,2.0993618E3,0E0,0E0,2.0762067E2,0E0,1.0825586E2,2.5984766E3,0E0,0E0,0E0,0E0,0E0,0E0,0E0,0E0,0E0,0E0,0E0,0E0],"parents":[2147483647,0,0,1,1,2,2,3,3,4,4,5,5,6,6,8,8,9,9,10,10,11,11,14,14,15,15,16,16,19,19,21,21,22,22],"right_children":[2,4,6,8,10,12,14,-1,16,18,20,22,-1,-1,24,26,28,-1,-1,30,-1,32,34,-1,-1,-1,-1,-1,-1,-1,-1,-1,-1,-1,-1],"split_conditions":[2.2512206E-3,3E0,1.0443926E-2,1E0,6.9681644E-3,5E0,1.2715857E1,-3.0947508E-2,-1.5835442E-3,1.4240082E-3,9.148001E-3,1.9156775E1,-3.1708658E-2,2.9339006E-2,1.1455321E-2,4.6501696E-4,2.765767E1,-3.0073129E-2,-3.1222913E-2,2.2464851E1,-3.0250799E-2,3E0,5.297349E-3,-3.4854304E-2,-3.07264E-2,-2.95222E-2,9.919696E-3,1.2135141E-2,-3.378806E-2,3.304669E-2,-2.977059E-2,2.7161388E-2,2.1118287E-2,4.1109375E-3,2.458419E-2],"split_indices":[3,2,1,2,0,2,6,0,1,3,1,6,0,0,1,5,6,0,0,6,0,2,3,0,0,0,0,0,0,0,0,0,0,0,0],"split_type":[0,0,0,0,0,0,0,0,0,0,0,0,0,0,0,0,0,0,0,0,0,0,0,0,0,0,0,0,0,0,0,0,0,0,0],"sum_hessian":[3.3133168E4,1.6077143E4,1.7056027E4,8.613263E3,7.46388E3,1.63027E4,7.533274E2,1.5705331E3,7.0427295E3,6.9367837E3,5.2709595E2,1.5824441E4,4.7825833E2,4.2113316E1,7.1121405E2,1.4544579E3,5.588272E3,5.1600063E3,1.7767773E3,3.746241E2,1.5247185E2,5.866644E3,9.957798E3,7.7045074E1,6.34169E2,1.2119731E3,2.4248477E2,5.1577617E3,4.3051E2,3.530351E2,2.1589043E1,4.1708203E3,1.6958237E3,5.2886943E3,4.669103E3],"tree_param":{"num_deleted":"0","num_feature":"8","num_nodes":"35","size_leaf_vector":"1"}},{"base_weights":[-4.1255103E-3,-9.09061E-1,9.592601E-1,-1.7351194E-1,-1.3814373E0,1.0175747E0,-3.1820197E-2,-3.0455317E-2,3.461767E-1,-9.916328E-1,-1.5052768E0,7.194572E-1,1.400351E0,-1.7707757E0,5.3974956E-1,-3.2591125E-1,-1.5836885E0,-2.9715156E-2,-3.1020856E-2,1.0231794E0,-5.521147E-1,-3.6551565E-2,1.4166583E0,-3.24299E-2,-3.7610795E-2,-3.097441E-2,1.5551139E-2,-3.287476E-2,9.5948875E-3,-3.3707444E-2,1.2349026E-2,2.3896758E-2,4.7388645E-3,1.942621E-2,-2.72728E-2,2.8583173E-2,-3.3790912E-2],"categories":[],"categories_nodes":[],"categories_segments":[],"categories_sizes":[],"default_left":[0,0,0,0,0,0,0,0,0,0,0,0,0,0,0,0,0,0,0,0,0,0,0,0,0,0,0,0,0,0,0,0,0,0,0,0,0],"id":22,"left_children":[1,3,5,7,9,11,-1,-1,13,15,17,19,21,23,25,27,29,-1,-1,31,33,-1,35,-1,-1,-1,-1,-1,-1,-1,-1,-1,-1,-1,-1,-1,-1],"loss_changes":[2.837086E4,5.830089E3,2.3456973E3,4.6029014E3,4.9151172E2,1.7573164E3,0E0,0E0,1.9428673E3,9.715232E2,4.3183594E0,3.3472793E3,3.576494E2,3.109375E0,2.1580583E3,1.2350923E3,2.9328662E2,0E0,0E0,9.4367676E2,2.0676265E3,0E0,2.6303906E2,0E0,0E0,0E0,0E0,0E0,0E0,0E0,0E0,0E0,0E0,0E0,0E0,0E0,0E0],"parents":[2147483647,0,0,1,1,2,2,3,3,4,4,5,5,8,8,9,9,10,10,11,11,12,12,13,13,14,14,15,15,16,16,19,19,20,20,22,22],"right_children":[2,4,6,8,10,12,-1,-1,14,16,18,20,22,24,26,28,30,-1,-1,32,34,-1,36,-1,-1,-1,-1,-1,-1,-1,-1,-1,-1,-1,-1,-1,-1],"split_conditions":[2.4839325E-3,2E0,5E0,1E0,3E0,4.7033E-3,-3.1820197E-2,-3.0455317E-2,1.59192E1,1.8457481E1,1.4812434E-3,2.7094328E1,1E0,-5.5974734E-4,-3.309723E-3,1.5584449E-3,2.4442652E-3,-2.9715156E-2,-3.1020856E-2,3E0,-4.405445E-3,-3.6551565E-2,4.630899E1,-3.24299E-2,-3.7610795E-2,-3.097441E-2,1.5551139E-2,-3.287476E-2,9.5948875E-3,-3.3707444E-2,1.2349026E-2,2.3896758E-2,4.7388645E-3,1.942621E-2,-2.72728E-2,2.8583173E-2,-3.3790912E-2],"split_indices":[7,2,2,2,2,7,0,0,6,6,7,6,2,0,0,7,7,0,0,2,4,0,6,0,0,0,0,0,0,0,0,0,0,0,0,0,0],"split_type":[0,0,0,0,0,0,0,0,0,0,0,0,0,0,0,0,0,0,0,0,0,0,0,0,0,0,0,0,0,0,0,0,0,0,0,0,0],"sum_hessian":[3.254079E4,1.6779494E4,1.5761296E4,6.5624756E3,1.0217019E4,1.540958E4,3.5171594E2,1.8243156E3,4.73816E3,2.4656877E3,7.7513306E3,8.66453E3,6.74505E3,3.9623117E2,4.3419287E3,1.1614476E3,1.3042402E3,5.4588193E3,2.292511E3,6.9942E3,1.6703303E3,3.3315002E1,6.711735E3,1.749631E2,2.2126807E2,4.4325397E2,3.898675E3,4.4030914E2,7.211384E2,1.2469175E3,5.7322815E1,5.7402803E3,1.2539196E3,5.804216E2,1.0899088E3,6.6854023E3,2.633241E1],"tree_param":{"num_deleted":"0","num_feature":"8","num_nodes":"37","size_leaf_vector":"1"}},{"base_weights":[3.718782E-2,-7.9807854E-1,9.7098243E-1,-2.502462E-1,-1.4919076E0,1.0423547E0,-3.0229416E-2,-1.4779787E0,1.14021994E-1,-2.9466292E-2,-1.5430622E0,1.0911329E0,-3.208952E-2,-1.5293252E0,-8.931723E-1,-1.52355E0,4.2797926E-1,-2.9903147E-2,-1.5853846E0,8.633384E-1,1.3971391E0,-3.0387046E-2,-3.4202352E-2,2.505121E-2,-3.3422094E-2,-3.0238623E-2,-3.4811504E-2,-3.181567E-2,1.307227E-2,-3.261956E-2,-2.9926836E-2,2.2023441E-2,-2.8396042E-3,-3.9586242E-2,2.8205518E-2],"categories":[],"categories_nodes":[],"categories_segments":[],"categories_sizes":[],"default_left":[0,0,0,0,0,0,0,0,0,0,0,0,0,0,0,0,0,0,0,0,0,0,0,0,0,0,0,0,0,0,0,0,0,0,0],"id":23,"left_children":[1,3,5,7,9,11,-1,13,15,-1,17,19,-1,21,23,25,27,-1,29,31,33,-1,-1,-1,-1,-1,-1,-1,-1,-1,-1,-1,-1,-1,-1],"loss_changes":[2.5832035E4,6.644374E3,2.7721426E3,4.3696973E3,4.7597656E0,1.9642656E3,0E0,6.552295E1,3.8747012E3,0E0,1.4443359E0,1.0390488E3,0E0,7.817383E-1,3.0761884E2,1.0083008E-1,2.8815215E3,0E0,1.5583496E0,2.0468452E3,2.851914E2,0E0,0E0,0E0,0E0,0E0,0E0,0E0,0E0,0E0,0E0,0E0,0E0,0E0,0E0],"parents":[2147483647,0,0,1,1,2,2,3,3,4,4,5,5,7,7,8,8,10,10,11,11,13,13,14,14,15,15,16,16,18,18,19,19,20,20],"right_children":[2,4,6,8,10,12,-1,14,16,-1,18,20,-1,22,24,26,28,-1,30,32,34,-1,-1,-1,-1,-1,-1,-1,-1,-1,-1,-1,-1,-1,-1],"split_conditions":[2.5284358E-3,3E0,1.1076211E-2,-1.3389023E-3,1.5584449E-3,5E0,-3.0229416E-2,-1.7636213E-3,1E0,-2.9466292E-2,-1.7636213E-3,4.7033E-3,-3.208952E-2,2.4050826E-3,-4.4355646E-4,2.4050826E-3,1.0637023E-3,-2.9903147E-2,7.196181E-3,2.6447548E1,1E0,-3.0387046E-2,-3.4202352E-2,2.505121E-2,-3.3422094E-2,-3.0238623E-2,-3.4811504E-2,-3.181567E-2,1.307227E-2,-3.261956E-2,-2.9926836E-2,2.2023441E-2,-2.8396042E-3,-3.9586242E-2,2.8205518E-2],"split_indices":[7,2,1,1,7,2,0,1,2,0,1,7,0,7,5,7,7,0,1,6,2,0,0,0,0,0,0,0,0,0,0,0,0,0,0],"split_type":[0,0,0,0,0,0,0,0,0,0,0,0,0,0,0,0,0,0,0,0,0,0,0,0,0,0,0,0,0,0,0,0,0,0,0],"sum_hessian":[3.311737E4,1.7480945E4,1.5636426E4,9.769034E3,7.7119116E3,1.5200034E4,4.3639154E2,2.2346313E3,7.5344023E3,5.679403E3,2.032509E3,1.4925598E4,2.744363E2,2.052623E3,1.8200826E2,1.2114452E3,6.322957E3,9.715257E2,1.0609834E3,8.558618E3,6.36698E3,1.954752E3,9.7871124E1,4.823244E1,1.3377582E2,1.1578828E3,5.356234E1,6.350081E2,5.687949E3,6.894963E2,3.714871E2,6.9212295E3,1.6373885E3,2.4066477E1,6.3429136E3],"tree_param":{"num_deleted":"0","num_feature":"8","num_nodes":"35","size_leaf_vector":"1"}},{"base_weights":[1.6358567E-2,-8.1829286E-1,9.51487E-1,-2.8603932E-1,-1.4771384E0,1.0084823E0,-3.1120285E-2,-1.4977044E0,-4.3780965E-4,-2.9183118E-2,-3.048679E-2,7.2610545E-1,1.3695698E0,-2.9734012E-2,-3.4172412E-2,-1.2299672E0,2.997003E-1,9.747565E-1,-5.737835E-1,-3.5607185E-2,1.3851192E0,-3.104927E-2,-1.5523096E-2,9.459334E-3,-3.2677893E-2,2.2621423E-2,6.3665486E-3,1.5500066E-2,-3.4200717E-2,2.7973648E-2,-3.38021E-2],"categories":[],"categories_nodes":[],"categories_segments":[],"categories_sizes":[],"default_left":[0,0,0,0,0,0,0,0,0,0,0,0,0,0,0,0,0,0,0,0,0,0,0,0,0,0,0,0,0,0,0],"id":24,"left_children":[1,3,5,7,9,11,-1,13,15,-1,-1,17,19,-1,-1,21,23,25,27,-1,29,-1,-1,-1,-1,-1,-1,-1,-1,-1,-1],"loss_changes":[2.54137E4,6.0325547E3,2.1961318E3,3.2935293E3,4.001953E0,1.5298047E3,0E0,1.3537598E0,2.843233E3,0E0,0E0,2.724796E3,3.2510645E2,0E0,0E0,2.1981152E2,2.075358E3,7.25501E2,2.0763755E3,0E0,2.7579785E2,0E0,0E0,0E0,0E0,0E0,0E0,0E0,0E0,0E0,0E0],"parents":[2147483647,0,0,1,1,2,2,3,3,4,4,5,5,7,7,8,8,11,11,12,12,15,15,16,16,17,17,18,18,20,20],"right_children":[2,4,6,8,10,12,-1,14,16,-1,-1,18,20,-1,-1,22,24,26,28,-1,30,-1,-1,-1,-1,-1,-1,-1,-1,-1,-1],"split_conditions":[2.5284358E-3,3E0,5E0,1E0,1.5419938E-3,4.7033E-3,-3.1120285E-2,2.4050826E-3,1.2184548E-3,-2.9183118E-2,-3.048679E-2,2.9434675E1,1E0,-2.9734012E-2,-3.4172412E-2,1.0637023E-3,3.2630836E1,3E0,-4.0183477E-3,-3.5607185E-2,4.630899E1,-3.104927E-2,-1.5523096E-2,9.459334E-3,-3.2677893E-2,2.2621423E-2,6.3665486E-3,1.5500066E-2,-3.4200717E-2,2.7973648E-2,-3.38021E-2],"split_indices":[7,2,2,2,7,7,0,7,7,0,0,6,2,0,0,7,6,2,4,0,6,0,0,0,0,0,0,0,0,0,0],"split_type":[0,0,0,0,0,0,0,0,0,0,0,0,0,0,0,0,0,0,0,0,0,0,0,0,0,0,0,0,0,0,0],"sum_hessian":[3.2558518E4,1.7203504E4,1.5355016E4,9.516838E3,7.686665E3,1.5014377E4,3.4063782E2,1.8144473E3,7.7023906E3,5.590747E3,2.0959182E3,8.427337E3,6.58704E3,1.7325798E3,8.1867325E1,1.5107538E3,6.1916367E3,7.0744233E3,1.3529136E3,3.1767628E1,6.5552725E3,8.816083E2,6.2914557E2,5.6831826E3,5.0845407E2,5.7130947E3,1.3613287E3,6.187075E2,7.3420605E2,6.5270625E3,2.8209915E1],"tree_param":{"num_deleted":"0","num_feature":"8","num_nodes":"31","size_leaf_vector":"1"}},{"base_weights":[-3.0872958E-2,-8.691045E-1,8.582218E-1,-1.799853E-1,-1.300833E0,9.32957E-1,-2.9813226E-2,-2.943397E-2,3.1432617E-1,-1.3577548E0,2.9985972E-2,9.8587626E-1,-3.1119522E-2,-3.0429034E-2,6.987398E-1,-1.0285138E0,-1.4597337E0,1.055553E0,-3.1492915E-2,7.284523E-1,1.3580822E0,-3.2204054E-2,1.8048894E-2,-8.168457E-3,-3.3025954E-2,-2.8884234E-2,-2.9964762E-2,3.0547654E-2,-2.9684149E-2,1.9436304E-2,-8.31171E-3,-3.7973452E-2,2.7421229E-2],"categories":[],"categories_nodes":[],"categories_segments":[],"categories_sizes":[],"default_left":[0,0,0,0,0,0,0,0,0,0,0,0,0,0,0,0,0,0,0,0,0,0,0,0,0,0,0,0,0,0,0,0,0],"id":25,"left_children":[1,3,5,7,9,11,-1,-1,13,15,17,19,-1,-1,21,23,25,27,-1,29,31,-1,-1,-1,-1,-1,-1,-1,-1,-1,-1,-1,-1],"loss_changes":[2.3381031E4,4.8039307E3,2.6738887E3,3.972901E3,7.5224805E2,1.9449736E3,0E0,0E0,3.176754E3,3.1791992E2,6.732529E2,1.3832324E3,0E0,0E0,1.7518734E3,8.7004224E2,1.8847656E0,3.0141013E2,0E0,2.379213E3,2.5220508E2,0E0,0E0,0E0,0E0,0E0,0E0,0E0,0E0,0E0,0E0,0E0,0E0],"parents":[2147483647,0,0,1,1,2,2,3,3,4,4,5,5,8,8,9,9,10,10,11,11,14,14,15,15,16,16,17,17,19,19,20,20],"right_children":[2,4,6,8,10,12,-1,-1,14,16,18,20,-1,-1,22,24,26,28,-1,30,32,-1,-1,-1,-1,-1,-1,-1,-1,-1,-1,-1,-1],"split_conditions":[2.4050826E-3,2E0,1.1455321E-2,1E0,2.2868987E-3,5E0,-2.9813226E-2,-2.943397E-2,-1.7636213E-3,3E0,-3.2054505E-4,4.7033E-3,-3.1119522E-2,-3.0429034E-2,1.0914468E-3,1.8770699E1,1.453525E-3,3E0,-3.1492915E-2,2.7507318E1,1E0,-3.2204054E-2,1.8048894E-2,-8.168457E-3,-3.3025954E-2,-2.8884234E-2,-2.9964762E-2,3.0547654E-2,-2.9684149E-2,1.9436304E-2,-8.31171E-3,-3.7973452E-2,2.7421229E-2],"split_indices":[7,2,1,2,7,2,0,0,1,2,5,7,0,0,7,6,7,2,0,6,2,0,0,0,0,0,0,0,0,0,0,0,0],"split_type":[0,0,0,0,0,0,0,0,0,0,0,0,0,0,0,0,0,0,0,0,0,0,0,0,0,0,0,0,0,0,0,0,0],"sum_hessian":[3.1370678E4,1.6147282E4,1.52233955E4,6.220251E3,9.927031E3,1.4754589E4,4.688062E2,1.7210647E3,4.499186E3,9.519901E3,4.0713028E2,1.4448041E4,3.0654782E2,7.784516E2,3.7207346E3,2.2542083E3,7.265693E3,2.4862885E2,1.5850143E2,8.542872E3,5.905169E3,3.0104712E2,3.4196875E3,1.1304564E3,1.1237517E3,5.2075303E3,2.0581626E3,2.100452E2,3.8583637E1,7.04457E3,1.4983021E3,2.2833344E1,5.882336E3],"tree_param":{"num_deleted":"0","num_feature":"8","num_nodes":"33","size_leaf_vector":"1"}},{"base_weights":[-2.1570143E-3,-8.88104E-1,8.7890905E-1,-1.2139993E0,-4.0349567E-1,5.980732E-1,1.3188319E0,-8.914505E-1,-1.3869529E0,4.4615023E-2,-1.1870618E0,9.2910993E-1,-5.4092914E-1,1.339267E0,-3.1812817E-2,-1.1953285E0,-1.3456495E-1,-1.2321827E0,-1.4755399E0,-1.3713921E0,6.685353E-1,-6.776306E-1,-1.6439238E0,1.3936874E0,7.8149617E-1,6.683856E-1,-8.802168E-1,1.3458525E0,-2.8475704E-2,-2.057598E-3,-2.685226E-2,1.4899212E-2,-3.0926948E-2,-2.9518843E-2,2.2883851E-2,-2.875979E-2,-3.0428043E-2,1.1255685E-2,-2.9504003E-2,-3.46441E-2,1.7162915E-2,-2.821771E-2,3.2069231E-3,-3.3426706E-2,-3.056108E-2,-4.6143036E-2,2.848428E-2,1.6169006E-2,-4.0667765E-2,1.994186E-2,-4.1351963E-2,1.57268E-3,-2.7909227E-2,2.4404103E-2,2.7711624E-2],"categories":[],"categories_nodes":[],"categories_segments":[],"categories_sizes":[],"default_left":[0,0,0,0,0,0,0,0,0,0,0,0,0,0,0,0,0,0,0,0,0,0,0,0,0,0,0,0,0,0,0,0,0,0,0,0,0,0,0,0,0,0,0,0,0,0,0,0,0,0,0,0,0,0,0],"id":26,"left_children":[1,3,5,7,9,11,13,15,17,19,21,23,25,27,-1,29,31,33,35,37,39,41,43,45,47,49,51,53,-1,-1,-1,-1,-1,-1,-1,-1,-1,-1,-1,-1,-1,-1,-1,-1,-1,-1,-1,-1,-1,-1,-1,-1,-1,-1,-1],"loss_changes":[2.4707744E4,2.4919688E3,1.9597246E3,5.2493945E2,2.2290234E3,3.6536196E3,3.697002E2,7.5793994E2,8.2100586E1,3.569377E3,5.3618335E2,5.135239E2,8.9602606E2,1.13634766E2,0E0,3.781621E2,1.1754042E3,1.3002795E3,4.232422E0,2.4902588E2,1.2780284E3,6.724173E2,9.9072266E-1,2.0753711E2,4.33958E2,4.324081E2,8.4242737E2,2.862793E1,0E0,0E0,0E0,0E0,0E0,0E0,0E0,0E0,0E0,0E0,0E0,0E0,0E0,0E0,0E0,0E0,0E0,0E0,0E0,0E0,0E0,0E0,0E0,0E0,0E0,0E0,0E0],"parents":[2147483647,0,0,1,1,2,2,3,3,4,4,5,5,6,6,7,7,8,8,9,9,10,10,11,11,12,12,13,13,15,15,16,16,17,17,18,18,19,19,20,20,21,21,22,22,23,23,24,24,25,25,26,26,27,27],"right_children":[2,4,6,8,10,12,14,16,18,20,22,24,26,28,-1,30,32,34,36,38,40,42,44,46,48,50,52,54,-1,-1,-1,-1,-1,-1,-1,-1,-1,-1,-1,-1,-1,-1,-1,-1,-1,-1,-1,-1,-1,-1,-1,-1,-1,-1,-1],"split_conditions":[2.4050826E-3,1.5677165E-3,4.7033E-3,-1.0197378E-4,1.1007054E-5,2.6201551E1,4.630899E1,2.2941502E-3,1.7483707E1,-2.8794457E-3,-1.3322977E-4,1.2715857E1,-4.405445E-3,2.3781994E-2,-3.1812817E-2,-4.676386E-4,6.385736E-4,1.7333622E1,1.0637023E-3,-1.0048425E-3,1.59192E1,2.058777E-3,3.2451767E1,-7.203359E-4,1.083233E-3,5.427927E1,2.9599047E1,5.426764E-3,-2.8475704E-2,-2.057598E-3,-2.685226E-2,1.4899212E-2,-3.0926948E-2,-2.9518843E-2,2.2883851E-2,-2.875979E-2,-3.0428043E-2,1.1255685E-2,-2.9504003E-2,-3.46441E-2,1.7162915E-2,-2.821771E-2,3.2069231E-3,-3.3426706E-2,-3.056108E-2,-4.6143036E-2,2.848428E-2,1.6169006E-2,-4.0667765E-2,1.994186E-2,-4.1351963E-2,1.57268E-3,-2.7909227E-2,2.4404103E-2,2.7711624E-2],"split_indices":[7,7,7,5,4,6,6,0,6,0,5,6,4,0,0,5,4,6,7,5,6,7,6,4,5,6,6,7,0,0,0,0,0,0,0,0,0,0,0,0,0,0,0,0,0,0,0,0,0,0,0,0,0,0,0],"split_type":[0,0,0,0,0,0,0,0,0,0,0,0,0,0,0,0,0,0,0,0,0,0,0,0,0,0,0,0,0,0,0,0,0,0,0,0,0,0,0,0,0,0,0,0,0,0,0,0,0,0,0,0,0,0,0],"sum_hessian":[3.1651143E4,1.5781909E4,1.5869233E4,9.435141E3,6.3467686E3,9.687536E3,6.181697E3,3.2956562E3,6.1394844E3,4.0381956E3,2.308573E3,7.5062197E3,2.1813167E3,6.139152E3,4.254524E1,2.3510388E3,9.4461743E2,2.2407378E3,3.8987468E3,1.2346835E3,2.803512E3,1.0927675E3,1.2158057E3,1.8077279E3,5.6984917E3,4.776337E2,1.703683E3,6.125102E3,1.4049362E1,2.795937E2,2.071445E3,5.8227057E2,3.6234686E2,2.0326567E3,2.0808113E2,2.1626133E3,1.7361334E3,6.2616364E1,1.1720671E3,2.0457948E2,2.5989326E3,5.8249896E2,5.1026846E2,9.716522E2,2.4415347E2,1.4152263E1,1.7935757E3,5.645184E3,5.3307625E1,4.270045E2,5.0629196E1,5.9572125E2,1.1079618E3,1.4796772E3,4.6454253E3],"tree_param":{"num_deleted":"0","num_feature":"8","num_nodes":"55","size_leaf_vector":"1"}},{"base_weights":[2.2905571E-2,-6.536522E-1,6.763462E-1,-1.1850097E0,-2.698226E-1,7.671928E-1,-1.3259051E0,-1.2859823E0,-1.317284E-1,-3.792897E-3,-1.4290336E0,8.901058E-1,-4.2595394E-2,2.7678434E-2,-1.4988663E0,1.1251903E-1,-1.3438638E0,-3.1138008E-2,8.022297E-1,-1.0592854E0,3.5580936E-1,-2.995986E-2,-5.097509E-2,7.530965E-1,1.33457E0,1.0312196E0,-1.4752344E0,-3.3900075E-2,-2.9404432E-2,2.651077E-2,-3.0724369E-2,-2.2698669E-2,-2.9410867E-2,2.4597917E-2,-3.2168474E-2,-2.7270205E-2,-3.516737E-3,9.07558E-3,-3.220203E-2,2.5607036E-2,-3.073893E-2,2.3015434E-2,6.4822766E-3,2.8351754E-2,2.491281E-2,2.395913E-2,-3.879646E-2,-3.1880185E-2,2.0076072E-2],"categories":[],"categories_nodes":[],"categories_segments":[],"categories_sizes":[],"default_left":[0,0,0,0,0,0,0,0,0,0,0,0,0,0,0,0,0,0,0,0,0,0,0,0,0,0,0,0,0,0,0,0,0,0,0,0,0,0,0,0,0,0,0,0,0,0,0,0,0],"id":27,"left_children":[1,3,5,7,9,11,13,15,17,19,21,23,25,-1,27,29,31,-1,33,35,37,-1,39,41,43,45,47,-1,-1,-1,-1,-1,-1,-1,-1,-1,-1,-1,-1,-1,-1,-1,-1,-1,-1,-1,-1,-1,-1],"loss_changes":[1.4098084E4,3.1949531E3,2.9517056E3,6.984873E2,2.805537E3,1.5447422E3,3.32235E2,4.8560352E2,7.679923E2,2.8095083E3,1.611416E2,8.1927637E2,3.1489788E3,0E0,9.144287E-1,4.802828E2,1.504541E2,0E0,3.6130695E2,5.051643E2,1.06393E3,0E0,1.642755E2,1.7568584E3,2.139502E1,5.81824E2,2.5987842E2,0E0,0E0,0E0,0E0,0E0,0E0,0E0,0E0,0E0,0E0,0E0,0E0,0E0,0E0,0E0,0E0,0E0,0E0,0E0,0E0,0E0,0E0],"parents":[2147483647,0,0,1,1,2,2,3,3,4,4,5,5,6,6,7,7,8,8,9,9,10,10,11,11,12,12,14,14,15,15,16,16,18,18,19,19,20,20,22,22,23,23,24,24,25,25,26,26],"right_children":[2,4,6,8,10,12,14,16,18,20,22,24,26,-1,28,30,32,-1,34,36,38,-1,40,42,44,46,48,-1,-1,-1,-1,-1,-1,-1,-1,-1,-1,-1,-1,-1,-1,-1,-1,-1,-1,-1,-1,-1,-1],"split_conditions":[2.2720199E-3,5.3601724E-4,1.0443926E-2,4.6501696E-4,2.584168E1,3.5040043E1,1.2715857E1,-5.2082696E-4,-3.3712692E-3,9.902334E-4,4.436296E-4,6.4397235E-3,-4.405445E-3,2.7678434E-2,1.1455321E-2,-3.4859346E-4,-7.886292E-5,-3.1138008E-2,2.2114199E1,2.8640872E-3,9.891646E-3,-2.995986E-2,4.5395116E-4,1.9156775E1,-2.4810923E-2,5.427927E1,1.1123739E-2,-3.3900075E-2,-2.9404432E-2,2.651077E-2,-3.0724369E-2,-2.2698669E-2,-2.9410867E-2,2.4597917E-2,-3.2168474E-2,-2.7270205E-2,-3.516737E-3,9.07558E-3,-3.220203E-2,2.5607036E-2,-3.073893E-2,2.3015434E-2,6.4822766E-3,2.8351754E-2,2.491281E-2,2.395913E-2,-3.879646E-2,-3.1880185E-2,2.0076072E-2],"split_indices":[3,1,1,5,6,6,6,5,1,3,5,3,4,0,1,4,5,0,6,0,1,0,5,6,1,6,3,0,0,0,0,0,0,0,0,0,0,0,0,0,0,0,0,0,0,0,0,0,0],"split_type":[0,0,0,0,0,0,0,0,0,0,0,0,0,0,0,0,0,0,0,0,0,0,0,0,0,0,0,0,0,0,0,0,0,0,0,0,0,0,0,0,0,0,0,0,0,0,0,0,0],"sum_hessian":[3.1887594E4,1.5666597E4,1.6220997E4,6.5695884E3,9.097009E3,1.5517596E4,7.034011E2,5.9946016E3,5.749869E2,7.399884E3,1.6971249E3,1.3472682E4,2.0449148E3,4.1747833E1,6.616533E2,2.3813966E2,5.756462E3,2.2741039E2,3.4757648E2,1.8800261E3,5.5198574E3,1.6160944E3,8.1030464E1,1.0300423E4,3.1722585E3,1.1689528E3,8.759621E2,7.64586E1,5.851947E2,1.3734674E2,1.00792915E2,2.1768955E3,3.5795664E3,2.9565634E2,5.192013E1,1.3979653E3,4.8206073E2,5.2586187E3,2.6123917E2,4.2776646E1,3.8253822E1,5.344268E3,4.956155E3,1.6323533E3,1.5399053E3,1.1074332E3,6.1519466E1,8.362913E2,3.9670773E1],"tree_param":{"num_deleted":"0","num_feature":"8","num_nodes":"49","size_leaf_vector":"1"}},{"base_weights":[1.6130887E-2,-8.0440515E-1,8.575128E-1,-1.0069611E-1,-1.2654655E0,9.361686E-1,-1.2932473E0,-2.8823577E-2,3.8346362E-1,-7.9306275E-1,-1.4282908E0,9.853627E-1,-3.0800113E-2,-1.5188587E0,-4.2342848E-1,-2.9647173E-2,7.4851966E-1,-1.5522841E0,-1.6702352E-1,-2.8222492E-2,-1.4690156E0,7.504151E-1,1.3147243E0,-3.8634747E-2,-2.9163959E-2,3.0768236E-2,-2.9266914E-2,2.0037994E-2,-2.0212702E-2,-2.8623799E-2,-3.1925794E-2,4.490427E-3,-3.672882E-2,-2.845046E-2,-3.0151324E-2,1.9382829E-2,-4.13037E-3,2.149026E-2,2.718117E-2],"categories":[],"categories_nodes":[],"categories_segments":[],"categories_sizes":[],"default_left":[0,0,0,0,0,0,0,0,0,0,0,0,0,0,0,0,0,0,0,0,0,0,0,0,0,0,0,0,0,0,0,0,0,0,0,0,0,0,0],"id":28,"left_children":[1,3,5,7,9,11,13,-1,15,17,19,21,-1,23,25,-1,27,29,31,-1,33,35,37,-1,-1,-1,-1,-1,-1,-1,-1,-1,-1,-1,-1,-1,-1,-1,-1],"loss_changes":[2.1775457E4,5.1806855E3,2.6356172E3,4.103709E3,7.407051E2,1.831581E3,1.0705536E2,0E0,3.1650544E3,1.1760599E3,2.6533203E0,1.1388057E3,0E0,7.7660522E0,2.3627406E2,0E0,1.7330574E3,3.3725586E0,8.881052E2,0E0,1.3276367E0,1.8004971E3,6.3600586E1,0E0,0E0,0E0,0E0,0E0,0E0,0E0,0E0,0E0,0E0,0E0,0E0,0E0,0E0,0E0,0E0],"parents":[2147483647,0,0,1,1,2,2,3,3,4,4,5,5,6,6,8,8,9,9,10,10,11,11,13,13,14,14,16,16,17,17,18,18,20,20,21,21,22,22],"right_children":[2,4,6,8,10,12,14,-1,16,18,20,22,-1,24,26,-1,28,30,32,-1,34,36,38,-1,-1,-1,-1,-1,-1,-1,-1,-1,-1,-1,-1,-1,-1,-1,-1],"split_conditions":[2.4050826E-3,2E0,1.01791015E-2,1E0,3E0,5E0,4.1624187E-3,-2.8823577E-2,-1.7636213E-3,1.5584449E-3,1.4721618E-3,4.4919495E-3,-3.0800113E-2,1.1455321E-2,2.8517595E-3,-2.9647173E-2,5.1341313E-3,-1.5835442E-3,4.429024E-3,-2.8222492E-2,-1.7636213E-3,3E0,3E0,-3.8634747E-2,-2.9163959E-2,3.0768236E-2,-2.9266914E-2,2.0037994E-2,-2.0212702E-2,-2.8623799E-2,-3.1925794E-2,4.490427E-3,-3.672882E-2,-2.845046E-2,-3.0151324E-2,1.9382829E-2,-4.13037E-3,2.149026E-2,2.718117E-2],"split_indices":[7,2,1,2,2,2,7,0,1,7,7,7,0,1,3,0,1,1,1,0,1,2,2,0,0,0,0,0,0,0,0,0,0,0,0,0,0,0,0],"split_type":[0,0,0,0,0,0,0,0,0,0,0,0,0,0,0,0,0,0,0,0,0,0,0,0,0,0,0,0,0,0,0,0,0,0,0,0,0,0,0],"sum_hessian":[3.1539064E4,1.5967296E4,1.557177E4,6.321036E3,9.646261E3,1.5022973E4,5.487967E2,1.6767854E3,4.6442505E3,2.4742478E3,7.172012E3,1.4730955E4,2.920171E2,4.3508444E2,1.1371223E2,7.5942926E2,3.8848213E3,1.1174432E3,1.3568047E3,5.072118E3,2.0998943E3,8.599878E3,6.131077E3,5.157215E1,3.835123E2,3.9194645E1,7.4517586E1,3.3961443E3,4.8867685E2,3.073831E2,8.100601E2,1.0996893E3,2.5711533E2,9.70251E2,1.1296433E3,6.999983E3,1.5998951E3,9.595506E2,5.1715264E3],"tree_param":{"num_deleted":"0","num_feature":"8","num_nodes":"39","size_leaf_vector":"1"}},{"base_weights":[1.8357508E-2,-6.885662E-1,6.622772E-1,-1.1955079E0,-3.0324376E-1,7.4010575E-1,-2.8916037E-2,1.641534E-1,-1.245951E0,-4.8681144E-2,-2.9427895E-2,8.5993683E-1,-3.6441393E-2,1.1351587E0,-3.0485421E-2,-1.3040417E0,-3.274046E-1,-1.0341533E0,2.9191267E-1,7.420342E-1,1.3681917E0,1.0200087E0,-1.458812E0,-2.8111143E-2,3.2822795E-2,-2.1376891E-2,-2.899009E-2,-3.083072E-2,1.47499535E-2,-2.7175954E-2,3.1644406E-3,7.771627E-3,-3.164808E-2,2.2335848E-2,8.184685E-3,2.8880239E-2,1.127464E-2,2.3363616E-2,-3.812661E-2,-3.1425003E-2,2.095639E-2],"categories":[],"categories_nodes":[],"categories_segments":[],"categories_sizes":[],"default_left":[0,0,0,0,0,0,0,0,0,0,0,0,0,0,0,0,0,0,0,0,0,0,0,0,0,0,0,0,0,0,0,0,0,0,0,0,0,0,0,0,0],"id":29,"left_children":[1,3,5,7,9,11,-1,13,15,17,-1,19,21,23,-1,25,27,29,31,33,35,37,39,-1,-1,-1,-1,-1,-1,-1,-1,-1,-1,-1,-1,-1,-1,-1,-1,-1,-1],"loss_changes":[1.4319351E4,2.9285342E3,2.7019307E3,4.4441016E2,2.5335989E3,1.4775205E3,0E0,3.8277533E2,3.325625E2,2.3490015E3,0E0,8.230039E2,3.192159E3,1.9283005E2,0E0,1.9908887E2,4.8323526E2,6.961544E2,9.428181E2,1.3921226E3,1.5687305E2,5.30682E2,2.568745E2,0E0,0E0,0E0,0E0,0E0,0E0,0E0,0E0,0E0,0E0,0E0,0E0,0E0,0E0,0E0,0E0,0E0,0E0],"parents":[2147483647,0,0,1,1,2,2,3,3,4,4,5,5,7,7,8,8,9,9,11,11,12,12,13,13,15,15,16,16,17,17,18,18,19,19,20,20,21,21,22,22],"right_children":[2,4,6,8,10,12,-1,14,16,18,-1,20,22,24,-1,26,28,30,32,34,36,38,40,-1,-1,-1,-1,-1,-1,-1,-1,-1,-1,-1,-1,-1,-1,-1,-1,-1,-1],"split_conditions":[2.230828E-3,7.031248E-4,1.1455321E-2,-5.2082696E-4,2.608621E1,3.5040043E1,-2.8916037E-2,-1.9169136E-4,5.152934E-4,9.902334E-4,-2.9427895E-2,2.0662372E-3,-4.405445E-3,-1.0956726E-3,-3.0485421E-2,-7.886292E-5,-3.0323062E-3,2.2951212E1,9.891646E-3,1.908163E1,2.9599047E1,5.427927E1,1.1123739E-2,-2.8111143E-2,3.2822795E-2,-2.1376891E-2,-2.899009E-2,-3.083072E-2,1.47499535E-2,-2.7175954E-2,3.1644406E-3,7.771627E-3,-3.164808E-2,2.2335848E-2,8.184685E-3,2.8880239E-2,1.127464E-2,2.3363616E-2,-3.812661E-2,-3.1425003E-2,2.095639E-2],"split_indices":[3,1,1,5,6,6,0,4,5,3,0,4,4,1,0,5,1,6,1,6,6,6,3,0,0,0,0,0,0,0,0,0,0,0,0,0,0,0,0,0,0],"split_type":[0,0,0,0,0,0,0,0,0,0,0,0,0,0,0,0,0,0,0,0,0,0,0,0,0,0,0,0,0,0,0,0,0,0,0,0,0,0,0,0,0],"sum_hessian":[3.1455127E4,1.4993915E4,1.6461213E4,6.4740723E3,8.519843E3,1.5875788E4,5.854242E2,2.3144348E2,6.242629E3,6.9963345E3,1.5235088E3,1.3753474E4,2.1223145E3,1.4718497E2,8.42585E1,5.870819E3,3.7181018E2,1.796528E3,5.1998066E3,1.1165914E4,2.5875596E3,1.2179259E3,9.043885E2,2.4115704E1,1.23069275E2,2.2468865E3,3.6239321E3,1.7356693E2,1.9824327E2,1.4120247E3,3.8450327E2,4.945582E3,2.542245E2,5.2506377E3,5.9152764E3,2.3638481E3,2.2371146E2,1.1598339E3,5.8092026E1,8.659579E2,3.8430634E1],"tree_param":{"num_deleted":"0","num_feature":"8","num_nodes":"41","size_leaf_vector":"1"}},{"base_weights":[2.2879211E-2,-7.383591E-1,8.7825304E-1,-2.2467968E-1,-1.4119934E0,9.316805E-1,-3.010436E-2,-1.4337199E0,4.770967E-2,-2.7861098E-2,-2.926591E-2,6.959165E-1,1.288426E0,-2.8460091E-2,-3.332809E-2,-7.210506E-1,5.0002134E-1,9.217949E-1,-4.9993926E-1,-1.765962E0,1.3057263E0,-2.5455534E-4,-2.7488548E-2,-2.9588217E-2,1.4027855E-2,2.1448774E-2,5.3480566E-3,1.295373E-2,-2.9664867E-2,-3.8720906E-2,-2.5036756E-2,2.6410284E-2,-3.333288E-2],"categories":[],"categories_nodes":[],"categories_segments":[],"categories_sizes":[],"default_left":[0,0,0,0,0,0,0,0,0,0,0,0,0,0,0,0,0,0,0,0,0,0,0,0,0,0,0,0,0,0,0,0,0],"id":30,"left_children":[1,3,5,7,9,11,-1,13,15,-1,-1,17,19,-1,-1,21,23,25,27,29,31,-1,-1,-1,-1,-1,-1,-1,-1,-1,-1,-1,-1],"loss_changes":[2.0348104E4,5.721051E3,1.875208E3,3.0901074E3,4.625E0,1.2094814E3,0E0,1.6213379E0,2.663228E3,0E0,0E0,2.341978E3,3.048213E2,0E0,0E0,1.3128479E3,1.9230472E3,7.1838525E2,1.5558022E3,1.1186981E-1,2.524541E2,0E0,0E0,0E0,0E0,0E0,0E0,0E0,0E0,0E0,0E0,0E0,0E0],"parents":[2147483647,0,0,1,1,2,2,3,3,4,4,5,5,7,7,8,8,11,11,12,12,15,15,16,16,17,17,18,18,19,19,20,20],"right_children":[2,4,6,8,10,12,-1,14,16,-1,-1,18,20,-1,-1,22,24,26,28,30,32,-1,-1,-1,-1,-1,-1,-1,-1,-1,-1,-1,-1],"split_conditions":[2.5060985E-3,3E0,5E0,1E0,1.5584449E-3,4.7033E-3,-3.010436E-2,2.4050826E-3,1.5584449E-3,-2.7861098E-2,-2.926591E-2,2.9599047E1,1E0,-2.8460091E-2,-3.332809E-2,-1.0197378E-4,-3.6288546E-3,3E0,-1.682765E-2,7.5619793E-3,4.630899E1,-2.5455534E-4,-2.7488548E-2,-2.9588217E-2,1.4027855E-2,2.1448774E-2,5.3480566E-3,1.295373E-2,-2.9664867E-2,-3.8720906E-2,-2.5036756E-2,2.6410284E-2,-3.333288E-2],"split_indices":[7,2,2,2,7,7,0,7,7,0,0,6,2,0,0,5,0,2,0,0,6,0,0,0,0,0,0,0,0,0,0,0,0],"split_type":[0,0,0,0,0,0,0,0,0,0,0,0,0,0,0,0,0,0,0,0,0,0,0,0,0,0,0,0,0,0,0,0,0],"sum_hessian":[3.124779E4,1.6533688E4,1.4714104E4,9.381393E3,7.152294E3,1.4392143E4,3.2196066E2,1.7242333E3,7.6571597E3,5.245866E3,1.9064281E3,8.667345E3,5.7247974E3,1.6555398E3,6.869342E1,2.836077E3,4.8210825E3,7.2905815E3,1.3767635E3,3.1641348E1,5.6931562E3,1.3613817E3,1.4746952E3,4.4453812E2,4.3765444E3,5.925674E3,1.3649073E3,6.3540936E2,7.413542E2,2.155144E1,1.0089909E1,5.6655586E3,2.7597414E1],"tree_param":{"num_deleted":"0","num_feature":"8","num_nodes":"33","size_leaf_vector":"1"}}]},"name":"gbtree"},"learner_model_param":{"base_score":"[5E-1]","boost_from_average":"1","num_class":"0","num_feature":"8","num_target":"1"},"objective":{"name":"binary:logistic","reg_loss_param":{"scale_pos_weight":"159.896927"}}},"version":[3,2,0]}